tree
version=v4
num_class=1
num_tree_per_iteration=1
label_index=0
max_feature_idx=109
objective=regression
feature_names=BTCUSDT_open BTCUSDT_high BTCUSDT_low BTCUSDT_close BTCUSDT_volume BTCUSDT_return BTCUSDT_ma_7 BTCUSDT_ma_14 BTCUSDT_volatility_30 BTCUSDT_zscore_30 BTCUSDT_rsi_14 BTCUSDT_macd BTCUSDT_macd_signal BTCUSDT_macd_diff BTCUSDT_bb_width BTCUSDT_return_lag1 BTCUSDT_return_lag2 BTCUSDT_return_lag3 BTCUSDT_obv BTCUSDT_vwap BTCUSDT_hour BTCUSDT_day_of_week ETHUSDT_open ETHUSDT_high ETHUSDT_low ETHUSDT_close ETHUSDT_volume ETHUSDT_return ETHUSDT_ma_7 ETHUSDT_ma_14 ETHUSDT_volatility_30 ETHUSDT_zscore_30 ETHUSDT_rsi_14 ETHUSDT_macd ETHUSDT_macd_signal ETHUSDT_macd_diff ETHUSDT_bb_width ETHUSDT_return_lag1 ETHUSDT_return_lag2 ETHUSDT_return_lag3 ETHUSDT_obv ETHUSDT_vwap ETHUSDT_hour ETHUSDT_day_of_week BNBUSDT_open BNBUSDT_high BNBUSDT_low BNBUSDT_close BNBUSDT_volume BNBUSDT_return BNBUSDT_ma_7 BNBUSDT_ma_14 BNBUSDT_volatility_30 BNBUSDT_zscore_30 BNBUSDT_rsi_14 BNBUSDT_macd BNBUSDT_macd_signal BNBUSDT_macd_diff BNBUSDT_bb_width BNBUSDT_return_lag1 BNBUSDT_return_lag2 BNBUSDT_return_lag3 BNBUSDT_obv BNBUSDT_vwap BNBUSDT_hour BNBUSDT_day_of_week SOLUSDT_open SOLUSDT_high SOLUSDT_low SOLUSDT_close SOLUSDT_volume SOLUSDT_return SOLUSDT_ma_7 SOLUSDT_ma_14 SOLUSDT_volatility_30 SOLUSDT_zscore_30 SOLUSDT_rsi_14 SOLUSDT_macd SOLUSDT_macd_signal SOLUSDT_macd_diff SOLUSDT_bb_width SOLUSDT_return_lag1 SOLUSDT_return_lag2 SOLUSDT_return_lag3 SOLUSDT_obv SOLUSDT_vwap SOLUSDT_hour SOLUSDT_day_of_week ADAUSDT_open ADAUSDT_high ADAUSDT_low ADAUSDT_close ADAUSDT_volume ADAUSDT_return ADAUSDT_ma_7 ADAUSDT_ma_14 ADAUSDT_volatility_30 ADAUSDT_zscore_30 ADAUSDT_rsi_14 ADAUSDT_macd ADAUSDT_macd_signal ADAUSDT_macd_diff ADAUSDT_bb_width ADAUSDT_return_lag1 ADAUSDT_return_lag2 ADAUSDT_return_lag3 ADAUSDT_obv ADAUSDT_vwap ADAUSDT_hour ADAUSDT_day_of_week
feature_infos=[15653.629999999999:73485.350000000006] [15769.129999999999:138070] [15486.74:73190.059999999998] [15650.780000000001:73487.75] [0.0062899999999999996:2004.507026] [-0.088984363954880102:0.12647227743408199] [15746.204285714284:73248.855714285717] [15776.579285714286:73137.041428571421] [0.00045176674564959999:0.031704297236320199] [-4.9574363728022153:5.1229199971338515] [6.9396334198231466:92.257629126889839] [-2362.0006814277003:1885.7769492287844] [-2076.9435269365058:1744.1282079115281] [-769.48175018780307:620.07253336935992] [27.515931025605823:12363.101406971064] [-0.088984363954880102:0.12647227743408199] [-0.088984363954880102:0.12647227743408199] [-0.088984363954880102:0.12647227743408199] [-11506.304408999988:7017.7553420000113] [15661.963333333331:73387.963333333333] [0:23] [0:6] [756.89999999999998:4847.8999999999996] [770.86000000000001:4866.21] [753.33000000000004:4833.4200000000001] [758.05999999999995:4847.1899999999996] [0.001:7326.6536299999998] [-0.12719551217290029:0.094002020933823899] [755.33285714285716:4809.9157142857148] [743.64357142857148:4800.5828571428574] [0.00059711734622270001:0.046989806092610498] [-5.0545098927804659:4.9953448709540851] [6.688876919484998:92.93296433649914] [-208.18001478115957:160.47413576206918] [-180.02831148424522:138.3849536064611] [-63.794083102911515:62.417840226593725] [3.9261890784041498:1219.8968042831066] [-0.12719551217290029:0.094002020933823899] [-0.12719551217290029:0.094002020933823899] [-0.12719551217290029:0.094002020933823899] [-39135.212030000068:43392.60878999994] [764.32999999999993:4848.1833333333334] [0:23] [0:6] [35.830599999999997:715.29999999999995] [36.936199999999999:718] [35.128599999999999:712] [35.876100000000001:716.5] [0:28223.029999999999] [-0.15497182872278109:0.148803116353352] [36.799485714285709:708.8142857142858] [37.305485714285709:706.9357142857142] [0.0010044699451932:0.055095139246621398] [-4.8195702148064239:5.0789682954218947] [5.784911496967732:90.548777354540434] [-38.292331959744843:31.428153633248257] [-32.805920657275514:29.491735402306148] [-10.452869510242271:10.102249182375424] [0.81853524038814385:216.35352670686152] [-0.15497182872278109:0.148803116353352] [-0.15497182872278109:0.148803116353352] [-0.15497182872278109:0.148803116353352] [-20548.710000000006:212017.65999999992] [35.9803:714.16666666666663] [0:23] [0:6] [1.7703:258.4957] [1.8008999999999999:259.78059999999999] [1.7563:256.25920000000002] [1.7672000000000001:258.41719999999998] [0:200450.59] [-0.19658150290712351:0.16907199870998929] [1.7801714285714283:254.92082857142856] [1.7864214285714286:254.53961428571429] [0.0017835317236526:0.070387092270766699] [-4.8076739166688904:4.9348531529941475] [11.010264929428974:92.717632190267722] [-9.6087009564494128:11.117015206250926] [-8.6940596202619549:9.6998289035006646] [-3.8051688064294424:4.1091792130482574] [0.095086308163031305:78.21132414719176] [-0.19658150290712351:0.16907199870998929] [-0.19658150290712351:0.16907199870998929] [-0.19658150290712351:0.16907199870998929] [-56466.499999999971:3455991.4299999992] [1.7826333333333333:257.91026666666664] [0:23] [0:6] [0.17421:3.0922000000000001] [0.17551:3.0994100000000002] [0.10367999999999999:3.0480499999999999] [0.17427999999999999:3.0913200000000001] [0:6658786.7000000002] [-0.21355949265149979:0.1585230221694966] [0.17522571428571429:3.0485171428571434] [0.1754478571428571:3.0289757142857141] [0.0015405479878558999:0.069407988131880094] [-4.8698994737722217:4.890549018424438] [9.0393185572181594:95.365928680777316] [-0.14326550474172081:0.10023121021293591] [-0.1136119205604473:0.091107680546505906] [-0.043526228000122999:0.047391835716030499] [0.0013059865158724:0.82178267496706159] [-0.21355949265149979:0.1585230221694966] [-0.21355949265149979:0.1585230221694966] [-0.21355949265149979:0.1585230221694966] [-608476.50000000012:70946059.699999899] [0.1746566666666666:3.0727566666666668] [0:23] [0:6]
tree_sizes=2997 3018 3008 3027 3014 3001 3028 3023 3019 3030 3028 3020 3032 3023 3020 3063 3037 3048 3012 3029 3036 3003 3024 3025 3023 3027 3040 3015

Tree=0
num_leaves=31
num_cat=0
split_feature=92 96 53 74 22 79 71 58 55 75 93 60 59 81 52 0 3 39 48 77 8 13 103 96 74 26 80 16 59 78
split_gain=0.0234229 0.0288921 0.0279422 0.00962878 0.00793331 0.0104031 0.00685683 0.0225406 0.00935801 0.00772382 0.0058817 0.00441205 0.00417823 0.00405801 0.00793688 0.0262771 0.0072643 0.00702997 0.00567954 0.00660381 0.00644153 0.00366342 0.00497042 0.0069278 0.00429874 0.00992679 0.00424549 0.00415933 0.00406909 0.00341669
threshold=1927275.9500000002 0.032341898304107559 -2.3371281414709091 0.030245918365245855 1038.5600000000002 0.0054435767443694006 -0.052302192247855941 60.504611167510724 0.23374680179600207 -2.441180966630927 -0.0014003151137948497 0.0029658933447700001 -0.0037401842241627996 -0.01461239073896895 0.034549363904107004 39755.025000000009 16439.280000000002 -0.027915165921646695 3105.9250000000006 0.055089768696642907 0.019757252121489401 141.75032824984433 0.0084866054266008011 0.028338402971146953 0.031424654891088762 453.28900000000004 6.7254630956596353 -0.0016417931852582997 -0.0024239967423976493 4.7034496847708018
decision_type=2 2 2 2 2 2 2 2 2 2 2 2 2 2 2 2 2 2 2 2 2 2 2 2 2 2 2 2 2 2
left_child=4 2 -2 -4 5 10 7 8 9 -6 -1 -7 -12 14 16 -16 -8 -18 20 -20 21 24 23 28 29 27 -27 -26 -23 -19
right_child=1 -3 3 -5 6 11 13 -9 -10 -11 12 -13 -14 -15 15 -17 17 18 19 -21 -22 22 -24 -25 25 26 -28 -29 -30 -31
leaf_value=0.00043183795292594938 0.002114367975328831 0.0024765573031979632 0.00044747841197053187 -0.0007902014249517934 0.00059397035039461684 0.00046633075039887101 0.0012050997282944352 0.0017625008845344662 0.0010803886889453372 -0.00064433722584843667 0.00086772623607709307 -0.00048034649595768658 0.0018558734663249564 0.00022057589481612575 -0.0014648346385918375 0.00070689415713156114 0.00096709916606932704 0.00028164433926920036 0.00026824555337062441 0.001270376220613213 -0.00052969870096688631 0.00030089461605902715 -0.00021754320649076099 0.0014697591124541453 0.0008997332433556129 -0.00013030333029881081 -0.0011125888694316079 1.2303794346590099e-05 0.00094625081477250613 -0.0003751369743867451
leaf_weight=25 22 24 55 22 20 32 22 31 20 34 20 20 23 28600 26 30 38 1998 35 31 25 94 21 20 23 22 22 31 33 20
leaf_count=25 22 24 55 22 20 32 22 31 20 34 20 20 23 28600 26 30 38 1998 35 31 25 94 21 20 23 22 22 31 33 20
internal_value=0.000231535 0.000920165 0.000542858 9.38556e-05 0.00022883 0.000634593 0.000227269 0.00063064 0.000156483 -0.000185705 0.0010417 0.000102224 0.00139627 0.000225907 0.000287115 -0.000301408 0.000300649 0.000292403 0.000281608 0.000738943 0.000268536 0.000277273 0.000502007 0.0006048 0.00025943 -6.39627e-05 -0.000621446 0.000390283 0.000468586 0.000275135
internal_weight=31439 123 99 77 31316 120 31196 105 74 54 68 52 43 31091 2491 56 2435 2413 2375 66 2309 2284 168 147 2116 98 44 54 127 2018
internal_count=31439 123 99 77 31316 120 31196 105 74 54 68 52 43 31091 2491 56 2435 2413 2375 66 2309 2284 168 147 2116 98 44 54 127 2018
is_linear=0
shrinkage=1


Tree=1
num_leaves=31
num_cat=0
split_feature=92 96 53 74 22 79 71 81 78 96 93 4 59 81 52 0 3 39 48 77 8 104 76 13 105 74 26 16 55 102
split_gain=0.0211391 0.0260751 0.0252179 0.00868997 0.00715981 0.00938878 0.00618829 0.020998 0.01649 0.0108521 0.00530824 0.00404138 0.00377086 0.00366235 0.00716303 0.0237151 0.00655603 0.00634455 0.00512578 0.00595994 0.00581348 0.00356544 0.0067912 0.00397673 0.00610953 0.00379164 0.0116803 0.00428653 0.00374737 0.00573641
threshold=1927275.9500000002 0.032341898304107559 -2.3371281414709091 0.030245918365245855 1038.5600000000002 0.0054435767443694006 -0.052302192247855941 -0.022831644517380099 -0.9930609454748075 0.021037971138440751 -0.0014003151137948497 37.231158000000008 -0.0037401842241627996 -0.01461239073896895 0.034549363904107004 39755.025000000009 16439.280000000002 -0.027915165921646695 3105.9250000000006 0.055089768696642907 0.019757252121489401 -0.022054404572013946 47.509794160324297 141.75032824984433 0.018223316971638651 0.031424654891088762 489.08472000000006 -0.0016417931852582997 -3.9787395886646375 0.27009013810112681
decision_type=2 2 2 2 2 2 2 2 2 2 2 2 2 2 2 2 2 2 2 2 2 2 2 2 2 2 2 2 2 2
left_child=4 2 -2 -4 5 10 7 -6 -9 -10 -1 -7 -12 14 16 -16 -8 -18 20 -20 21 22 -19 25 -25 28 27 -27 29 -23
right_child=1 -3 3 -5 6 11 13 8 9 -11 12 -13 -14 -15 15 -17 17 18 19 -21 -22 23 -24 24 -26 26 -28 -29 -30 -31
leaf_value=0.0001902880114503205 0.0017886915095997127 0.0021327713688757892 0.00020514645367008847 -0.00097064939565660261 0.0018368193600326777 -0.0005989541394228582 0.00092488669509872455 -0.0010741034994074048 -2.7890728177646032e-05 0.0013609372825819513 0.00060438189160777261 0.00028524829509219026 0.0015431217760203215 -1.0410937767876424e-05 -0.0016115509488512404 0.00045159141562180595 0.00069878615935235039 -2.6184945974299418e-06 3.4875238987816767e-05 0.00098689936191564596 -0.00072317179874517026 0.00015258286256254118 -0.00089006839934254768 0.00015262978106745455 0.0009535816930643893 0.00068517708337326037 -0.0010819279463612475 -0.0002158461403076107 2.3111424918078414e-05 0.00097469111889317305
leaf_weight=25 22 24 55 22 20 24 22 24 39 22 20 28 23 28600 26 30 38 84 35 31 25 274 29 133 29 22 30 33 1627 23
leaf_count=25 22 24 55 22 20 24 22 24 39 22 20 28 23 28600 26 30 38 84 35 31 25 274 29 133 29 22 30 33 1627 23
internal_value=-3.66064e-12 0.000654199 0.000295757 -0.000130795 -2.5695e-06 0.000382906 -4.05229e-06 0.00037915 3.61694e-05 0.000472998 0.000769656 -0.000122845 0.0011065 -5.34644e-06 5.28008e-05 -0.000506296 6.56589e-05 5.7825e-05 4.75697e-05 0.000482038 3.51509e-05 4.34513e-05 -0.000230371 5.77037e-05 0.00029601 3.84873e-05 -0.000288316 0.000144563 5.29251e-05 0.000216248
internal_weight=31439 123 99 77 31316 120 31196 105 85 61 68 52 43 31091 2491 56 2435 2413 2375 66 2309 2284 113 2171 162 2009 85 55 1924 297
internal_count=31439 123 99 77 31316 120 31196 105 85 61 68 52 43 31091 2491 56 2435 2413 2375 66 2309 2284 113 2171 162 2009 85 55 1924 297
is_linear=0
shrinkage=0.05


Tree=2
num_leaves=31
num_cat=0
split_feature=92 96 53 102 22 79 71 57 78 0 93 96 60 1 81 52 0 3 39 48 76 8 71 101 74 103 55 103 77 58
split_gain=0.0190781 0.0235328 0.0227591 0.00808634 0.00646173 0.00847337 0.00558493 0.0198723 0.0126904 0.0078993 0.00479068 0.00404072 0.0039258 0.00368275 0.00330527 0.00646464 0.0214029 0.00591682 0.00572595 0.00462602 0.00538199 0.00524666 0.00355898 0.00542834 0.0100216 0.00484251 0.0068534 0.0047342 0.00403861 0.00376605
threshold=1927275.9500000002 0.032341898304107559 -2.3371281414709091 0.22340584323383214 1038.5600000000002 0.0054435767443694006 -0.052302192247855941 -2.5189146602796306 -1.0691273269432229 37817.860000000008 -0.0014003151137948497 0.022432871455741955 0.0029658933447700001 31812.465000000004 -0.01461239073896895 0.034549363904107004 39755.025000000009 16439.280000000002 -0.027915165921646695 3105.9250000000006 48.08428856613957 0.019757252121489401 -0.021879460955105848 -0.011868090915728999 0.020152539909924702 -0.022065294276236599 -3.4850581592189935 -0.011816029181266648 0.038685041632968202 67.182165394696199
decision_type=2 2 2 2 2 2 2 2 2 2 2 2 2 2 2 2 2 2 2 2 2 2 2 2 2 2 2 2 2 2
left_child=4 2 -2 11 5 10 7 -6 -9 -10 -1 -4 -7 -12 15 17 -17 -8 -19 21 -21 22 25 24 -24 26 -20 -27 -29 -25
right_child=1 -3 3 -5 6 12 14 8 9 -11 13 -13 -14 -15 -16 16 -18 18 19 20 -22 -23 23 29 -26 27 -28 28 -30 -31
leaf_value=0.00018077360908500852 0.0016992569165515969 0.0020261328056676575 -0.00013947068688659265 -0.00096098463760600208 0.0016589947090403217 0.00022675413320030204 0.00087864235391118043 -0.0010642256471328439 -0.00014618526063927943 0.00099934832326619458 0.0015032589139247483 0.00073783242568467924 -0.00066623406199141757 0.00057756047851095598 -9.8903866312937211e-06 -0.0015309734149083782 0.0004290118312928826 0.00066384685970230126 0.0013381937263065166 0.00014949451035742338 0.0011188826235454708 -0.00068701322370907296 9.3865748476673622e-05 2.523577190694001e-05 -0.0012924049033741043 -0.00028723745684449873 0.00012817936355713757 5.8143192672148529e-05 0.00085106307725744479 0.00042724302242277187
leaf_weight=25 22 24 35 21 23 32 22 21 34 27 22 21 20 21 28600 26 30 38 22 45 21 25 32 2007 22 48 25 42 26 60
leaf_count=25 22 24 35 21 23 32 22 21 34 27 22 21 20 21 28600 26 30 38 22 45 21 25 32 2007 22 48 25 42 26 60
internal_value=1.36663e-13 0.000621489 0.00028097 -0.000124255 -2.44103e-06 0.00036376 -3.84967e-06 0.000360193 -4.10528e-06 0.000360854 0.000731174 0.000189518 -0.000116703 0.00105117 -5.07911e-06 5.01607e-05 -0.000480981 6.23759e-05 5.49338e-05 4.51912e-05 0.000457936 3.33933e-05 4.12787e-05 2.39762e-05 -0.000470911 0.000266423 0.000694569 9.29505e-05 0.000361318 3.69051e-05
internal_weight=31439 123 99 77 31316 120 31196 105 82 61 68 56 52 43 31091 2491 56 2435 2413 2375 66 2309 2284 2121 54 163 47 116 68 2067
internal_count=31439 123 99 77 31316 120 31196 105 82 61 68 56 52 43 31091 2491 56 2435 2413 2375 66 2309 2284 2121 54 163 47 116 68 2067
is_linear=0
shrinkage=0.05


Tree=3
num_leaves=31
num_cat=0
split_feature=59 8 61 22 79 10 93 82 30 81 55 97 83 44 18 96 100 72 50 83 78 76 22 100 63 53 26 77 93 34
split_gain=0.0178311 0.0227711 0.0090269 0.00746667 0.00880328 0.00590949 0.0201257 0.00782864 0.00567003 0.00490988 0.00488385 0.0197046 0.00591244 0.00641455 0.00794524 0.00582377 0.0109462 0.0163039 0.0125817 0.00992889 0.0101197 0.00776578 0.00715978 0.00900586 0.00696145 0.00624448 0.00810281 0.00564864 0.00518896 0.00535653
threshold=-0.039715464700439594 0.018062272316943104 -0.010737203882472098 1038.5600000000002 0.0054435767443694006 23.863651375602803 -0.042651287591984798 0.017013595274191957 0.015277475693965701 -0.0099918134790319985 -8.4355500378376558 -2.1531427718486587 0.060568910315338106 273.08550000000008 -1128.9427069999963 0.023231395942908604 -0.0032338050933711495 12.155035714285715 40.056735714285722 -0.0036421825221717497 -1.1668181707586351 70.568004553023854 1187.3750000000002 0.0011023865909317002 39.994033333333341 0.40161089082801077 212.06452000000004 -0.96605082332961689 -0.034226057705020144 12.38312775839686
decision_type=2 2 2 2 2 2 2 2 2 2 2 2 2 2 2 2 2 2 2 2 2 2 2 2 2 2 2 2 2 2
left_child=1 2 -1 4 9 6 -5 8 -8 -2 11 -7 13 14 -13 24 17 18 -17 27 -21 22 23 -18 -12 26 -22 -19 -24 -30
right_child=3 -3 -4 5 -6 10 7 -9 -10 -11 15 12 -14 -15 -16 16 21 19 -20 20 25 -23 28 -25 -26 -27 -28 -29 29 -31
leaf_value=0.0010760964608009628 0.00019369010920994558 0.0021001739241737166 9.9254591235270105e-06 0.0015536575516453014 -0.00011086773651746068 -0.0013436880923991064 9.8829233265624005e-05 0.0010608894295000939 -0.00062616309833488082 0.0010533089958303407 -0.00084143924326053826 0.0011224627923220396 -0.00089690512118284548 -0.00010477511081814855 -0.00019677437312133237 0.00048316930663401894 -3.4874461396777242e-05 -0.0009787722921464593 0.0022354612138587981 0.0012910599870762478 -0.00019617673131592926 -0.00086514085317806663 0.00072688411943565138 0.0014127167529555404 -6.7328101163072663e-06 -0.00042167813964904502 0.0011133577691874019 5.4751995962877307e-05 5.8795946689136936e-05 -0.00035722318203730997
leaf_weight=27 26 21 75 25 52 33 385 20 29 46 25 25 21 382 21 21 22 20 20 30 21 24 23 21 29518 26 27 39 311 103
leaf_count=27 26 21 75 25 52 33 385 20 29 46 25 25 21 382 21 21 22 20 20 30 21 24 23 21 29518 26 27 39 311 103
internal_value=-5.84281e-13 0.000600835 0.000292147 -2.3599e-06 0.000384863 -3.89926e-06 0.000174182 9.47196e-05 4.80447e-05 0.000742891 -6.55893e-06 -0.000164464 -7.77946e-05 -3.76046e-05 0.000520202 -4.04297e-06 0.000137671 0.00044669 0.00133795 0.000222509 0.000516434 1.25919e-05 5.64785e-05 0.000672089 -7.43916e-06 0.000202396 0.000540436 -0.000295595 -4.09637e-06 -4.47064e-05
internal_weight=31439 123 102 31316 124 31192 459 434 414 72 30733 482 449 428 46 30251 708 204 41 163 104 504 480 43 29543 74 48 59 437 414
internal_count=31439 123 102 31316 124 31192 459 434 414 72 30733 482 449 428 46 30251 708 204 41 163 104 504 480 43 29543 74 48 59 437 414
is_linear=0
shrinkage=0.05


Tree=4
num_leaves=31
num_cat=0
split_feature=92 96 53 74 22 79 71 58 55 0 81 6 4 76 39 27 74 55 9 59 61 103 9 39 18 16 55 105 15 106
split_gain=0.0162488 0.0204977 0.0201093 0.00735097 0.00521491 0.00685183 0.00489082 0.0192069 0.00784674 0.00780485 0.00456469 0.00496534 0.00359445 0.0032519 0.00594103 0.00434238 0.0100181 0.00620425 0.00548165 0.00301093 0.00636159 0.00541531 0.00539314 0.00292212 0.00419192 0.00291672 0.00761436 0.00315953 0.00612555 0.00458757
threshold=1927275.9500000002 0.032341898304107559 -2.3371281414709091 0.030245918365245855 1038.5600000000002 0.0054435767443694006 -0.052302192247855941 60.504611167510724 0.23374680179600207 31586.830000000005 0.0077286905985176008 31594.76071428572 37.231158000000008 21.124049989452107 -0.0066616467111547993 -0.027915165921646695 0.023650872042193901 -4.5883690787843525 -1.5095242186561333 -0.039715464700439594 -0.010737203882472098 -0.026005405288779346 -1.85246135261616 0.00070204367166420013 -2517.4789579999965 0.027524484902964202 -3.711018637171605 -0.042595440125089847 0.0010981022018970502 40145152.000000007
decision_type=2 2 2 2 2 2 2 2 2 2 2 2 2 2 2 2 2 2 2 2 2 2 2 2 2 2 2 2 2 2
left_child=4 2 -2 -4 5 10 7 8 9 -6 11 -1 -7 14 -8 16 17 -15 -18 20 -17 22 -22 24 -16 27 -27 28 29 -21
right_child=1 -3 3 -5 6 12 13 -9 -10 -11 -12 -13 -14 15 23 19 18 -19 -20 25 21 -23 -24 -25 -26 26 -28 -29 -30 -31
leaf_value=0.00086166054631272952 0.0015889236999844963 0.0018844958945313313 0.0001838273376713253 -0.00089759405672421879 0.00033965273704823285 -0.00055433644799146966 0.00084103028657409604 0.0013819648161335219 0.00074547978423652236 -0.00089340220773451477 0.0011619332873292647 -0.00023914808291010557 0.00027954318104873112 0.00073236259125658999 -0.0007210451860806817 0.0010723596822936087 -0.0014194406314661889 -0.00019330104693140397 -0.00036901593204540271 -0.00037067873880732808 0.00024536336473513236 0.00067370584495264401 -0.00087729085993487393 0.00052479474501784102 0.00018809230659826427 0.0010611730461001256 3.6968249992770689e-05 -5.148017950495315e-06 -0.00073309238535774395 0.00061930696610943423
leaf_weight=21 22 24 55 22 21 24 32 31 20 33 27 20 28 23 21 20 23 85 27 25 23 23 20 21 32 23 86 30542 43 22
leaf_count=21 22 24 55 22 21 24 32 31 20 33 27 20 28 23 21 20 23 85 27 25 23 23 20 21 32 23 86 30542 43 22
internal_value=-1.42723e-12 0.000573558 0.000255755 -0.00012515 -2.25277e-06 0.000326727 -3.51824e-06 0.000337152 -0.00010054 -0.000413881 0.000657119 0.000324681 -0.000105324 -4.66874e-06 0.000271799 -5.61454e-06 -0.000267068 3.83102e-06 -0.000852211 -4.27449e-06 0.000291162 5.4436e-05 -0.000276801 2.56445e-05 -0.000172132 -5.101e-06 0.000253085 -6.01972e-06 -0.000301835 9.27188e-05
internal_weight=31439 123 99 77 31316 120 31196 105 74 54 68 41 52 31091 106 30985 158 108 50 30827 86 66 43 74 53 30741 109 30632 90 47
internal_count=31439 123 99 77 31316 120 31196 105 74 54 68 41 52 31091 106 30985 158 108 50 30827 86 66 43 74 53 30741 109 30632 90 47
is_linear=0
shrinkage=0.05


Tree=5
num_leaves=31
num_cat=0
split_feature=59 33 46 12 22 35 99 97 10 27 84 30 74 55 97 83 31 50 78 96 10 76 14 95 49 4 105 61 32 48
split_gain=0.0148699 0.0210239 0.0230852 0.00673789 0.00618906 0.00746595 0.0056577 0.00941665 0.00516468 0.0184338 0.00784894 0.00654454 0.00476901 0.00451599 0.0177396 0.00545526 0.0056431 0.00902192 0.00654745 0.00517151 0.0101985 0.00792486 0.012274 0.0153616 0.0106725 0.0105837 0.0114654 0.00978836 0.00937477 0.0083837
threshold=-0.039715464700439594 -54.348374604338908 330.20065000000005 -215.58392694330215 1038.5600000000002 -6.3423053799622968 0.00057950366886615017 -0.66502665817865825 23.863651375602803 -0.035183075234880491 981136.79999999783 0.013417255056309002 0.016141219956911205 -8.4355500378376558 -2.1531427718486587 0.060568910315338106 -1.7466413676404118 270.35805000000011 -0.41468527091134672 0.023231395942908604 36.111556207214839 60.292059602619823 2408.8137328998278 0.3079014285714286 0.0086965785560304005 13.976131000000001 -0.0062067042707104987 -0.016336198312192348 56.637977924316566 1637.6350000000002
decision_type=2 2 2 2 2 2 2 2 2 2 2 2 2 2 2 2 2 2 2 2 2 2 2 2 2 2 2 2 2 2
left_child=1 2 -1 -3 5 -2 7 -7 9 -6 -11 12 -12 14 -10 16 18 -18 -16 -15 -21 22 27 -24 -25 28 -27 -22 -23 -26
right_child=4 3 -4 -5 8 6 -8 -9 13 10 11 -13 -14 19 15 -17 17 -19 -20 20 21 25 23 24 29 26 -28 -29 -30 -31
leaf_value=0.0026914952334482225 0.0010525920961236839 -0.00063273920677602295 0.00028914094837091399 0.00037380170471199866 0.0015119210428868731 -0.00016289477033780951 -0.00035794399971362308 0.0011020874458543923 -0.0012767686279293038 0.00081789404834767894 5.0683677992705112e-05 -0.00057189139234407513 0.00084515996801201262 -6.82397021866541e-06 -0.0001450503875205938 -0.00086245456727088567 0.00081921330505899863 -3.7187802429442576e-05 -0.0012095749405125391 0.0011655464978463463 -0.0011162817750697618 0.00084476183837978169 0.0014602446108862447 7.0935368716848162e-05 0.00039072808727117571 0.00017267988691739263 -0.00090563991993193095 5.7012436101474296e-06 -0.00032195837165724671 0.0014261280251707047
leaf_weight=20 29 23 20 60 24 31 36 28 33 34 340 41 20 29543 52 21 34 322 20 23 22 36 30 202 60 39 67 167 33 29
leaf_count=20 29 23 20 60 24 31 36 28 33 34 340 41 20 29543 52 21 34 322 20 23 22 36 30 202 60 39 67 167 33 29
internal_value=3.97532e-12 0.000548681 0.00149032 9.48807e-05 -2.15505e-06 0.000350386 0.000136029 0.000437436 -3.55654e-06 0.000162925 8.84977e-05 2.66536e-05 9.48212e-05 -6.04296e-06 -0.000157884 -7.56501e-05 -3.70452e-05 4.46033e-05 -0.000440752 -3.62361e-06 0.000129919 9.5146e-05 0.000194768 0.000382983 0.000271926 -0.00019518 -0.0005089 -0.0001249 0.000286765 0.000728106
internal_weight=31439 123 40 83 31316 124 95 59 31192 459 435 401 360 30733 482 449 428 356 72 30251 708 685 510 321 291 175 106 189 69 89
internal_count=31439 123 40 83 31316 124 95 59 31192 459 435 401 360 30733 482 449 428 356 72 30251 708 685 510 321 291 175 106 189 69 89
is_linear=0
shrinkage=0.05


Tree=6
num_leaves=31
num_cat=0
split_feature=92 13 33 15 71 105 58 15 39 101 52 83 27 20 96 75 74 25 80 36 99 83 34 48 52 17 53 74 28 34
split_gain=0.0137287 0.0184072 0.0289669 0.0105943 0.00439282 0.0149148 0.0129119 0.0121094 0.0091348 0.00507194 0.0132772 0.00523949 0.00352987 0.00632371 0.00954641 0.0061668 0.005669 0.00435393 0.00585544 0.00486133 0.00513674 0.00360772 0.00462793 0.00331345 0.017384 0.00450075 0.00708723 0.00580841 0.0130902 0.0133212
threshold=1927275.9500000002 -133.15390247026872 -47.520080849372327 -0.0034251300671287997 -0.041381983870048246 0.021690540501786353 58.17747514909707 -0.0012699699824031496 0.011983178916975952 -0.00010232130891874999 0.015253112244630652 0.0037036402482629504 -0.024382291620100045 10.500000000000002 0.021037971138440751 -1.2383828713957252 0.019534907488988704 1069.1500000000003 0.42308755100728673 186.05214205210476 0.0019786320033034007 -0.0097815829184491974 -14.20178088751738 447.29000000000002 0.030276691294072951 0.019250101216746956 -0.79593464435640271 0.048325799771747203 1219.5978571428573 -22.381881686847954
decision_type=2 2 2 2 2 2 2 2 2 2 2 2 2 2 2 2 2 2 2 2 2 2 2 2 2 2 2 2 2 2
left_child=4 2 -2 -3 5 6 8 -8 9 10 11 -1 13 14 -6 21 -17 18 -14 20 -20 -15 -23 24 -19 27 -27 -25 -29 -30
right_child=1 3 -4 -5 12 -7 7 -9 -10 -11 -12 -13 17 15 -16 16 -18 23 19 -21 -22 22 -24 25 -26 26 -28 28 29 -31
leaf_value=0.00035601631746833506 0.0021801370420689637 -0.00068484439664189272 -0.00014614972827510666 0.00056551540894563207 -0.00020801695851775084 -0.0010507376465414252 0.0020240921905497092 0.00028416645043762402 0.0011002695620515046 0.00049969421452260581 -0.0012354834765099677 -0.0005765446199802682 0.0010141237860634214 0.0002563373402808793 -0.0013217667461363958 -0.00012205577037424189 0.00095919871671833765 -9.9874365621447831e-06 0.00013285131765825305 0.00072185887887220215 -0.00072122814104659495 -0.0010736771125812083 -0.00011514709639253423 3.1035461317461767e-05 -0.0012565291980406205 -0.0011051517911601836 -9.3871581146121388e-05 0.0015539024860481733 0.00064128534807506108 -0.00057604912098644203
leaf_weight=61 32 32 23 36 74 21 20 20 22 38 23 20 21 25 26 22 27 25259 147 30 20 20 34 5125 28 21 99 20 55 38
leaf_count=61 32 32 23 36 74 21 20 20 22 38 23 20 21 25 26 22 27 25259 147 30 20 20 34 5125 28 21 99 20 55 38
internal_value=-3.15232e-12 0.000527207 0.00120733 -2.28892e-05 -2.07072e-06 0.000218062 0.000348674 0.00115413 0.000152221 5.34059e-06 -0.000175289 0.000125754 -3.66378e-06 -0.000199676 -0.000497592 3.30705e-05 0.000473738 -2.21574e-06 0.000220445 0.000135839 3.05664e-05 -0.000240255 -0.000470158 -3.79968e-06 -1.13677e-05 3.19175e-05 -0.000270846 3.88537e-05 0.000393441 0.00014388
internal_weight=31439 123 55 68 31316 225 204 40 164 142 104 81 31091 228 100 128 49 30863 218 197 167 79 54 30645 25287 5358 120 5238 113 93
internal_count=31439 123 55 68 31316 225 204 40 164 142 104 81 31091 228 100 128 49 30863 218 197 167 79 54 30645 25287 5358 120 5238 113 93
is_linear=0
shrinkage=0.05


Tree=7
num_leaves=31
num_cat=0
split_feature=59 33 46 12 22 79 10 27 84 56 30 55 97 60 83 27 1 96 100 72 50 83 71 71 27 37 63 105 29 34
split_gain=0.0127955 0.0179086 0.0203299 0.00600632 0.00514327 0.00677905 0.00448391 0.0156472 0.00705065 0.00763819 0.00515292 0.00421495 0.015981 0.0125642 0.00554183 0.00484824 0.00451635 0.00451148 0.00940246 0.0138035 0.0107886 0.00887289 0.00928287 0.0070489 0.00669809 0.012131 0.00616818 0.00584632 0.00633307 0.00534054
threshold=-0.039715464700439594 -54.348374604338908 330.20065000000005 -215.58392694330215 1038.5600000000002 0.0054435767443694006 23.863651375602803 -0.035183075234880491 2817460.0049999957 -2.3624972620429836 0.014994788957932952 -8.4355500378376558 -1.9997051824210474 -0.0048226418446273992 0.060568910315338106 0.028427061448755803 32925.405000000006 0.023231395942908604 -0.0032338050933711495 12.155035714285715 40.056735714285722 -0.0036421825221717497 -0.020815189726985397 0.039299897499210104 0.013554012080182752 -4.2891042873305356e-05 39.994033333333341 -0.010838350076729298 1212.751428571429 -34.844193274841402
decision_type=2 2 2 2 2 2 2 2 2 2 2 2 2 2 2 2 2 2 2 2 2 2 2 2 2 2 2 2 2 2
left_child=1 2 -1 -3 5 -2 7 -6 9 -9 -10 12 13 -8 15 16 -14 26 19 20 -19 -21 -23 24 27 -26 -13 28 -20 -24
right_child=4 3 -4 -5 6 -7 11 8 10 -11 -12 17 14 -15 -16 -17 -18 18 23 21 -22 22 29 -25 25 -27 -28 -29 -30 -31
leaf_value=0.0025052638280249084 0.00063356023670545865 -0.00059684263390448434 0.00025082872642087753 0.00035348551311471967 0.0013947022695598814 -0.00011563914488830891 -0.0018665802928254658 0.0011301817043380242 6.0269395016699826e-05 -7.2407258583394727e-05 -0.00063313880678394748 -0.00079129063198342918 0.00045707217740480134 -0.00019522828251038765 -0.00087293338030576713 0.00070150152393828403 -0.00011629961426369439 0.00043641785894232317 0.0010816462209913881 -0.000288179073624818 0.0020590493315830829 0.0014185800147797204 0.00068904338247218247 -0.00084956466098842418 0.0012720612242039101 -0.000187014791299589 -5.5804106362150812e-06 -0.00014133816918547384 0.00011011627579346868 -0.00011786024064665821
leaf_weight=20 72 23 20 60 24 52 23 31 352 23 29 25 38 22 20 22 357 21 20 59 20 21 37 23 29 28 29518 300 104 46
leaf_count=20 72 23 20 60 24 52 23 31 352 23 29 25 38 22 20 22 357 21 20 59 20 21 37 23 29 28 29518 300 104 46
internal_value=-2.33857e-12 0.000508972 0.00137805 9.01416e-05 -1.9991e-06 0.00031938 -3.2767e-06 0.000151845 8.32737e-05 0.000617968 7.49029e-06 -5.59346e-06 -0.000152287 -0.00104947 -5.9899e-05 -2.09045e-05 -6.11398e-05 -3.25614e-06 0.000121474 0.000407875 0.00122795 0.000201599 0.000479454 5.54949e-06 4.64385e-05 0.000555322 -6.2453e-06 -2.19727e-05 0.000266815 0.000241844
internal_weight=31439 123 40 83 31316 124 31192 459 435 54 381 30733 482 45 437 417 395 30251 708 204 41 163 104 504 481 57 29543 424 124 83
internal_count=31439 123 40 83 31316 124 31192 459 435 54 381 30733 482 45 437 417 395 30251 708 204 41 163 104 504 481 57 29543 424 124 83
is_linear=0
shrinkage=0.05


Tree=8
num_leaves=31
num_cat=0
split_feature=92 96 53 102 71 81 78 96 22 35 99 97 96 76 39 27 74 55 9 39 18 99 88 78 95 54 38 79 81 58
split_gain=0.0117002 0.0166592 0.016613 0.007279 0.00387059 0.0163706 0.0121877 0.00817932 0.00334439 0.00552522 0.00680975 0.00841641 0.00299544 0.00275918 0.00524451 0.0038999 0.00847658 0.00527269 0.00462497 0.00263645 0.00399951 0.00262788 0.00254616 0.00308718 0.00653375 0.00306885 0.00415374 0.00301651 0.00298623 0.0061358
threshold=1927275.9500000002 0.032341898304107559 -2.3371281414709091 0.22340584323383214 -0.052302192247855941 -0.022831644517380099 -0.9930609454748075 0.021037971138440751 1038.5600000000002 -6.3423053799622968 0.00057950366886615017 -0.57607524101924834 0.022432871455741955 21.124049989452107 -0.0063522388105733494 -0.027915165921646695 0.023650872042193901 -4.5883690787843525 -1.5095242186561333 0.00070204367166420013 -2517.4789579999965 -0.0063354472779513496 2.8126150000000005 4.7034496847708018 2.4868921428571427 50.824560544340855 0.00028119237146135 0.17832346183898787 -0.01461239073896895 58.17747514909707
decision_type=2 2 2 2 2 2 2 2 2 2 2 2 2 2 2 2 2 2 2 2 2 2 2 2 2 2 2 2 2 2
left_child=4 2 -2 12 5 -1 -7 -8 9 -6 11 -11 -4 14 -10 16 17 -15 -18 20 -16 -19 23 28 -25 26 -24 -28 29 -17
right_child=1 -3 3 -5 8 6 7 -9 13 10 -12 -13 -14 15 19 22 18 21 -20 -21 -22 -23 25 24 -26 -27 27 -29 -30 -31
leaf_value=0.0015881336713209748 0.0014119381772946906 0.0016685347611200996 -0.00013157436596104941 -0.00093987617992319264 0.00089153335014728976 -0.0009578667268215213 -5.4477109404702095e-05 0.0011185193500157608 0.00077379957215408944 -0.0001482093018694286 -0.00052328053951045627 0.0010629068259731867 0.00062377956658435461 0.00066820386526397551 -0.00073137108527589591 2.6746565776489262e-05 -0.0013118638554537347 -0.00058180364566006967 -0.00034700508382499084 0.00048708395199701911 0.0001699618125712732 9.7109825378937429e-06 5.2322824982790433e-05 -7.3106290986051797e-05 -0.001093143845209852 1.4856051432177088e-05 0.00028659328236244622 0.0010893607230391354 -8.4938760190393113e-06 0.00032890034159648637
leaf_weight=20 22 24 35 21 27 24 42 23 33 32 31 26 21 23 20 2187 23 28 27 21 32 57 48 73 20 147 22 25 28123 182
leaf_count=20 22 24 35 21 27 24 42 23 33 32 31 26 21 23 20 2187 23 28 27 21 32 57 48 73 20 147 22 25 28123 182
internal_value=3.83645e-13 0.000486702 0.000200197 -0.000146015 -1.91162e-06 0.000295521 5.04612e-06 0.000360583 -2.9505e-06 0.000265022 7.49571e-05 0.000394705 0.000151683 -3.9503e-06 0.000250712 -4.8215e-06 -0.000252597 -3.41007e-06 -0.00079084 1.42482e-05 -0.000176705 -0.000185141 -3.55156e-06 -4.82976e-06 -0.000292469 0.000157993 0.00037948 0.000713597 -3.95247e-06 4.99597e-05
internal_weight=31439 123 99 77 31316 109 89 65 31207 116 89 58 56 31091 106 30985 158 108 50 73 52 85 30827 30585 93 242 95 47 30492 2369
internal_count=31439 123 99 77 31316 109 89 65 31207 116 89 58 56 31091 106 30985 158 108 50 73 52 85 30827 30585 93 242 95 47 30492 2369
is_linear=0
shrinkage=0.05


Tree=9
num_leaves=31
num_cat=0
split_feature=59 8 61 22 79 81 92 10 93 82 30 5 55 15 97 103 79 70 105 82 101 92 96 10 104 28 5 56 9 14
split_gain=0.0108121 0.0158179 0.00685246 0.00424795 0.00587165 0.00405941 0.0039329 0.00388892 0.0141721 0.00677061 0.00466867 0.0043148 0.00391505 0.0149794 0.00569305 0.00495993 0.00668197 0.00929969 0.0063011 0.0073763 0.00571188 0.0051133 0.0039622 0.00875067 0.00724744 0.00750059 0.0134843 0.0102128 0.00904449 0.00925269
threshold=-0.039715464700439594 0.018062272316943104 -0.010737203882472098 1038.5600000000002 0.0054435767443694006 -0.0099918134790319985 951061.00000000012 23.863651375602803 -0.042651287591984798 0.017013595274191957 0.015277475693965701 -0.0085347995182810995 -8.4355500378376558 -0.019309076592711697 -2.1531427718486587 -0.016885915621030746 0.11055400830406971 11325.310000000001 0.015907977450512503 0.018862161895482805 -0.0031069428149518496 684607.60000000009 0.023231395942908604 36.111556207214839 -0.029476109778439497 1208.9892857142861 0.013457279766527502 -5.2357080802578064 -0.09083877572888939 3430.0738025081814
decision_type=2 2 2 2 2 2 2 2 2 2 2 2 2 2 2 2 2 2 2 2 2 2 2 2 2 2 2 2 2 2
left_child=1 2 -1 4 5 -2 -4 8 -5 10 11 -10 13 -9 -15 20 18 -18 19 -17 -16 -20 -14 -24 -25 26 -26 28 -27 -30
right_child=3 -3 6 7 -6 -7 -8 12 9 -11 -12 -13 22 14 15 16 17 -19 21 -21 -22 -23 23 24 25 27 -28 -29 29 -31
leaf_value=0.00089362253697968473 8.3254827432728453e-05 0.0017174987122416498 0.00018303529417607934 0.0012990581239573657 -0.00011462626755998756 0.00086488657360187849 -0.00063573294319212441 -0.0013382745552808046 0.00033393913869867505 0.00097329622134566306 -0.00058040646896376431 -3.1781991014280789e-05 -5.7049640365998094e-06 -0.00074713162088301031 0.0010826775536406786 6.4870851929299538e-07 -0.00010856061603958919 0.00084554221651230289 -0.00024620986765843224 -0.00079265263896169413 2.3444056194940849e-05 -0.0013242240418383684 0.0010732887867008053 -0.00046865812457822772 0.00020832297049332184 0.0011233070696777614 0.0015558095901117971 -4.8284793191237762e-05 -0.00058464359724894174 0.00075027161230402145
leaf_weight=27 26 21 55 25 52 46 20 25 115 20 29 270 29543 30 20 180 74 39 22 35 35 22 23 55 82 38 24 434 25 27
leaf_count=27 26 21 55 25 52 46 20 25 115 20 29 270 29543 30 20 180 74 39 22 35 35 22 23 55 82 38 24 434 25 27
internal_value=3.1192e-12 0.000467866 0.000210589 -1.83764e-06 0.000290233 0.000582631 -3.53029e-05 -2.99873e-06 0.000141465 7.47834e-05 3.1377e-05 7.74594e-05 -5.15631e-06 -0.000146535 -8.1341e-05 -3.45641e-05 -0.000100089 0.000220732 -0.00024006 -0.000128493 0.00040862 -0.000785217 -2.90368e-06 0.000113987 8.17767e-05 0.000129831 0.000513414 5.22353e-05 0.000536966 0.000108485
internal_weight=31439 123 102 31316 124 72 75 31192 459 434 414 385 30733 482 457 427 372 113 259 215 55 44 30251 708 685 630 106 524 90 52
internal_count=31439 123 102 31316 124 72 75 31192 459 434 414 385 30733 482 457 427 372 113 259 215 55 44 30251 708 685 630 106 524 90 52
is_linear=0
shrinkage=0.05


Tree=10
num_leaves=31
num_cat=0
split_feature=92 26 68 15 14 71 58 103 35 82 81 104 93 60 79 37 48 3 106 48 52 104 28 47 92 105 81 100 77 26
split_gain=0.0101392 0.014968 0.0134636 0.00551934 0.00480531 0.00348449 0.0117036 0.012157 0.00957093 0.00623784 0.00778273 0.00828169 0.00358188 0.0054645 0.00728041 0.00664172 0.00535027 0.0041308 0.00345223 0.00307764 0.0139282 0.00611321 0.00569873 0.0173754 0.017713 0.00617366 0.00601772 0.00785885 0.00457501 0.0042453
threshold=1927275.9500000002 1473.9805250000002 30.433900000000005 0.00026164548647960006 2803.8293312905012 -0.035087381890367496 60.504611167510724 -0.0038127786479261495 10.551020915560338 -0.024056721093509845 -0.029083689596685596 0.012663754861974552 -0.029501188741264849 0.0025041213447595002 -0.023795742540045097 -0.0027313458262817995 1029.9600000000003 38864.515000000007 29972703.950000118 447.29000000000002 0.030276691294072951 -0.042595440125089847 1219.5978571428573 42.55230000000001 441763.75000000006 0.012663754861974552 0.060568910315338106 -0.010573373688094098 -0.079164848913192587 1887.5234700000003
decision_type=2 2 2 2 2 2 2 2 2 2 2 2 2 2 2 2 2 2 2 2 2 2 2 2 2 2 2 2 2 2
left_child=5 3 -3 4 -2 6 8 -8 9 -1 -11 18 13 15 -15 17 -17 -7 -12 20 -14 28 23 25 -25 -23 29 -28 -21 -24
right_child=1 2 -4 -5 -6 12 7 -9 -10 10 11 -13 19 14 -16 16 -18 -19 -20 21 -22 22 26 24 -26 -27 27 -29 -30 -31
leaf_value=-0.00078079206136020803 0.00014371899899209706 0.0018828014545660054 0.00017119979427661748 0.00062790644750930372 -0.00083623498635874548 -8.7813642070007833e-05 0.0015787010947759781 0.00013807035536501645 0.0010027386207619438 0.00096511965675745166 0.00051788371513664187 -0.00075838368493350581 -8.3326045566986079e-06 -0.0010118114652868826 -5.1750037327553569e-05 4.693370199100556e-05 -0.00088389414142091912 0.00083986281762398515 -3.4654911169560542e-05 -0.00013158475780167069 -0.0012134148933000688 0.00022033385125769662 3.7910215593822872e-05 0.00024450278677464024 0.0019598787678491878 -0.00048068386984042536 0.00010709274345292497 -0.0011222635655520627 -0.0010207153188631587 -0.00039986550649960664
leaf_weight=27 29 27 20 25 22 21 27 32 23 20 35 36 25383 40 39 38 26 28 147 39 24 99 4994 34 27 46 26 26 23 56
leaf_count=27 29 27 20 25 22 21 27 32 23 20 35 36 25383 40 39 38 26 28 147 39 24 99 4994 34 27 46 26 26 23 56
internal_value=-1.05486e-15 0.000453073 0.00115446 1.93203e-05 -0.000279006 -1.77954e-06 0.000155784 0.000797342 2.43536e-05 -6.05628e-05 2.11439e-05 -6.54594e-05 -3.545e-06 -0.000218835 -0.000537857 4.19739e-06 -0.000331215 0.000442287 7.16025e-05 -2.20192e-06 -9.47095e-06 3.21899e-05 3.79556e-05 0.000295784 0.00100377 -2.05798e-06 2.75454e-05 -0.000507585 -0.000461424 3.30557e-05
internal_weight=31439 123 47 76 51 31316 347 59 288 265 238 218 30969 192 79 113 64 49 182 30777 25407 5370 5308 206 61 145 5102 52 62 5050
internal_count=31439 123 47 76 51 31316 347 59 288 265 238 218 30969 192 79 113 64 49 182 30777 25407 5370 5308 206 61 145 5102 52 62 5050
is_linear=0
shrinkage=0.05


Tree=11
num_leaves=31
num_cat=0
split_feature=59 33 46 103 22 35 99 58 76 83 12 36 75 67 13 31 39 74 83 40 96 37 96 76 106 39 16 70 37 52
split_gain=0.00928961 0.0145676 0.0168764 0.00533849 0.0037067 0.00553003 0.00453166 0.00734859 0.00352006 0.00931304 0.00348335 0.0030558 0.0118616 0.00830676 0.00372775 0.00961444 0.00404391 0.00637225 0.00422403 0.0093864 0.00365162 0.00353435 0.00292337 0.00771776 0.0139456 0.0110249 0.0101217 0.00836008 0.00763242 0.00881976
threshold=-0.039715464700439594 -54.348374604338908 330.20065000000005 -0.026005405288779346 1038.5600000000002 -6.3423053799622968 0.00057950366886615017 14.614158269445683 21.124049989452107 -0.018455510784109997 -215.58392694330215 615.12019303070213 -1.502703938514246 46.784250000000007 -356.19186562430093 -2.3790726141078475 -0.035183075234880491 0.03330867151964411 -0.052302192247855941 11696.803504999914 0.016284032545600052 0.0053643832103352504 0.023231395942908604 60.100578323897615 25873541.450000141 -0.010108729354573498 -0.011188112712210698 21096.635000000006 -0.018204320273509947 0.022471751875396503
decision_type=2 2 2 2 2 2 2 2 2 2 2 2 2 2 2 2 2 2 2 2 2 2 2 2 2 2 2 2 2 2
left_child=1 2 -1 10 5 -2 7 -7 9 -6 -3 14 -13 -14 15 -10 17 20 19 -18 -16 -15 -20 24 25 -24 -25 28 29 -26
right_child=4 3 -4 -5 8 6 -8 -9 11 -11 -12 12 13 21 16 -17 18 -19 22 -21 -22 -23 23 26 27 -27 -28 -29 -30 -31
leaf_value=0.0022445240764500341 0.00087547235226997271 -0.00073649622389071045 0.0001904800430929754 0.00061793567812336346 0.0011058125604624647 0.00096388196495051184 -0.00035544926868169568 -0.00015617784326877883 0.0012568724596695533 3.0132591883158783e-05 8.2536072723622274e-05 -0.001305327154907652 0.00076271080417791382 9.6511112146631443e-05 -0.00041913879180547638 -1.4296959139470595e-05 0.00096320974270758394 -0.001129205099423416 -6.1351879247073521e-06 -0.00029881837754846158 0.0003498576263294896 -0.00068026200733584119 0.0017339258898226989 -0.001254960907972418 0.00031407487605974896 0.00044498426678625112 -6.4313215217959833e-05 0.0008814543185629494 9.2291876699153853e-05 -0.00099548707148642288
leaf_weight=20 29 21 20 28 26 27 36 32 21 89 34 22 25 27 38 51 34 20 29947 26 26 32 21 20 20 79 166 30 436 36
leaf_count=20 29 21 20 28 26 27 36 32 21 89 34 22 25 27 38 51 34 20 29947 26 26 32 21 20 20 79 166 30 436 36
internal_value=-9.94877e-13 0.000433676 0.0012175 5.59278e-05 -1.70335e-06 0.000271126 8.66416e-05 0.000356392 -2.78795e-06 0.00027333 -0.000230185 -3.80972e-06 -0.000271811 -1.12874e-06 -2.89247e-06 0.000356461 -3.72982e-06 -0.000350179 -2.78542e-06 0.000416331 -0.000106734 -0.00032479 -3.60308e-06 9.02449e-05 0.000174748 0.000715662 -0.00019234 7.11242e-05 2.17139e-05 -0.000527786
internal_weight=31439 123 40 83 31316 124 95 59 31192 115 55 31077 106 84 30971 72 30899 84 30815 60 64 59 30755 808 622 100 186 522 492 56
internal_count=31439 123 40 83 31316 124 95 59 31192 115 55 31077 106 84 30971 72 30899 84 30815 60 64 59 30755 808 622 100 186 522 492 56
is_linear=0
shrinkage=0.05


Tree=12
num_leaves=31
num_cat=0
split_feature=92 53 96 74 2 14 48 52 71 3 1 26 104 96 74 76 93 88 28 3 98 99 81 100 56 60 16 16 53 12
split_gain=0.00860402 0.0143164 0.0143449 0.00685592 0.00306981 0.0133998 0.00250698 0.0189069 0.00633007 0.0102046 0.00554145 0.00545751 0.00595837 0.00531134 0.00500562 0.00499527 0.00481064 0.00458297 0.00456809 0.0156831 0.00799929 0.00556467 0.00502499 0.00721638 0.00462582 0.00383072 0.00365747 0.00402037 0.00380178 0.00498384
threshold=1927275.9500000002 -2.3371281414709091 0.032341898304107559 0.030245918365245855 16380.640000000001 943.44433539552131 447.29000000000002 0.034549363904107004 -0.052302192247855941 42536.950000000004 34342.155000000006 1887.5234700000003 -0.042595440125089847 0.028338402971146953 0.019189366515468802 21.124049989452107 -0.029501188741264849 0.65450000000000008 1219.5978571428573 37693.245000000003 60.012023153446926 0.0029467671764089507 0.060568910315338106 -0.010573373688094098 -1.0145787157048629 0.0050854224900685509 0.027524484902964202 0.0072618734131910502 1.5023229374898424 543.30296010072186
decision_type=2 2 2 2 2 2 2 2 2 2 2 2 2 2 2 2 2 2 2 2 2 2 2 2 2 2 2 2 2 2
left_child=4 -2 3 -3 5 -1 7 -6 9 10 -8 12 13 -10 -13 -14 17 -17 19 20 21 24 26 -24 -18 -19 27 -20 -29 -30
right_child=1 2 -4 -5 6 -7 8 -9 11 -11 -12 14 15 -15 -16 16 18 25 22 -21 -22 -23 23 -25 -26 -27 -28 28 29 -31
leaf_value=1.8714642231123856e-05 0.0015129527911388627 0.00012844950033468196 0.0012777598548299549 -0.00091592342766737354 -8.108450778855435e-06 0.0014318976225331428 0.00058358660193651146 -0.0015460338210687042 -9.0056127754949218e-05 0.0012851732021842439 -0.00052638763551261618 -0.00011410086967602925 0.00073835755971231277 -0.00099937274264028444 -0.00095852486286345916 -0.00075720860273577285 0.00076815639318817341 0.00016024531420650117 4.7669895330741641e-05 0.0012863723361078883 -0.00035027449730202511 0.0010814785865867246 0.0001409981418401003 -0.0010487583300206238 -6.9814986856162536e-05 -0.00047144513737293895 0.00054261432262137533 -0.0001497424241439988 0.00023364905812716622 -0.00050503451622919081
leaf_weight=104 24 55 22 22 25493 20 23 20 42 26 22 54 25 26 26 35 23 60 4319 32 66 21 25 26 58 40 35 520 148 27
leaf_count=104 24 55 22 22 25493 20 23 20 42 26 22 54 25 26 26 35 23 60 4319 32 66 21 25 26 58 40 35 520 148 27
internal_value=-2.96431e-13 0.000417366 0.000151769 -0.000169943 -1.63929e-06 0.000246647 -2.62632e-06 -9.31405e-06 2.74184e-05 0.00049657 4.09325e-05 2.14787e-05 2.74124e-05 -0.000437736 -0.000388539 3.32055e-05 2.99619e-05 -0.000264781 3.74695e-05 0.000271876 7.86385e-05 0.00035617 2.82771e-05 -0.000465544 0.000168128 -9.24309e-05 3.32652e-05 2.97097e-05 -8.19021e-05 0.000119681
internal_weight=31439 123 99 77 31316 124 31192 25513 5679 71 45 5608 5528 68 80 5460 5435 135 5300 200 168 102 5100 51 81 100 5049 5014 695 175
internal_count=31439 123 99 77 31316 124 31192 25513 5679 71 45 5608 5528 68 80 5460 5435 135 5300 200 168 102 5100 51 81 100 5049 5014 695 175
is_linear=0
shrinkage=0.05


Tree=13
num_leaves=31
num_cat=0
split_feature=59 33 46 103 22 79 93 60 10 5 78 34 59 71 71 103 48 40 99 78 98 92 103 94 39 81 83 30 26 89
split_gain=0.00809025 0.0128973 0.0151604 0.00488079 0.00333496 0.00478868 0.00408315 0.00337382 0.00329924 0.0109261 0.00375149 0.00408945 0.00315616 0.00314003 0.00292614 0.0106039 0.0117681 0.00629892 0.00572075 0.0198002 0.0112917 0.00447096 0.00316396 0.011533 0.00543947 0.00408833 0.0108893 0.00887438 0.00329226 0.00301818
threshold=-0.039715464700439594 -54.348374604338908 330.20065000000005 -0.026005405288779346 1038.5600000000002 0.0054435767443694006 -0.0014003151137948497 0.0029658933447700001 20.96810871712136 -0.022481858279526347 -0.26265992701225011 -13.406187304244632 -0.0037401842241627996 -0.0031113772025249996 0.060568910315338106 0.0040388244655602005 1123.7750000000003 11696.803504999914 -0.053668895719670394 -2.9713179313265647 33.885427389313044 951061.00000000012 0.036225949341977356 0.31666142857142859 -0.011828574869562299 0.060568910315338106 -0.0088522794431874982 0.012624998298190903 646.41805000000011 0.51249500000000003
decision_type=2 2 2 2 2 2 2 2 2 2 2 2 2 2 2 2 2 2 2 2 2 2 2 2 2 2 2 2 2 2
left_child=1 2 -1 13 5 6 -2 -7 9 -6 11 -11 -8 -3 18 16 -16 -17 19 -10 -21 -22 25 -24 -25 -20 -27 -28 29 -26
right_child=4 3 -4 -5 8 7 12 -9 14 10 -12 -13 -14 -15 15 17 -18 -19 22 20 21 -23 23 24 28 26 27 -29 -30 -31
leaf_value=0.0021156447246903558 3.5157521186327496e-05 0.00023840886953456158 0.00016882837808225305 0.0005866559829363334 0.0010598975278093524 0.00020997330279755034 0.00036526678900589192 -0.00061785957189385964 0.00078313179453834902 5.892636120835151e-05 -0.00039658314731480602 0.00082502800854854284 0.0012046124108261818 -0.00053276104921348049 0.00012692504254094248 -0.00087824218790046873 0.001548538791636626 0.00032321657403372233 -4.1534490620084833e-06 -0.00186143709695898 7.4720466430087333e-05 -0.00094524124842358843 0.0012730056782443585 0.00067963910280620138 0.00051975504601176471 0.00046381996496795463 -9.3923671617327875e-05 -0.0014153309908040146 -0.00055755180639809824 -7.4145258251731336e-05
leaf_weight=20 27 22 20 28 31 32 21 20 25 135 38 20 24 33 37 24 24 20 30489 20 22 21 22 30 27 26 24 27 27 103
leaf_count=20 27 22 20 28 31 32 21 20 25 135 38 20 24 33 37 24 24 20 30489 20 22 21 22 30 27 26 24 27 27 103
internal_value=1.38967e-12 0.000404713 0.00114224 4.92801e-05 -1.58959e-06 0.000257198 0.000521258 -0.000108424 -2.61837e-06 0.000188582 4.86293e-05 0.000157778 0.000812918 -0.000224293 -4.00137e-06 0.000259502 0.000686248 -0.000332125 -4.89784e-06 -0.000407462 -0.00087992 -0.0004234 -3.74673e-06 0.000190133 6.27364e-05 -5.07241e-06 -0.000368945 -0.000793492 -5.51431e-05 4.92033e-05
internal_weight=31439 123 40 83 31316 124 72 52 31192 224 193 155 45 55 30968 105 61 44 30863 88 63 43 30775 209 187 30566 77 51 157 130
internal_count=31439 123 40 83 31316 124 72 52 31192 224 193 155 45 55 30968 105 61 44 30863 88 63 43 30775 209 187 30566 77 51 157 130
is_linear=0
shrinkage=0.05


Tree=14
num_leaves=31
num_cat=0
split_feature=92 53 5 54 54 0 11 17 92 57 60 15 84 29 66 82 20 104 5 14 80 96 37 103 94 59 13 105 74 80
split_gain=0.00745268 0.0128393 0.0131788 0.00607734 0.00434955 0.00275613 0.0123657 0.00299142 0.00271783 0.00227945 0.00880699 0.00589175 0.00776873 0.00578593 0.00468563 0.0042278 0.00364695 0.00266527 0.00627344 0.00658812 0.00363846 0.00341036 0.00751064 0.0103569 0.0084362 0.00943474 0.00837766 0.00679427 0.00567041 0.0113894
threshold=1927275.9500000002 -2.3371281414709091 0.013457279766527502 43.695689370562299 53.886444499763137 16440.240000000002 -144.23328929409578 -0.0016867739867287999 33121.600000000013 -3.7455754915871227 -0.0024763867479628498 -0.0076575152491957987 870827.66999999783 2237.1660714285717 37.129500000000007 0.00034412017305800001 7.5000000000000009 -0.029476109778439497 -0.019309076592711697 5188.8805389026465 5.411348105101248 0.023231395942908604 -0.018204320273509947 -0.029501188741264849 0.30389285714285724 0.0078363307679396015 -95.301954603748527 0.0037621171341863506 0.041881366229307861 5.7886818489114953
decision_type=2 2 2 2 2 2 2 2 2 2 2 2 2 2 2 2 2 2 2 2 2 2 2 2 2 2 2 2 2 2
left_child=5 -2 3 -3 -5 6 -1 -8 -9 10 11 12 -7 -13 -15 -12 -17 18 -11 20 -20 28 26 -24 25 -25 -23 -28 -19 -30
right_child=1 2 -4 4 -6 9 7 8 -10 17 15 13 -14 14 -16 16 -18 21 19 -21 -22 22 23 24 -26 -27 27 -29 29 -31
leaf_value=0.0013723302308426355 0.0014259684898812945 -0.00075218887354822073 0.0012487181919693417 0.00071587845159228893 -0.00022898343665693919 0.0014998276313037977 0.00036096468195468426 0.00015627720509655773 -0.00049227228271774947 -0.001008003334281966 -0.00090900796516052657 -0.00060193419648385321 0.00024932618188257846 0.0010100576194236055 0.00011187965401233052 0.00043537718434394769 -0.00041217084091234335 -3.5532134657175506e-06 -0.0001861077997763578 -0.00086497996584512294 0.00019652926074201858 0.00046351844910532238 0.0011016372724303178 0.00022720056436515437 6.3061914718110486e-05 0.0015750970208318904 -0.001136993620366411 -0.00013568137350779985 -4.7933358190574738e-05 -0.0012363670768016685
leaf_weight=20 24 28 21 21 29 23 39 30 35 20 20 20 27 20 53 22 30 29815 138 25 113 25 28 37 588 20 32 36 72 28
leaf_count=20 24 28 21 21 29 23 39 30 35 20 20 20 27 20 53 22 30 29815 138 25 113 25 28 37 588 20 32 36 72 28
internal_value=-1.19274e-13 0.000388439 0.000136916 -0.000162415 0.000167859 -1.52567e-06 0.000233734 1.47732e-05 -0.000192942 -2.46092e-06 0.000159781 0.000386853 0.000824557 0.000151528 0.000357956 -0.000291208 -5.35928e-05 -3.58698e-06 -0.000152904 -9.09405e-05 -1.38449e-05 -2.14642e-06 0.000102029 0.00016023 0.000119362 0.000700147 -0.000319144 -0.000606887 -4.81392e-06 -0.000380695
internal_weight=31439 123 99 78 50 31316 124 104 65 31192 215 143 50 93 73 72 52 30977 296 276 251 30681 766 673 645 57 93 68 29915 100
internal_count=31439 123 99 78 50 31316 124 104 65 31192 215 143 50 93 73 72 52 30977 296 276 251 30681 766 673 645 57 93 68 29915 100
is_linear=0
shrinkage=0.05


Tree=15
num_leaves=31
num_cat=0
split_feature=59 33 46 103 22 35 17 37 10 93 82 30 49 57 61 99 34 36 30 70 82 100 93 106 69 5 39 71 61 104
split_gain=0.00686659 0.0112365 0.0134644 0.00441973 0.00298753 0.00458443 0.00416387 0.00701464 0.00300242 0.0107136 0.00578072 0.00408344 0.00376327 0.00877357 0.0126704 0.00749564 0.00706305 0.0049254 0.0101874 0.00640751 0.00933357 0.00540486 0.00420478 0.00434842 0.00523879 0.0179937 0.00918346 0.00532414 0.00419181 0.00403283
threshold=-0.039715464700439594 -54.348374604338908 330.20065000000005 -0.026005405288779346 1038.5600000000002 -6.3423053799622968 -0.0041292975665619489 0.0061968580097720516 23.863651375602803 -0.042651287591984798 0.017013595274191957 0.015277475693965701 -0.014611408562166098 3.7395438014719486 0.030374334961076953 -0.042331225902217995 -65.067563308044313 255.52932548268066 0.022824425673282304 9633.4550000000017 -0.015105500739208797 -0.018677909010656146 -0.034226057705020144 8443862.4500000048 3.4000500000000007 0.011816666130271651 0.0074196673056995009 0.0067211250847871015 -0.0036464927923362494 -0.022054404572013946
decision_type=2 2 2 2 2 2 2 2 2 2 2 2 2 2 2 2 2 2 2 2 2 2 2 2 2 2 2 2 2 2
left_child=1 2 -1 -3 5 -2 -7 -8 9 -6 11 -11 13 14 15 -10 -17 19 -19 21 -21 -18 -14 28 25 26 27 -25 -24 -23
right_child=4 3 -4 -5 8 6 7 -9 12 10 -12 -13 22 -15 -16 16 17 18 -20 20 -22 29 23 24 -26 -27 -28 -29 -30 -31
leaf_value=0.0019786026532528922 0.00079372787310195893 -0.00021923956471833997 0.00014390767624718136 0.00055245731990518309 0.0011309808874502779 -0.00032991790756472925 -6.2024658178120879e-05 0.0011002112390997355 -0.00089777723335698423 6.9508684791799179e-05 0.00089675481587619304 -0.00054574481408304438 0.00051782379323879306 0.00074675648046347012 -0.0011510042879872972 0.00071460119839425072 0.00067833531654850092 -0.00018359965787411811 -0.0013845313363292787 0.00099256271663982648 4.0447395459080163e-05 -0.00071299206784119487 0.00010284207085285082 0.00072303528757081093 -2.0664673413964119e-06 0.0015876022636644928 -0.00086965796151410111 -0.00030506917853927011 -0.00077792885729910009 -0.00010988564624270792
leaf_weight=20 29 55 20 28 25 38 37 20 28 385 20 29 39 30 29 28 21 111 21 33 117 29 22 34 29464 23 22 20 35 627
leaf_count=20 29 55 20 28 25 38 37 20 28 385 20 29 39 30 29 28 21 111 21 33 117 29 22 34 29464 23 22 20 35 627
internal_value=-3.64185e-13 0.000372852 0.00106126 4.10919e-05 -1.46445e-06 0.000243472 7.54993e-05 0.000345777 -2.43817e-06 0.000124496 6.65192e-05 2.64112e-05 -4.33395e-06 -9.62786e-05 -0.000120504 -9.10608e-05 -6.81753e-05 -9.10301e-05 -0.000374657 -4.57595e-05 0.000249913 -0.00011127 -1.00449e-06 -1.68762e-06 -8.46403e-07 0.000362265 -8.5613e-06 0.000342256 -0.000437982 -0.000136547
internal_weight=31439 123 40 83 31316 124 95 57 31192 459 434 414 30733 1074 1044 1015 987 959 132 827 150 677 29659 29620 29563 99 76 54 57 656
internal_count=31439 123 40 83 31316 124 95 57 31192 459 434 414 30733 1074 1044 1015 987 959 132 827 150 677 29659 29620 29563 99 76 54 57 656
is_linear=0
shrinkage=0.05


Tree=16
num_leaves=31
num_cat=0
split_feature=71 58 9 79 27 102 77 99 78 98 31 81 58 52 72 71 38 39 103 12 11 5 71 99 13 5 0 39 74 103
split_gain=0.00661415 0.0217695 0.0299862 0.0067351 0.0033365 0.0142339 0.00754205 0.00536514 0.00964103 0.0114852 0.00323972 0.00265087 0.00556355 0.0119726 0.0115737 0.00651958 0.00774833 0.00632601 0.00512773 0.00470314 0.00574602 0.00456904 0.00423769 0.00359089 0.00309911 0.00295348 0.00472549 0.00457179 0.00411503 0.00431229
threshold=-0.052302192247855941 60.504611167510724 -2.0790615758273296 -0.081694801480918788 0.034674853166799358 0.23579669770494813 -0.50407859010390854 -0.053668895719670394 -2.9713179313265647 33.529897494920142 1.5823285933411717 -0.013886879034245148 58.17747514909707 0.034549363904107004 41.139071428571434 -0.035087381890367496 0.00073729291563350019 -0.0070633457000238995 -0.034226057705020144 41.936262237225961 -521.66225354598271 -0.0064992556841571491 0.021306048626148204 -0.031472608353198449 -179.43364205534013 0.00074143451085425009 16605.010000000006 -0.019759383350087496 0.031424654891088762 -0.011464725146120848
decision_type=2 2 2 2 2 2 2 2 2 2 2 2 2 2 2 2 2 2 2 2 2 2 2 2 2 2 2 2 2 2
left_child=1 3 -3 -1 7 6 -6 8 -2 -10 -8 12 13 15 17 16 -9 -14 22 20 -19 -16 -17 -20 -23 26 -25 -28 -29 -30
right_child=4 2 -4 -5 5 -7 10 11 9 -11 -12 -13 14 -15 21 18 -18 19 23 -21 -22 24 -24 25 -26 -27 27 28 29 -31
leaf_value=-0.00059131189843212369 0.00032911224807321562 0.0026926419162191452 -1.2548389384478687e-05 0.00031271873190740331 -0.00089719597541261477 0.001248936050978955 0.00063349606913376468 -2.3568181786686184e-05 -0.0016913579483073028 -0.00025925152603165422 -5.6464948347243278e-05 -5.8556123053078028e-06 0.0015102516311162617 -0.0009054912742987439 -0.00064674616762204094 -0.00015595137184682933 0.0013682232299470345 0.00025288610264570234 0.00054814586025064014 -2.9113685013726356e-05 0.001437074283603579 0.00056131831693669986 -0.00094946006429381675 0.00081864640577061277 -0.00011627124628931698 -2.0114460486625676e-05 0.0007620324726606972 8.3406700528639824e-05 -0.00088204004366517711 0.00012183383791125381
leaf_weight=38 32 20 21 45 20 28 27 20 21 42 46 28354 20 34 25 106 20 21 35 26 20 27 20 22 45 1129 24 1108 23 20
leaf_count=38 32 20 21 45 20 28 27 20 21 42 46 28354 20 34 25 106 20 21 35 26 20 27 20 22 45 1129 24 1108 23 20
internal_value=3.3086e-12 0.00036445 0.00130706 -0.000101175 -1.44313e-06 0.000260606 -3.69561e-05 -2.45961e-06 -0.000377637 -0.00073662 0.000198726 -1.31353e-06 4.56031e-05 2.65231e-05 0.000311168 3.9063e-05 0.000672328 0.000729887 2.88778e-05 0.000496942 0.000830539 -6.43842e-05 -0.000281905 4.54635e-05 0.000137825 3.78995e-05 9.26177e-05 7.9024e-05 6.47823e-05 -0.000415122
internal_weight=31439 124 41 83 31315 121 93 31194 95 63 73 31099 2745 2561 184 2527 40 87 2487 67 41 97 126 2361 72 2326 1197 1175 1151 43
internal_count=31439 124 41 83 31315 121 93 31194 95 63 73 31099 2745 2561 184 2527 40 87 2487 67 41 97 126 2361 72 2326 1197 1175 1151 43
is_linear=0
shrinkage=0.05


Tree=17
num_leaves=31
num_cat=0
split_feature=59 71 80 1 75 22 20 105 105 79 106 37 67 103 97 71 74 59 79 61 22 57 80 76 37 81 48 52 3 104
split_gain=0.00600447 0.00976287 0.00775616 0.00758256 0.00328741 0.00263592 0.00444484 0.00445988 0.00652786 0.00363879 0.00266967 0.00455273 0.00435296 0.00321346 0.00865868 0.00375094 0.0159459 0.0214964 0.00746184 0.00310973 0.00916767 0.00747916 0.00651353 0.00416396 0.00306722 0.00257338 0.00725843 0.00738693 0.00457607 0.00461896
threshold=-0.039715464700439594 -0.020815189726985397 5.1901956497495716 48608.24500000001 -1.9437851235739123 1038.5600000000002 19.500000000000004 0.011146824772488802 -0.0032032723877453997 -0.0151563396306606 8443862.4500000048 0.013548852347861252 2.4314500000000003 -0.042651287591984798 -1.9358697690320028 -0.052302192247855941 0.027867228505683003 -0.0050269082252189495 -0.14163015457227107 0.039497049323723311 1732.3550000000002 2.5157267576846931 2.9509049444263131 57.338976049127439 -0.0015435349702826499 -0.013886879034245148 3105.9250000000006 0.034549363904107004 16439.280000000002 -0.025985029377160646
decision_type=2 2 2 2 2 2 2 2 2 2 2 2 2 2 2 2 2 2 2 2 2 2 2 2 2 2 2 2 2 2
left_child=1 -1 3 -3 -4 6 7 8 9 -2 11 24 -12 14 -14 16 18 -18 -15 25 -21 22 -22 -23 -7 26 27 28 -17 -30
right_child=5 2 4 -5 -6 10 -8 -9 -10 -11 12 -13 13 15 -16 19 17 -19 -20 20 21 23 -24 -25 -26 -27 -28 -29 29 -31
leaf_value=0.0013304017231954882 0.00032568113997099733 3.6376498735927305e-05 0.00012387796232360415 0.0012520494935376084 -0.00068762426403386949 -0.00036937736411346128 0.00087328116192524746 -0.00050636136026393315 0.00079342113921073007 -0.00058371360276148398 0.00073583202844019991 -0.00090549785924271095 -0.0011032531086433059 -0.0010001228481996804 0.00012281492696880985 0.00077540403581224384 0.0020853516894435002 9.0802577490519206e-05 0.00026017224755259634 -0.0011563827683541761 0.00013089319661958144 0.00096989675861550498 -0.0011451876559294761 -5.0392451375955718e-05 0.00041849790362729917 -5.8165234093582363e-06 0.00051206166133874556 -0.00076219699514130587 -0.0003521897204530736 4.6298635786296477e-05
leaf_weight=21 22 29 24 23 26 30 22 24 34 22 20 22 24 24 36 21 22 35 23 23 20 20 20 20 21 28234 81 29 75 2392
leaf_count=21 22 29 24 23 26 30 22 24 34 22 20 22 24 24 36 21 22 35 23 23 20 20 20 20 21 28234 81 29 75 2392
internal_value=-2.46592e-12 0.000348661 0.000146538 0.000574078 -0.000298103 -1.36944e-06 0.000228703 8.96758e-05 0.000273072 -0.000129016 -2.28406e-06 -0.000304299 -1.57559e-06 -2.04982e-06 -0.000367612 -1.34317e-06 0.000298431 0.000860629 -0.000383383 -2.35098e-06 -0.000276627 -2.36975e-05 -0.000507147 0.000459752 -4.49581e-05 -1.43471e-06 4.61851e-05 3.11926e-05 4.04404e-05 3.41841e-05
internal_weight=31439 123 102 52 50 31316 124 102 78 44 31192 73 31119 31099 60 31039 104 57 47 30935 103 80 40 40 51 30832 2598 2517 2488 2467
internal_count=31439 123 102 52 50 31316 124 102 78 44 31192 73 31119 31099 60 31039 104 57 47 30935 103 80 40 40 51 30832 2598 2517 2488 2467
is_linear=0
shrinkage=0.05


Tree=18
num_leaves=31
num_cat=0
split_feature=92 96 53 79 71 49 58 40 105 105 48 49 13 74 17 52 57 93 60 98 27 49 53 58 93 70 16 84 55 4
split_gain=0.00551644 0.0116695 0.0102242 0.00592921 0.00232666 0.0107592 0.00725608 0.0083006 0.00479159 0.00579925 0.00546648 0.00477139 0.00645954 0.00337796 0.0093797 0.0120915 0.0102858 0.00933023 0.00912631 0.00911491 0.00873739 0.00835768 0.0102567 0.00988405 0.0127978 0.00828286 0.00776123 0.00723647 0.00744598 0.00729318
threshold=1927275.9500000002 0.032341898304107559 -2.3371281414709091 -0.059378658507696545 -0.035087381890367496 0.0020791797163980008 60.504611167510724 14705.160224999951 0.018223316971638651 0.011146824772488802 1998.5300000000002 -0.0037404779400962997 37.209899746775612 0.030245918365245855 -0.0061338076947852491 0.022471751875396503 1.2823778192529049 -0.010539416604410897 0.0097173233761733025 47.281454683535365 0.0052550354307092009 0.0032529585564304506 -1.1173296297879736 37.957702688077468 -0.0046441778441882993 10718.085000000001 0.0083044549346190013 840927.62999999803 0.53523488311140011 34.83504150000001
decision_type=2 2 2 2 2 2 2 2 2 2 2 2 2 2 2 2 2 2 2 2 2 2 2 2 2 2 2 2 2 2
left_child=4 2 -2 -4 5 6 8 -8 9 10 11 12 -1 -6 15 18 21 -17 25 -18 -19 23 -23 -16 -25 -15 27 28 29 -24
right_child=1 -3 3 -5 13 -7 7 -9 -10 -11 -12 -13 -14 14 16 17 19 20 -20 -21 -22 22 26 24 -26 -27 -28 -29 -30 -31
leaf_value=1.1530921078941135e-05 0.0010450066289525819 0.0013233277228816103 -0.00084948908036534235 0.0001091450280573217 -4.2132999958336664e-08 0.0012244076797893891 0.0013929674754399458 0.00011606683813235057 -0.00064539413805808491 0.00084000458708032965 -0.00074538344144821171 -0.00065407814082308593 0.00092819915788078852 0.00043679341565689019 -0.00032466195815474864 -0.0010890504843555392 0.00086262969670051169 0.00080711509702571988 -0.00020587345801426895 -6.4513071623371266e-05 -0.0003837388405605283 0.00088941031641772263 -0.00071646702632753427 -0.00055006930955035685 -0.0019274259950599608 0.0014608067485304284 -0.0009776761724487157 -0.00057474286125109685 0.0010216989063668404 0.00058905405516270545
leaf_weight=152 22 24 23 54 30155 21 20 35 30 20 25 22 22 67 146 25 31 24 35 183 43 23 23 48 26 28 29 41 22 20
leaf_count=152 22 24 23 54 30155 21 20 35 30 20 25 22 22 67 146 25 31 24 35 183 43 23 23 48 26 28 29 41 22 20
internal_value=-1.89487e-12 0.000334192 9.44013e-05 -0.0001772 -1.31261e-06 0.000127439 5.67753e-05 0.000580394 -4.94943e-05 2.46841e-05 -4.91006e-05 3.9711e-05 0.000127432 -2.75524e-06 -0.000103263 0.0001739 -0.0002072 -0.000264742 0.000484324 6.97927e-05 4.28357e-05 -0.000364016 -8.65881e-05 -0.000563259 -0.00103401 0.000738608 -0.000252869 -5.4573e-05 0.000273534 -0.000109248
internal_weight=31439 123 99 77 31316 347 326 55 271 241 221 196 174 30969 814 222 592 92 130 214 67 378 158 220 74 95 135 106 65 43
internal_count=31439 123 99 77 31316 347 326 55 271 241 221 196 174 30969 814 222 592 92 130 214 67 378 158 220 74 95 135 106 65 43
is_linear=0
shrinkage=0.05


Tree=19
num_leaves=31
num_cat=0
split_feature=59 33 46 12 76 83 36 75 84 81 40 71 13 102 81 104 97 82 82 57 74 10 17 59 55 100 13 26 76 39
split_gain=0.00521723 0.00920858 0.0111854 0.00377544 0.00256911 0.00750189 0.00256779 0.00976373 0.0066436 0.00563813 0.00254022 0.00253386 0.00922728 0.00903092 0.00595498 0.00589943 0.00566825 0.00420725 0.00437925 0.00326939 0.00302279 0.0193281 0.0119377 0.00960407 0.00900139 0.0088333 0.0103794 0.010269 0.00843369 0.00841781
threshold=-0.039715464700439594 -54.348374604338908 330.20065000000005 -215.58392694330215 21.124049989452107 -0.018455510784109997 615.12019303070213 -1.502703938514246 914560.26499999815 0.0070121459337424011 12351.536439999929 -0.035087381890367496 186.65873349387374 0.27009013810112681 -0.025464315284078946 0.012663754861974552 -0.69508814382927364 -0.021890157993322997 -0.011401988276796249 -0.14375241120715584 0.030245918365245855 31.561191131119916 -0.0064992556841571491 0.019077894873313853 -3.711018637171605 -0.032853308570833191 -163.0699127065358 98.896350000000012 44.003278790184872 1.0000000180025095e-35
decision_type=2 2 2 2 2 2 2 2 2 2 2 2 2 2 2 2 2 2 2 2 2 2 2 2 2 2 2 2 2 2
left_child=1 2 -1 -3 5 -2 11 -8 -9 -10 -5 12 13 14 -6 17 -17 -16 -19 -20 -13 -22 23 24 -23 29 -27 -28 -29 -24
right_child=4 3 -4 10 6 -7 7 8 9 -11 -12 20 -14 -15 15 16 -18 18 19 -21 21 22 25 -25 -26 26 27 28 -30 -31
leaf_value=0.0017843097561853938 0.00098177750002762963 -0.00051999333031151616 0.00011208149458980188 0.00063190657917099697 0.0007134038885124028 1.6343638661341727e-05 -0.001185496366286481 0.00066190242997925871 0.00011422562974450342 -0.00088671086292985515 -3.217976247671888e-05 -2.6703035266227265e-07 0.001060964807868004 0.00099011907683840632 -0.00055837522668298332 -0.0012474088586168365 -5.7004249611054548e-05 0.00063070968826650642 -0.00019908028508915186 0.00028920925735622982 -0.0011853455376321783 0.0012076270057792392 -0.00052918361587217077 -0.00038783757123523038 0.00027578962323845387 0.00077184217940763731 0.00019472144973236896 -0.0013859949362952087 -0.00035315357399874246 0.00067162440261907047
leaf_weight=20 26 23 20 24 25 89 22 26 34 24 36 30013 25 24 28 20 20 32 91 55 39 34 20 39 109 24 86 21 336 54
leaf_count=20 26 23 20 24 25 89 22 26 34 24 36 30013 25 24 28 20 20 32 91 55 39 34 20 39 109 24 86 21 336 54
internal_value=3.47661e-12 0.000325002 0.000948196 2.4668e-05 -1.27651e-06 0.000234616 -2.14596e-06 -0.000247819 -2.23722e-06 -0.000299955 0.000233455 -1.30848e-06 0.000138663 6.0502e-05 -2.18257e-05 -9.65441e-05 -0.000652207 1.13515e-05 0.000100971 -1.51356e-05 -2.76391e-06 -0.000101109 -4.26231e-05 0.000307663 0.000497345 -0.000160464 -0.000240889 -0.000295755 -0.000413909 0.000347082
internal_weight=31439 123 40 83 31316 115 31201 106 84 58 60 31095 320 295 271 246 40 206 178 146 30775 762 723 182 143 541 467 443 357 74
internal_count=31439 123 40 83 31316 115 31201 106 84 58 60 31095 320 295 271 246 40 206 178 146 30775 762 723 182 143 541 467 443 357 74
is_linear=0
shrinkage=0.05


Tree=20
num_leaves=31
num_cat=0
split_feature=92 96 53 74 0 11 54 88 54 38 12 69 78 95 51 47 52 48 81 49 71 5 70 57 33 81 92 102 84 74
split_gain=0.00482768 0.0103754 0.00895114 0.00559333 0.00223056 0.0106819 0.00273714 0.00224042 0.00278712 0.00375295 0.00277154 0.00251774 0.00245944 0.00443139 0.00225857 0.00694015 0.00517822 0.0119028 0.00513307 0.00490598 0.00819733 0.00661738 0.00567224 0.00529771 0.00663148 0.00518583 0.00532189 0.00442975 0.00490968 0.00440306
threshold=1927275.9500000002 0.032341898304107559 -2.3371281414709091 0.030245918365245855 16440.240000000002 -144.23328929409578 46.170980476536606 2.8126150000000005 50.824560544340855 0.00028119237146135 250.80461761834161 142.20470000000003 4.7034496847708018 2.4868921428571427 275.97746428571435 266.50170000000008 0.034549363904107004 480.61000000000007 -0.0053304143475826991 0.0074100020002246508 -0.019182097018206647 0.0021503953946093502 4229.7050000000008 2.5157267576846931 10.137774642565775 0.039299897499210104 1031700.7000000001 0.16317589855782172 1.0000000180025095e-35 0.027867228505683003
decision_type=2 2 2 2 2 2 2 2 2 2 2 2 2 2 2 2 2 2 2 2 2 2 2 2 2 2 2 2 2 2
left_child=4 2 -2 -4 5 -1 -7 12 9 -9 -11 -10 14 -14 19 -16 -17 -18 -19 23 -21 22 -22 -6 -25 26 27 28 -23 -30
right_child=1 -3 3 -5 7 6 -8 8 11 10 -12 -13 13 -15 15 16 17 18 -20 20 21 25 -24 24 -26 -27 -28 -29 29 -31
leaf_value=0.001268659234774532 0.00097598749509250583 0.0012453130955691451 0.00010191768607249041 -0.00084139976057816647 2.2078277053181061e-06 -0.00016409898030865912 0.00039166971300801383 4.9575401196004043e-05 0.00010898491409308978 0.00034768140219427926 0.0011242548801237717 -0.00043333367791022355 -6.9800499995711123e-05 -0.00087932291657621562 -0.00094242353166919214 -8.8133794982111138e-06 -0.0014560798846650869 0.00033415006621094348 -0.00043036529731090511 0.0010977748123141716 -2.2158641462562938e-05 0.00067987403152340164 -0.00068414250406356974 0.0010667977395664471 -0.00014422561624087394 0.00091244037182110812 -0.00042629157917537289 0.00067912410789479816 0.00015236843599638049 -0.00035577540749094942
leaf_weight=20 22 24 55 22 8342 72 32 48 121 27 20 26 73 22 20 21288 20 38 52 21 218 41 38 26 20 23 38 42 582 46
leaf_count=20 22 24 55 22 8342 72 32 48 121 27 20 26 73 22 20 21288 20 38 52 21 218 41 38 26 20 23 38 42 582 46
internal_value=-1.52099e-12 0.000312633 8.65293e-05 -0.000167602 -1.22793e-06 0.000210415 6.90677e-06 -2.0693e-06 0.000149474 0.000360549 0.000678138 1.30646e-05 -3.25422e-06 -0.000257269 -2.47213e-06 -1.14516e-05 -1.05815e-05 -0.000352754 -0.00010757 1.79075e-05 0.00011985 9.98734e-05 -0.000120422 5.15855e-06 0.000540266 0.000172925 0.000150216 0.000181028 0.000149757 0.000115148
internal_weight=31439 123 99 77 31316 124 104 31192 242 95 47 147 30950 95 30855 21418 21398 110 90 9437 1049 1028 256 8388 46 772 749 711 669 628
internal_count=31439 123 99 77 31316 124 104 31192 242 95 47 147 30950 95 30855 21418 21398 110 90 9437 1049 1028 256 8388 46 772 749 711 669 628
is_linear=0
shrinkage=0.05


Tree=21
num_leaves=31
num_cat=0
split_feature=76 11 14 81 48 99 20 36 75 84 81 55 23 79 4 76 103 94 51 104 8 81 106 44 11 102 57 71 83 44
split_gain=0.00472196 0.0137117 0.00432025 0.00332386 0.00318866 0.0177913 0.00434009 0.00394054 0.0086126 0.0062615 0.00545236 0.00385258 0.00258344 0.00348157 0.0041586 0.00307549 0.00246598 0.00797776 0.00565318 0.00563595 0.00399512 0.00332934 0.0144883 0.00649932 0.00321495 0.00298863 0.00251971 0.00673969 0.0042496 0.00512733
threshold=21.124049989452107 -644.40616284721534 2408.8137328998278 -0.027020522718735795 6893.6250000000009 -0.025828220066466945 10.500000000000002 615.12019303070213 -1.4639950935506987 914560.26499999815 0.0070121459337424011 5.5506632181686095 1048.9200000000003 0.0054435767443694006 37.231158000000008 51.136020924821793 0.036225949341977356 0.31666142857142859 411.84651428571431 0.020449357698720656 0.011440869344826301 0.060568910315338106 35052042.95000007 396.59235000000007 45.947604079203309 0.1993101596690772 3.7395438014719486 -0.017182227450470895 -0.0040142709253904989 418.40580000000006
decision_type=2 2 2 2 2 2 2 2 2 2 2 2 2 2 2 2 2 2 2 2 2 2 2 2 2 2 2 2 2 2
left_child=1 -1 3 -3 7 -6 -7 12 -9 -10 -11 -8 13 15 -15 -2 21 -18 19 20 24 26 -23 -24 -19 -20 -14 -28 -29 -30
right_child=4 2 -4 -5 5 6 11 8 9 10 -12 -13 16 14 -16 -17 17 18 25 -21 -22 22 23 -25 -26 -27 27 28 29 -31
leaf_value=0.0013542276713997127 0.00022053828299317931 0.00077873000831459645 -0.00055668958432405547 2.7817798227910577e-05 0.0015053939488058425 0.00028666191990734969 -0.00091758369118906564 -0.0010956599898725892 0.00054098280954098423 4.0742072023396548e-05 -0.00095603060725134911 1.3453916646540164e-05 -3.5227120650216241e-06 -0.00061314109585840606 0.00033857104256943183 0.00090276572894557234 0.0010262202958453296 0.0002776659847909792 0.00015405271697090941 0.00061857899102809222 -0.00057597753744479026 0.00052591925289767287 -0.0014675226831889672 -0.0003237408473742781 -0.00037790698148114647 0.0010184354039665777 0.00094229726027697319 -0.0003250506873609993 0.00061957246661946484 -3.469812146285186e-05
leaf_weight=25 53 20 23 56 23 47 20 26 29 34 23 25 30470 22 24 24 24 45 20 24 48 31 23 27 32 20 25 50 49 77
leaf_count=25 53 20 23 56 23 47 20 26 29 34 23 25 30470 22 24 24 24 45 20 24 48 31 23 27 32 20 25 50 49 77
internal_value=1.48486e-12 0.000307937 4.37226e-05 0.000225426 -1.21936e-06 0.000261581 -4.93719e-05 -2.18801e-06 -0.000298233 -5.71508e-05 -0.000361464 -0.000400341 -1.12146e-06 0.000227573 -0.000116596 0.000433181 -2.02989e-06 0.000167512 5.84692e-05 -8.32153e-05 -0.00021796 -3.20419e-06 -0.00032334 -0.00084988 5.22008e-06 0.000586244 -2.35874e-06 0.000174091 6.49702e-05 0.00021974
internal_weight=31439 124 99 76 31315 115 92 31200 112 86 57 45 31088 123 46 77 30965 213 189 149 125 30752 81 50 77 40 30671 201 176 126
internal_count=31439 124 99 76 31315 115 92 31200 112 86 57 45 31088 123 46 77 30965 213 189 149 125 30752 81 50 77 40 30671 201 176 126
is_linear=0
shrinkage=0.05


Tree=22
num_leaves=31
num_cat=0
split_feature=71 58 9 92 4 27 13 83 99 78 98 101 92 81 58 52 69 18 71 2 103 92 71 5 55 74 10 27 74 81
split_gain=0.00443458 0.0167318 0.0244498 0.00502165 0.00475209 0.00252645 0.0119637 0.00681498 0.00443737 0.00823219 0.00942528 0.00435605 0.00269245 0.00207619 0.00440368 0.0093066 0.00929637 0.0073089 0.00561066 0.00508862 0.0047897 0.00442667 0.00381314 0.00339858 0.00433891 0.00467947 0.00445808 0.00430788 0.00400295 0.00520209
threshold=-0.052302192247855941 60.504611167510724 -2.0790615758273296 354477.25000000006 98.382763000000011 0.034674853166799358 -67.65497044090759 -0.017182227450470895 -0.053668895719670394 -2.9713179313265647 33.529897494920142 0.0018439490186781501 879021.85000000009 -0.01461239073896895 58.17747514909707 0.034549363904107004 41.819800000000008 -884.45919449999656 -0.035087381890367496 50047.640000000007 -0.034226057705020144 399614.45000000007 0.021306048626148204 0.00074143451085425009 -3.1116967813910317 0.015220006829952603 51.626519702922032 -0.0015435349702826499 0.022693239118612252 -0.035087381890367496
decision_type=2 2 2 2 2 2 2 2 2 2 2 2 2 2 2 2 2 2 2 2 2 2 2 2 2 2 2 2 2 2
left_child=1 3 -3 -1 -5 8 -7 -8 9 -2 -11 -9 -12 14 15 18 17 -16 -10 -19 22 -18 -20 24 25 -22 28 -27 -26 -30
right_child=5 2 -4 4 -6 6 7 11 13 10 12 -13 -14 -15 16 -17 21 19 20 -21 23 -23 -24 -25 26 27 -28 -29 29 -31
leaf_value=-0.00066989137579824911 0.00030980648589320483 0.0023759490670636299 -6.6779199169970872e-05 0.00050356494474625743 -0.00045769312302581969 0.0010387330374214798 -0.00088894377899123361 -0.00026344180450905698 0.000630886460623095 -0.0015398771396749431 0.00013916175759566779 0.00053831844367474948 -0.00066241011372767397 -4.8460641739216087e-06 0.0014266415044072679 -0.00080939690568343253 0.00021298626990756019 -6.9553065237194081e-05 -0.00015404951589619676 0.00078445315495529854 0.00011364065946308676 -0.00051415976134497516 -0.00090676181360322512 -2.2033621963805027e-05 3.9977131729025664e-05 0.00039274279691601464 0.00024644177485804927 0.0012230415684392766 -0.0010083882282266306 -0.00010649934042364172
leaf_weight=27 32 20 21 36 20 33 20 32 39 21 22 36 20 28596 22 33 50 33 106 37 118 36 20 1021 585 61 233 21 21 67
leaf_count=27 32 20 21 36 20 33 20 32 39 21 22 36 20 28596 22 33 50 33 106 37 118 36 20 1021 585 61 233 21 21 67
internal_value=-1.89054e-12 0.00029842 0.0011248 -0.00010979 0.000160258 -1.18167e-06 0.000226848 -7.76085e-05 -2.06619e-06 -0.000343266 -0.000674985 0.00016102 -0.000242539 -1.02391e-06 4.26431e-05 2.42926e-05 0.000282333 0.000631692 3.6296e-05 0.00038185 2.60035e-05 -9.14004e-05 -0.000273528 4.37472e-05 0.000104473 0.000315254 5.79425e-05 0.00060538 -7.31796e-06 -0.000321723
internal_weight=31439 124 41 83 56 31315 121 88 31194 95 63 68 42 31099 2503 2325 178 92 2292 70 2253 86 126 2127 1106 200 906 82 673 88
internal_count=31439 124 41 83 56 31315 121 88 31194 95 63 68 42 31099 2503 2325 178 92 2292 70 2253 86 126 2127 1106 200 906 82 673 88
is_linear=0
shrinkage=0.05


Tree=23
num_leaves=31
num_cat=0
split_feature=59 71 80 1 75 61 57 102 76 48 52 11 74 16 76 83 82 2 82 60 71 11 101 103 62 13 34 38 13 103
split_gain=0.00425687 0.0075312 0.00681611 0.00627026 0.00278714 0.00232118 0.0059822 0.00735981 0.00725355 0.00227092 0.00859199 0.00437067 0.0052791 0.00562917 0.00381941 0.00633784 0.00459219 0.00384387 0.00355562 0.0110909 0.00880299 0.00649169 0.00586091 0.0075461 0.00480551 0.00452478 0.00305511 0.00303425 0.00294776 0.00913173
threshold=-0.039715464700439594 -0.021879460955105848 5.1901956497495716 48608.24500000001 -1.9437851235739123 0.039497049323723311 2.5157267576846931 0.16896962604460761 57.338976049127439 447.29000000000002 0.034549363904107004 826.79372049035021 0.026957949375216353 0.0042860057935088505 75.522125930244997 -0.0055745486254716488 0.016468968806623501 17662.155000000002 0.030062377332304054 0.017547299434562406 -0.019182097018206647 -576.98959088635809 -0.0032389120240823494 0.015907977450512503 88152.119500000481 80.929115386328888 11.606102228777571 0.0093344519741905517 -356.19186562430093 -0.0070782207066389996
decision_type=2 2 2 2 2 2 2 2 2 2 2 2 2 2 2 2 2 2 2 2 2 2 2 2 2 2 2 2 2 2
left_child=1 -1 3 -3 -4 9 7 -7 -8 10 -2 14 27 -14 17 -16 26 -11 28 20 -20 -22 -21 25 -23 -24 -17 -13 29 -19
right_child=5 2 4 -5 -6 6 8 -9 -10 11 -12 12 13 -15 15 16 -18 18 19 22 21 24 23 -25 -26 -27 -28 -29 -30 -31
leaf_value=0.0011814476821746212 -5.8354796624067177e-06 4.0042315570948029e-05 9.0947708667954433e-05 0.0011373440350998072 -0.00065626109829351601 -0.00015987209146073723 0.00082520290718251935 -0.0013208849871131992 -0.0003937667234612701 0.00057626918787718757 -0.0010176142087272768 -0.00015723929057865715 -0.00017310682019489187 -0.0011930758211140832 0.0011160583994933406 0.00071167722775211781 -0.00024012614229160017 0.001231912091607228 0.0011751189310898018 -0.00091527096460181805 0.001040069282601547 0.0005748724410918122 0.00068510198121316543 -0.00081457066249144682 -0.00011686446637090617 -0.00012185584166313913 9.2931820836383858e-05 0.00041457032905249251 1.2700351219381901e-05 -0.00011453371416256927
leaf_weight=20 25572 30 24 23 26 39 23 21 26 32 21 116 31 24 20 38 46 20 34 22 23 38 32 22 74 38 42 29 4899 34
leaf_count=20 25572 30 24 23 26 39 23 21 26 32 21 116 31 24 20 38 46 20 34 22 23 38 32 22 74 38 42 29 4899 34
internal_value=3.38142e-12 0.00029357 0.000121166 0.00051623 -0.000297601 -1.15305e-06 -0.000231485 -0.000566227 0.000178403 -3.48547e-07 -6.66568e-06 2.84499e-05 -0.000201087 -0.000618184 3.69293e-05 0.000289193 0.000157945 2.99379e-05 2.6599e-05 0.000198972 0.000456052 0.000274954 -0.000182138 -6.82406e-06 0.000117832 0.000247039 0.000386836 -4.28774e-05 1.67501e-05 0.00038415
internal_weight=31439 123 103 53 50 31316 109 60 49 31207 25593 5614 200 55 5414 146 126 5268 5236 283 169 135 114 92 112 70 80 145 4953 54
internal_count=31439 123 103 53 50 31316 109 60 49 31207 25593 5614 200 55 5414 146 126 5268 5236 283 169 135 114 92 112 70 80 145 4953 54
is_linear=0
shrinkage=0.05


Tree=24
num_leaves=31
num_cat=0
split_feature=76 11 14 81 38 81 81 8 9 104 74 14 13 104 16 99 78 53 96 78 10 39 5 40 71 17 21 54 44 71
split_gain=0.00408023 0.011694 0.00383073 0.00294821 0.00271744 0.00995853 0.00653064 0.0048213 0.00565591 0.00410634 0.0051969 0.00405725 0.00378945 0.00475521 0.00642555 0.0045459 0.0143954 0.0114582 0.00402281 0.00667713 0.0111313 0.00808092 0.00738921 0.0179105 0.00754936 0.00666051 0.00488489 0.00450113 0.00440774 0.00607473
threshold=21.124049989452107 -644.40616284721534 2408.8137328998278 -0.027020522718735795 -0.027915165921646695 -0.041381983870048246 -0.013886879034245148 0.011644660189254053 -1.1881637102701539 -0.029476109778439497 0.031424654891088762 3593.6068046368241 -356.19186562430093 0.00026939184282185003 -0.0064992556841571491 -0.053668895719670394 -2.9713179313265647 -1.4669973659120108 0.023231395942908604 0.63786884228854668 37.66308613765559 -0.024382291620100045 0.013457279766527502 12643.847789999951 -0.031702672328999294 -0.014640307445608248 1.0000000180025095e-35 47.057162887423225 388.90555000000006 0.032626987385253006
decision_type=2 2 2 2 2 2 2 2 2 2 2 2 2 2 2 2 2 2 2 2 2 2 2 2 2 2 2 2 2 2
left_child=1 -1 3 -3 5 -2 11 -8 -9 10 -6 -7 13 14 -11 16 -14 -18 -17 20 -20 -22 24 -24 27 -26 -27 -23 29 -28
right_child=4 2 -4 -5 9 6 7 8 -10 12 -12 -13 15 -15 -16 18 17 -19 19 -21 21 22 23 -25 25 26 28 -29 -30 -31
leaf_value=0.0012524956413544714 0.0012337915296666325 0.00073444696696242325 -0.00052312785967091179 2.7239826415227854e-05 -0.0001091283670357806 -6.9918671637893688e-05 -1.5089837091576867e-05 0.00088223033784412444 8.6022557752585271e-06 0.00011444675205544069 -0.00077146786982969695 -0.00098334796915878543 0.0005447465712980678 -0.00010388909565032617 0.0012617347415273443 -3.8368159025519526e-06 -0.0018149918157723732 -0.00026995728413263959 0.00098792195606690176 -0.00027174166284061767 -0.00053605089683101553 0.00022769503353629262 0.0015266011634594179 -2.8035873533967374e-05 0.00093588480871403595 0.00057111877654928583 -5.4442930591007856e-05 0.0012884883192964482 0.0003569685830340042 -0.00087775853365504503
leaf_weight=25 20 20 23 56 167 31 99 44 32 26 36 20 27 36 23 29931 20 30 39 99 44 20 32 44 20 35 337 20 59 24
leaf_count=25 20 20 23 56 167 31 99 44 32 26 36 20 27 36 23 29931 20 30 39 99 44 20 32 44 20 35 337 20 59 24
internal_value=-1.17045e-12 0.000286249 4.22468e-05 0.000213347 -1.13348e-06 0.000164394 6.9757e-05 0.000214854 0.000514387 -2.4441e-06 -0.000226588 -0.000428126 -9.6995e-07 0.000332418 0.00065297 -1.89058e-06 -0.00038559 -0.000887971 -9.28335e-07 0.00011169 0.00016801 0.000117653 0.000166321 0.000626548 9.84043e-05 4.28516e-05 3.59743e-06 0.000758092 -4.3696e-05 -0.000109179
internal_weight=31439 124 99 76 31315 246 226 175 76 31069 203 51 30866 85 49 30781 77 50 30704 773 674 635 591 76 515 475 455 40 420 361
internal_count=31439 124 99 76 31315 246 226 175 76 31069 203 51 30866 85 49 30781 77 50 30704 773 674 635 591 76 515 475 455 40 420 361
is_linear=0
shrinkage=0.05


Tree=25
num_leaves=31
num_cat=0
split_feature=59 33 36 33 51 58 93 70 49 15 56 77 81 56 92 84 77 94 62 13 96 27 35 71 69 32 98 62 82 4
split_gain=0.00371698 0.00710622 0.00890104 0.00317305 0.00211182 0.00855165 0.00414327 0.0138473 0.00383459 0.00618844 0.00565048 0.00541904 0.00515155 0.00475697 0.00416 0.00754035 0.00532649 0.00915623 0.00479247 0.00450746 0.00487217 0.00395038 0.00447483 0.00386849 0.00371494 0.00935154 0.00645472 0.00344844 0.00338133 0.00634036
threshold=-0.039715464700439594 -54.348374604338908 479.93610592209239 -21.539835399314594 275.97746428571435 89.757532991809526 0.036282544435972855 18985.115000000002 0.0074100020002246508 0.027524484902964202 -7.2957549900679117 0.25553336058724346 0.039299897499210104 -8.0779295858231865 767251.70000000007 515058.48499999999 0.021032153951441705 0.38181285714285723 4056.4100000000008 -212.25265180879876 0.015313272612344702 -0.010112217027850147 0.098708406110454311 -0.00010672326249874999 3.4000500000000007 51.523503595146593 53.10578999473757 103612.78350000018 0.060568910315338106 42.396307000000007
decision_type=2 2 2 2 2 2 2 2 2 2 2 2 2 2 2 2 2 2 2 2 2 2 2 2 2 2 2 2 2 2
left_child=1 2 -1 -3 5 8 28 -8 9 13 -10 12 -12 -2 19 16 21 18 -18 20 -15 -16 -23 -19 25 -21 -27 -17 -6 -30
right_child=4 3 -4 -5 6 -7 7 -9 10 -11 11 -13 -14 14 15 27 17 23 -20 24 -22 22 -24 -25 -26 26 -28 -29 29 -31
leaf_value=0.0015676390884618741 0.00069113529694732291 -0.00043473656621278718 7.5908847611572136e-05 0.00022515316055172924 -9.1079138783334525e-06 0.00102643242959554 -5.2552872440063885e-05 -0.0015055938181467356 -0.00051828661010534099 0.00068849716996985746 0.00016486881426170077 -0.00010397990700634147 0.00095827896924068545 -4.2699377900135005e-05 -0.00021537409881024029 -0.00029325757059268654 -0.00023743289147248669 -0.00019495349991679754 -0.0012222702508859129 0.0011292266432204859 -0.0008319159470512674 0.00082832639662910879 4.3498791637830439e-05 0.00063956302391099081 7.1576398105312549e-06 0.00065607230433008896 -0.00043687883066013456 -0.0011741091487929226 -8.0827460988075475e-05 0.00099425123759525991
leaf_weight=20 25 27 20 56 21622 21 91 20 35 33 794 202 21 48 44 20 21 41 30 26 33 32 42 21 7956 22 35 25 32 24
leaf_count=20 25 27 20 56 21622 21 91 20 35 33 794 202 21 48 44 20 21 41 30 26 33 32 42 21 7956 22 35 25 32 24
internal_value=-3.94024e-13 0.000274322 0.000821774 1.04902e-05 -1.07746e-06 1.85587e-05 -9.66313e-06 -0.000314362 1.63321e-05 5.12982e-06 0.000106355 0.000127852 0.000185313 2.45186e-06 4.01226e-07 -0.000190498 -7.51495e-05 -0.0003205 -0.000816749 6.88992e-06 -0.000364232 0.000159805 0.000382884 8.77053e-05 1.06293e-05 0.000343406 -1.5038e-05 -0.00078262 -8.10295e-06 0.000379921
internal_weight=31439 123 40 83 31316 9527 21789 111 9506 8454 1052 1017 815 8421 8396 276 231 113 51 8120 81 118 74 62 8039 83 57 45 21678 56
internal_count=31439 123 40 83 31316 9527 21789 111 9506 8454 1052 1017 815 8421 8396 276 231 113 51 8120 81 118 74 62 8039 83 57 45 21678 56
is_linear=0
shrinkage=0.05


Tree=26
num_leaves=31
num_cat=0
split_feature=76 59 98 74 48 99 20 37 52 52 55 67 98 79 74 105 60 83 82 103 37 83 52 92 52 0 47 103 76 79
split_gain=0.00363937 0.0109472 0.00380988 0.00461134 0.00251087 0.015241 0.00394555 0.00392781 0.00758329 0.00400094 0.00344306 0.00273429 0.0122121 0.00571511 0.00437713 0.00263622 0.00242872 0.00457407 0.00436739 0.00680123 0.00569504 0.00369809 0.00409072 0.00399495 0.00547174 0.00467243 0.00512446 0.00354389 0.00429103 0.00353539
threshold=21.124049989452107 -0.022862841172854847 27.224148274009512 0.014021655215917103 6893.6250000000009 -0.025828220066466945 10.500000000000002 -0.035183075234880491 0.021208029764173453 0.015083935488221652 5.5506632181686095 2.4314500000000003 55.625673265723655 -0.0036725355720850497 0.034971787972514302 0.011146824772488802 0.020678939331873352 0.046095138166643311 0.046199679906014007 -0.012903799863838598 0.0093344519741905517 0.012159710435992252 0.026005415225727354 164355.25000000003 0.016110874883108601 34512.170000000006 270.60680000000008 -0.010539416604410897 60.842533553528646 0.072235785262659821
decision_type=2 2 2 2 2 2 2 2 2 2 2 2 2 2 2 2 2 2 2 2 2 2 2 2 2 2 2 2 2 2
left_child=1 -1 3 -3 7 -6 -7 8 9 -2 -8 12 -9 14 -14 -15 18 21 -13 -20 -21 23 -23 24 -18 26 -25 -27 29 -29
right_child=4 2 -4 -5 5 6 10 11 -10 -11 -12 16 13 15 -16 -17 17 -19 19 20 -22 22 -24 25 -26 27 -28 28 -30 -31
leaf_value=0.0013416465316549876 -0.0003177374673621922 -2.4969047529360303e-06 -0.00032636841631476554 0.00088751263966432002 0.0013833516721048079 0.00026472420394519703 -0.00087928766268305478 0.00097735478009685489 -0.0011579525468516209 0.00044986867451370929 8.7568807066418232e-07 -1.1837527106046278e-06 0.00083440117537975317 -0.00012794278649380433 -0.0002116779329662677 -0.00093976501433644442 -8.2185469925795651e-05 -0.00071679871882601037 0.0010483934616786429 -6.0527090154837112e-05 0.00085687763944623015 3.7871082987342228e-05 0.00080900055001534169 -0.00017072423575882568 0.00068536351141769306 0.0002870827608941389 -0.0012765645255885002 -0.00025682372427333829 -0.00069697112850790723 0.00038864346979944797
leaf_weight=20 58 43 39 22 23 47 20 38 21 24 25 30292 20 20 20 20 136 29 24 87 21 95 21 20 28 35 22 99 43 27
leaf_count=20 58 43 39 22 23 47 20 38 21 24 25 30292 20 20 20 20 136 29 24 87 21 95 21 20 28 35 22 99 43 27
internal_value=-1.59288e-13 0.000270343 6.43225e-05 0.000298737 -1.07049e-06 0.000232133 -5.5672e-05 -1.93006e-06 -0.000310184 -9.30723e-05 -0.000390308 -9.09053e-07 0.00023932 -0.000111246 0.000311362 -0.000533854 -1.82409e-06 -0.000105478 6.67821e-08 0.000287046 0.000117857 -7.17742e-05 0.000177472 -0.000142293 4.88595e-05 -0.000269727 -0.000749974 -0.000170853 -0.000265692 -0.000118509
internal_weight=31439 124 104 65 31315 115 92 31200 103 82 45 31097 118 80 40 40 30979 555 30424 132 108 526 116 410 164 246 42 204 169 126
internal_count=31439 124 104 65 31315 115 92 31200 103 82 45 31097 118 80 40 40 30979 555 30424 132 108 526 116 410 164 246 42 204 169 126
is_linear=0
shrinkage=0.05


Tree=27
num_leaves=31
num_cat=0
split_feature=71 81 78 28 102 27 74 54 20 55 16 34 99 88 96 25 35 1 58 99 84 55 81 58 83 52 55 40 35 71
split_gain=0.00333076 0.0139997 0.00975725 0.0135554 0.00380719 0.00230544 0.00512672 0.0104883 0.0127931 0.0084799 0.00487888 0.0030339 0.00301588 0.00335175 0.00291733 0.00268193 0.00479668 0.00459064 0.00342718 0.00274554 0.00267137 0.00254842 0.00224528 0.00670286 0.00892015 0.00837135 0.00480905 0.00441058 0.00548229 0.00421813
threshold=-0.052302192247855941 -0.022831644517380099 0.69178857505830493 2286.7914285714292 0.056010376093194758 -0.021878023390466999 0.023650872042193901 34.519866309735981 11.500000000000002 -4.9918804518987647 0.004823233922514201 -9.7151637679007941 -0.0063354472779513496 1.4589250000000002 0.016476299886608953 1069.1500000000003 -6.3423053799622968 34157.025000000009 3.9302671588866365 0.00092135748393645008 2953591.0250000004 -2.7197349307035092 -0.01461239073896895 58.17747514909707 -0.034987609653195396 0.034549363904107004 -16.618128623811398 22122.516369999907 -5.1230335391113888 -0.035087381890367496
decision_type=2 2 2 2 2 2 2 2 2 2 2 2 2 2 2 2 2 2 2 2 2 2 2 2 2 2 2 2 2 2
left_child=1 -1 3 4 -3 6 9 -8 11 14 -10 -9 21 -14 -2 16 -7 18 19 -18 -20 -11 23 25 -25 29 -26 28 -28 -17
right_child=5 2 -4 -5 -6 15 7 8 10 12 -12 -13 13 -15 -16 22 17 -19 20 -21 -22 -23 -24 24 26 -27 27 -29 -30 -31
leaf_value=0.0013719333614141721 0.00022788110619523759 -0.00029357825173065072 0.00093637002203401866 -0.0012762217119376622 0.00053572902393024112 0.00081224954998246042 -0.0011521605148586925 -0.00031287572790114653 0.00094107723872730281 -6.1341298714978623e-05 -9.2706039902709788e-05 -0.0011627910919265734 -0.00010698011110434892 0.00055504230934854022 0.00094394146790727988 0.00075528089539147916 2.6176141236646803e-05 0.00080644620378734545 0.000443146716901942 -0.00079238557118081927 -3.0456844565791967e-05 -0.00065901096327468714 -4.6416589831920994e-06 0.0012778679300522941 -0.00037850574098511377 -0.00082263903479605656 0.001308035399997607 4.3001884617243543e-05 0.00032854543956636916 2.5817626071352673e-05
leaf_weight=23 33 25 22 23 31 26 33 21 25 31 21 21 146 22 25 20 20 20 45 21 88 42 28263 22 29 29 20 68 50 2174
leaf_count=23 33 25 22 23 31 26 33 21 25 31 21 21 146 22 25 20 20 20 45 21 88 42 28263 22 29 29 20 68 50 2174
internal_value=1.08936e-12 0.000258626 5.10084e-06 -0.00025424 0.000165503 -1.0241e-06 -0.00011738 -0.000391985 -0.000106919 -6.25282e-06 0.000469133 -0.000737833 -0.000136881 -2.02867e-05 0.000536528 5.57701e-07 0.00017451 8.90399e-05 6.57946e-06 -0.000393087 0.000129785 -0.000405206 -6.8988e-07 4.56157e-05 0.000331474 2.1312e-05 0.000206799 0.000329798 0.0006084 3.24672e-05
internal_weight=31439 124 101 79 56 31315 420 121 88 299 46 42 241 168 58 30895 220 194 174 41 133 73 30675 2412 189 2223 167 138 70 2194
internal_count=31439 124 101 79 56 31315 420 121 88 299 46 42 241 168 58 30895 220 194 174 41 133 73 30675 2412 189 2223 167 138 70 2194
is_linear=0
shrinkage=0.05


end of trees

feature_importances:
SOLUSDT_return=33
SOLUSDT_return_lag1=30
SOLUSDT_volatility_30=28
ADAUSDT_volatility_30=25
ADAUSDT_volume=22
ADAUSDT_return_lag1=21
BNBUSDT_return_lag1=20
BNBUSDT_volatility_30=19
BNBUSDT_macd=19
SOLUSDT_rsi_14=19
SOLUSDT_macd_diff=18
SOLUSDT_return_lag3=17
ETHUSDT_return_lag3=16
BNBUSDT_bb_width=16
ADAUSDT_macd=16
ETHUSDT_open=15
BNBUSDT_volume=15
SOLUSDT_macd_signal=15
BTCUSDT_macd_diff=14
BNBUSDT_zscore_30=14
ADAUSDT_return=14
ETHUSDT_return=13
SOLUSDT_return_lag2=13
ADAUSDT_return_lag3=13
ADAUSDT_return_lag2=12
BTCUSDT_return=11
BTCUSDT_rsi_14=11
BTCUSDT_return_lag2=10
ETHUSDT_macd=10
ETHUSDT_return_lag1=10
BNBUSDT_return_lag2=10
BTCUSDT_open=9
BNBUSDT_macd_diff=9
SOLUSDT_obv=9
ADAUSDT_bb_width=9
BTCUSDT_macd=8
BTCUSDT_bb_width=8
ETHUSDT_volume=8
ETHUSDT_macd_signal=8
ETHUSDT_macd_diff=8
BNBUSDT_return_lag3=8
SOLUSDT_macd=8
ADAUSDT_zscore_30=8
ADAUSDT_rsi_14=8
BTCUSDT_close=7
BTCUSDT_volume=7
BTCUSDT_volatility_30=7
BTCUSDT_zscore_30=7
BTCUSDT_macd_signal=7
BTCUSDT_return_lag1=7
ETHUSDT_volatility_30=7
BNBUSDT_return=7
BNBUSDT_rsi_14=7
SOLUSDT_zscore_30=7
SOLUSDT_bb_width=7
ADAUSDT_macd_signal=7
BTCUSDT_high=6
BTCUSDT_return_lag3=6
BTCUSDT_hour=6
ETHUSDT_bb_width=6
ETHUSDT_obv=6
BNBUSDT_low=6
SOLUSDT_volume=6
ADAUSDT_obv=6
ETHUSDT_ma_7=5
ETHUSDT_return_lag2=5
BNBUSDT_macd_signal=5
ADAUSDT_macd_diff=5
BTCUSDT_obv=4
BNBUSDT_open=4
SOLUSDT_close=4
ADAUSDT_open=4
ADAUSDT_ma_7=4
BTCUSDT_low=3
ETHUSDT_zscore_30=3
BNBUSDT_close=3
BNBUSDT_ma_7=3
BNBUSDT_ma_14=3
BNBUSDT_obv=3
SOLUSDT_high=3
SOLUSDT_ma_7=3
ADAUSDT_ma_14=3
ETHUSDT_close=2
ETHUSDT_ma_14=2
ETHUSDT_rsi_14=2
BNBUSDT_vwap=2
BTCUSDT_ma_7=1
BTCUSDT_day_of_week=1
ETHUSDT_high=1
SOLUSDT_open=1
SOLUSDT_low=1
ADAUSDT_high=1

parameters:
[boosting: gbdt]
[objective: regression]
[metric: l2]
[tree_learner: serial]
[device_type: cpu]
[data_sample_strategy: bagging]
[data: ]
[valid: ]
[num_iterations: 1000]
[learning_rate: 0.05]
[num_leaves: 31]
[num_threads: 8]
[seed: 0]
[deterministic: 0]
[force_col_wise: 0]
[force_row_wise: 0]
[histogram_pool_size: -1]
[max_depth: -1]
[min_data_in_leaf: 20]
[min_sum_hessian_in_leaf: 0.001]
[bagging_fraction: 1]
[pos_bagging_fraction: 1]
[neg_bagging_fraction: 1]
[bagging_freq: 0]
[bagging_seed: 3]
[bagging_by_query: 0]
[feature_fraction: 1]
[feature_fraction_bynode: 1]
[feature_fraction_seed: 2]
[extra_trees: 0]
[extra_seed: 6]
[early_stopping_round: 0]
[early_stopping_min_delta: 0]
[first_metric_only: 0]
[max_delta_step: 0]
[lambda_l1: 0]
[lambda_l2: 0]
[linear_lambda: 0]
[min_gain_to_split: 0]
[drop_rate: 0.1]
[max_drop: 50]
[skip_drop: 0.5]
[xgboost_dart_mode: 0]
[uniform_drop: 0]
[drop_seed: 4]
[top_rate: 0.2]
[other_rate: 0.1]
[min_data_per_group: 100]
[max_cat_threshold: 32]
[cat_l2: 10]
[cat_smooth: 10]
[max_cat_to_onehot: 4]
[top_k: 20]
[monotone_constraints: ]
[monotone_constraints_method: basic]
[monotone_penalty: 0]
[feature_contri: ]
[forcedsplits_filename: ]
[refit_decay_rate: 0.9]
[cegb_tradeoff: 1]
[cegb_penalty_split: 0]
[cegb_penalty_feature_lazy: ]
[cegb_penalty_feature_coupled: ]
[path_smooth: 0]
[interaction_constraints: ]
[verbosity: -1]
[saved_feature_importance_type: 0]
[use_quantized_grad: 0]
[num_grad_quant_bins: 4]
[quant_train_renew_leaf: 0]
[stochastic_rounding: 1]
[linear_tree: 0]
[max_bin: 255]
[max_bin_by_feature: ]
[min_data_in_bin: 3]
[bin_construct_sample_cnt: 200000]
[data_random_seed: 1]
[is_enable_sparse: 1]
[enable_bundle: 1]
[use_missing: 1]
[zero_as_missing: 0]
[feature_pre_filter: 1]
[pre_partition: 0]
[two_round: 0]
[header: 0]
[label_column: ]
[weight_column: ]
[group_column: ]
[ignore_column: ]
[categorical_feature: ]
[forcedbins_filename: ]
[precise_float_parser: 0]
[parser_config_file: ]
[objective_seed: 5]
[num_class: 1]
[is_unbalance: 0]
[scale_pos_weight: 1]
[sigmoid: 1]
[boost_from_average: 1]
[reg_sqrt: 0]
[alpha: 0.9]
[fair_c: 1]
[poisson_max_delta_step: 0.7]
[tweedie_variance_power: 1.5]
[lambdarank_truncation_level: 30]
[lambdarank_norm: 1]
[label_gain: ]
[lambdarank_position_bias_regularization: 0]
[eval_at: ]
[multi_error_top_k: 1]
[auc_mu_weights: ]
[num_machines: 1]
[local_listen_port: 12400]
[time_out: 120]
[machine_list_filename: ]
[machines: ]
[gpu_platform_id: -1]
[gpu_device_id: -1]
[gpu_use_dp: 0]
[num_gpu: 1]

end of parameters

pandas_categorical:[]
