tree
version=v4
num_class=1
num_tree_per_iteration=1
label_index=0
max_feature_idx=109
objective=regression
feature_names=BTCUSDT_open BTCUSDT_high BTCUSDT_low BTCUSDT_close BTCUSDT_volume BTCUSDT_return BTCUSDT_ma_7 BTCUSDT_ma_14 BTCUSDT_volatility_30 BTCUSDT_zscore_30 BTCUSDT_rsi_14 BTCUSDT_macd BTCUSDT_macd_signal BTCUSDT_macd_diff BTCUSDT_bb_width BTCUSDT_return_lag1 BTCUSDT_return_lag2 BTCUSDT_return_lag3 BTCUSDT_obv BTCUSDT_vwap BTCUSDT_hour BTCUSDT_day_of_week ETHUSDT_open ETHUSDT_high ETHUSDT_low ETHUSDT_close ETHUSDT_volume ETHUSDT_return ETHUSDT_ma_7 ETHUSDT_ma_14 ETHUSDT_volatility_30 ETHUSDT_zscore_30 ETHUSDT_rsi_14 ETHUSDT_macd ETHUSDT_macd_signal ETHUSDT_macd_diff ETHUSDT_bb_width ETHUSDT_return_lag1 ETHUSDT_return_lag2 ETHUSDT_return_lag3 ETHUSDT_obv ETHUSDT_vwap ETHUSDT_hour ETHUSDT_day_of_week BNBUSDT_open BNBUSDT_high BNBUSDT_low BNBUSDT_close BNBUSDT_volume BNBUSDT_return BNBUSDT_ma_7 BNBUSDT_ma_14 BNBUSDT_volatility_30 BNBUSDT_zscore_30 BNBUSDT_rsi_14 BNBUSDT_macd BNBUSDT_macd_signal BNBUSDT_macd_diff BNBUSDT_bb_width BNBUSDT_return_lag1 BNBUSDT_return_lag2 BNBUSDT_return_lag3 BNBUSDT_obv BNBUSDT_vwap BNBUSDT_hour BNBUSDT_day_of_week SOLUSDT_open SOLUSDT_high SOLUSDT_low SOLUSDT_close SOLUSDT_volume SOLUSDT_return SOLUSDT_ma_7 SOLUSDT_ma_14 SOLUSDT_volatility_30 SOLUSDT_zscore_30 SOLUSDT_rsi_14 SOLUSDT_macd SOLUSDT_macd_signal SOLUSDT_macd_diff SOLUSDT_bb_width SOLUSDT_return_lag1 SOLUSDT_return_lag2 SOLUSDT_return_lag3 SOLUSDT_obv SOLUSDT_vwap SOLUSDT_hour SOLUSDT_day_of_week ADAUSDT_open ADAUSDT_high ADAUSDT_low ADAUSDT_close ADAUSDT_volume ADAUSDT_return ADAUSDT_ma_7 ADAUSDT_ma_14 ADAUSDT_volatility_30 ADAUSDT_zscore_30 ADAUSDT_rsi_14 ADAUSDT_macd ADAUSDT_macd_signal ADAUSDT_macd_diff ADAUSDT_bb_width ADAUSDT_return_lag1 ADAUSDT_return_lag2 ADAUSDT_return_lag3 ADAUSDT_obv ADAUSDT_vwap ADAUSDT_hour ADAUSDT_day_of_week
feature_infos=[15653.629999999999:73485.350000000006] [15769.129999999999:138070] [15486.74:73190.059999999998] [15650.780000000001:73487.75] [0.0062899999999999996:2004.507026] [-0.088984363954880102:0.12647227743408199] [15746.204285714284:73248.855714285717] [15776.579285714286:73137.041428571421] [0.00045176674564959999:0.031704297236320199] [-4.9574363728022153:5.1229199971338515] [6.9396334198231466:92.257629126889839] [-2362.0006814277003:1885.7769492287844] [-2076.9435269365058:1744.1282079115281] [-769.48175018780307:620.07253336935992] [27.515931025605823:12363.101406971064] [-0.088984363954880102:0.12647227743408199] [-0.088984363954880102:0.12647227743408199] [-0.088984363954880102:0.12647227743408199] [-11506.304408999988:7017.7553420000113] [15661.963333333331:73387.963333333333] [0:23] [0:6] [756.89999999999998:4847.8999999999996] [770.86000000000001:4866.21] [753.33000000000004:4833.4200000000001] [758.05999999999995:4847.1899999999996] [0.001:7326.6536299999998] [-0.12719551217290029:0.094002020933823899] [755.33285714285716:4809.9157142857148] [743.64357142857148:4800.5828571428574] [0.00059711734622270001:0.046989806092610498] [-5.0545098927804659:4.9953448709540851] [6.688876919484998:92.93296433649914] [-208.18001478115957:160.47413576206918] [-180.02831148424522:138.3849536064611] [-63.794083102911515:62.417840226593725] [3.9261890784041498:1219.8968042831066] [-0.12719551217290029:0.094002020933823899] [-0.12719551217290029:0.094002020933823899] [-0.12719551217290029:0.094002020933823899] [-39135.212030000068:43392.60878999994] [764.32999999999993:4848.1833333333334] [0:23] [0:6] [35.830599999999997:715.29999999999995] [36.936199999999999:718] [35.128599999999999:712] [35.876100000000001:716.5] [0:28223.029999999999] [-0.15497182872278109:0.148803116353352] [36.799485714285709:708.8142857142858] [37.305485714285709:706.9357142857142] [0.0010044699451932:0.055095139246621398] [-4.8195702148064239:5.0789682954218947] [5.784911496967732:90.548777354540434] [-38.292331959744843:31.428153633248257] [-32.805920657275514:29.491735402306148] [-10.452869510242271:10.102249182375424] [0.81853524038814385:216.35352670686152] [-0.15497182872278109:0.148803116353352] [-0.15497182872278109:0.148803116353352] [-0.15497182872278109:0.148803116353352] [-20548.710000000006:212017.65999999992] [35.9803:714.16666666666663] [0:23] [0:6] [1.7703:258.4957] [1.8008999999999999:259.78059999999999] [1.7563:256.25920000000002] [1.7672000000000001:258.41719999999998] [0:200450.59] [-0.19658150290712351:0.16907199870998929] [1.7801714285714283:254.92082857142856] [1.7864214285714286:254.53961428571429] [0.0017835317236526:0.070387092270766699] [-4.8076739166688904:4.9348531529941475] [11.010264929428974:92.717632190267722] [-9.6087009564494128:11.117015206250926] [-8.6940596202619549:9.6998289035006646] [-3.8051688064294424:4.1091792130482574] [0.095086308163031305:78.21132414719176] [-0.19658150290712351:0.16907199870998929] [-0.19658150290712351:0.16907199870998929] [-0.19658150290712351:0.16907199870998929] [-56466.499999999971:3455991.4299999992] [1.7826333333333333:257.91026666666664] [0:23] [0:6] [0.17421:3.0922000000000001] [0.17551:3.0994100000000002] [0.10367999999999999:3.0480499999999999] [0.17427999999999999:3.0913200000000001] [0:6658786.7000000002] [-0.21355949265149979:0.1585230221694966] [0.17522571428571429:3.0485171428571434] [0.1754478571428571:3.0289757142857141] [0.0015405479878558999:0.069407988131880094] [-4.8698994737722217:4.890549018424438] [9.0393185572181594:95.365928680777316] [-0.14326550474172081:0.10023121021293591] [-0.1136119205604473:0.091107680546505906] [-0.043526228000122999:0.047391835716030499] [0.0013059865158724:0.82178267496706159] [-0.21355949265149979:0.1585230221694966] [-0.21355949265149979:0.1585230221694966] [-0.21355949265149979:0.1585230221694966] [-608476.50000000012:70946059.699999899] [0.1746566666666666:3.0727566666666668] [0:23] [0:6]
tree_sizes=3009 3040 3012 3035 3022 3023 3027 3022 3026 3043 3055

Tree=0
num_leaves=31
num_cat=0
split_feature=48 55 38 20 4 52 7 17 95 83 59 81 27 8 40 60 78 99 18 14 45 81 106 61 74 38 39 8 93 8
split_gain=0.0124972 0.0117636 0.014585 0.0090863 0.00647944 0.00446116 0.00785723 0.00749053 0.00572667 0.00561123 0.00550737 0.00704843 0.00536703 0.00311859 0.006925 0.00646747 0.00336686 0.0030098 0.00689775 0.00282273 0.00277537 0.00215601 0.00279571 0.00211473 0.00472217 0.00379718 0.0035753 0.00317407 0.00180499 0.00380206
threshold=6893.6250000000009 -7.2485154320011125 0.0023152423986665008 7.5000000000000009 29.934339500000004 0.034549363904107004 52006.547142857155 0.015523406456843102 0.90926607142857163 0.00078606016939115008 0.020678939331873352 -0.011401988276796249 -0.0028688630830542494 0.016056883575903656 26097.259919999855 -0.022841270729036647 -1.1668181707586351 -0.053668895719670394 -1658.8705849999974 7855.1566651461226 277.36695000000003 -0.027020522718735795 42143836.300000124 -0.020883146194327195 0.03330867151964411 0.011982216528524652 -0.019759383350087496 0.012917824413340502 -0.026005405288779346 0.013262813773540952
decision_type=2 2 2 2 2 2 2 2 2 2 2 2 2 2 2 2 2 2 2 2 2 2 2 2 2 2 2 2 2 2
left_child=5 -2 3 -3 -5 13 7 8 12 -8 11 -10 -7 17 15 -15 20 18 -1 21 -17 -18 -23 24 25 27 -27 -19 29 -25
right_child=1 2 -4 4 -6 6 9 -9 10 -11 -12 -13 -14 14 -16 16 19 23 -20 -21 -22 22 -24 28 -26 26 -28 -29 -30 -31
leaf_value=0.00016259765893585562 0.0015079994068408755 0.00075213012079602428 0.0014092246835229734 -0.0010346100337882617 0.00019592496787402476 0.00038400427906629326 -0.00130629184342755 -0.00080124531107930014 0.00012287320230498352 -0.00013607553873122973 -0.00015066735276773107 0.0013285226649352268 -0.00065164310622173674 0.00098595853150903134 -0.00044950480690173075 0.00031893581290429467 0.00050764584885863533 0.00019945872178174674 -0.000836370722019284 0.0006946132889801785 0.0010683901153126724 0.00015151008133475164 -0.00043472890996116697 5.9645032185418151e-05 0.0008016083795298948 0.0001008777606544282 -0.00067144757947695105 0.00072751278619888359 0.00011979834173213695 -0.00049574127130519419
leaf_weight=48 29 24 24 23 20 22 21 22 22 20 23 27 29 32 33 30 38 347 27 26 21 269 22 329 33 43 23 31 29747 34
leaf_count=48 29 24 24 23 20 22 21 22 22 20 23 27 29 32 33 30 38 347 27 26 21 269 22 329 33 43 23 31 29747 34
internal_value=0.000121779 0.000631058 0.000351593 -2.72598e-05 -0.000462268 0.000119828 -0.000124315 4.84898e-05 0.000200475 -0.000735455 0.000487611 0.000787211 -0.000204893 0.000121286 0.000248968 0.000301593 0.000247653 0.000119325 -0.000197031 0.000193078 0.000627535 0.000153443 0.00010719 0.000120101 0.000224555 0.000181666 -0.000168266 0.000242765 0.000118446 7.62538e-06
internal_weight=31439 120 91 67 43 31319 186 145 123 41 72 49 51 31133 471 438 406 30662 75 355 51 329 291 30587 477 444 66 378 30110 363
internal_count=31439 120 91 67 43 31319 186 145 123 41 72 49 51 31133 471 438 406 30662 75 355 51 329 291 30587 477 444 66 378 30110 363
is_linear=0
shrinkage=1


Tree=1
num_leaves=31
num_cat=0
split_feature=48 83 38 59 52 7 17 9 83 54 81 84 80 49 12 79 27 9 84 73 51 103 18 40 16 35 58 0 78 37
split_gain=0.0112787 0.0110291 0.00974374 0.00740496 0.0040262 0.00709115 0.00676021 0.00517848 0.00506413 0.00499362 0.00910038 0.00294479 0.00441242 0.00396055 0.00331521 0.00288641 0.00239335 0.00236589 0.00235926 0.00395073 0.00654885 0.00231518 0.00322159 0.00541172 0.00413348 0.00289699 0.00228403 0.00220893 0.00212533 0.00201298
threshold=6893.6250000000009 -0.021879460955105848 0.0023152423986665008 0.0060097817379957006 0.034549363904107004 52006.547142857155 0.015523406456843102 0.62137845244485901 0.00078606016939115008 51.667687783395493 0.00078606016939115008 605222.87499999965 7.18522372924535 -0.030196324616951098 999.00431481605085 -0.19618425061355352 0.034674853166799358 -1.1527523794882308 741021.81999999878 26.078735714285717 309.26785714285717 0.013100018151451401 781.83117800000207 11387.118414999934 -0.00023174186219164996 -2.4203510955246794 107.62404974325788 47317.775000000009 1.1324162144859555 -0.016825604209860848
decision_type=2 2 2 2 2 2 2 2 2 2 2 2 2 2 2 2 2 2 2 2 2 2 2 2 2 2 2 2 2 2
left_child=4 -2 3 -3 11 6 7 9 -7 10 17 12 13 -1 15 -15 18 -6 19 -13 -21 22 -17 -24 -25 27 -20 -23 29 -22
right_child=1 2 -4 -5 5 8 -8 -9 -10 -11 -12 16 -14 14 -16 21 -18 -19 26 20 28 25 23 24 -26 -27 -28 -29 -30 -31
leaf_value=0.0005146124703638965 0.0014182337913662196 0.00042842397083672144 0.0010212175521311501 -0.00062298628362248462 -0.00071481147293208942 -0.0013566673932863134 -0.00087687315436514026 0.00062185796232370203 -0.00024496191326761618 -0.00081548969144932919 0.00080158542134288122 0.00045843754196539521 0.00064491570285040768 -0.00045729215751634912 0.00063323174836114058 4.5211874323428162e-05 0.00026986868743054552 1.922888373623469e-05 -4.0015377333711429e-06 -0.0010924827925919091 0.00038965831845416687 -0.00012118472602651309 -8.6507887474884207e-05 0.0011997232532493123 0.00025178752738334561 6.4750303503020317e-06 -0.00049197829533416859 -0.00059855693107238042 -0.00060379601061206567 -0.000144567313221361
leaf_weight=44 25 34 28 33 23 21 22 32 20 20 27 23 31 30 23 1841 79 21 28349 20 20 64 37 23 23 292 24 39 22 149
leaf_count=44 25 34 28 33 23 21 22 32 20 20 27 23 31 30 23 1841 79 21 28349 20 20 64 37 23 23 292 24 39 22 149
internal_value=3.84532e-12 0.000483815 0.000237915 -8.94348e-05 -1.85375e-06 -0.00023379 -6.96248e-05 7.47611e-05 -0.000814372 -0.000117625 7.8957e-05 -4.68083e-07 5.21827e-05 4.45773e-05 3.58582e-05 3.00091e-05 -4.95935e-06 -0.000364474 -5.7183e-06 -0.000163831 -0.000231661 3.63131e-05 5.89496e-05 0.000363662 0.000725755 -7.39464e-05 -4.4143e-06 -0.000301937 -0.000141523 -8.13453e-05
internal_weight=31439 120 95 67 31319 186 145 123 41 91 71 31133 2447 2416 2372 2349 28686 44 28607 234 211 2319 1924 83 46 395 28373 103 191 169
internal_count=31439 120 95 67 31319 186 145 123 41 91 71 31133 2447 2416 2372 2349 28686 44 28607 234 211 2319 1924 83 46 395 28373 103 191 169
is_linear=0
shrinkage=0.05


Tree=2
num_leaves=31
num_cat=0
split_feature=48 55 38 20 4 52 7 17 59 95 88 84 27 8 40 60 78 99 53 45 14 81 101 54 61 74 16 89 102 21
split_gain=0.0101791 0.0102098 0.0122748 0.00808867 0.00549318 0.00363365 0.00639976 0.00610109 0.00487101 0.00468328 0.00527706 0.00690212 0.00477536 0.00271112 0.006231 0.00582315 0.00308019 0.00260663 0.006462 0.00250675 0.00244495 0.00193802 0.00258144 0.00237819 0.00189386 0.00420355 0.00347883 0.00289673 0.00194304 0.00214297
threshold=6893.6250000000009 -7.2485154320011125 0.0023152423986665008 7.5000000000000009 29.934339500000004 0.034549363904107004 52006.547142857155 0.015523406456843102 0.0040241168959643013 0.90926607142857163 1.0389000000000002 840927.62999999803 -0.0028688630830542494 0.016056883575903656 26097.259919999855 -0.022841270729036647 -1.1668181707586351 -0.053668895719670394 -1.6815089383041102 277.36695000000003 7855.1566651461226 -0.027020522718735795 -0.0020264634701940994 45.23979270315386 -0.020883146194327195 0.03330867151964411 0.0083044549346190013 1.2400400000000003 0.25260686731174747 3.5000000000000004
decision_type=2 2 2 2 2 2 2 2 2 2 2 2 2 2 2 2 2 2 2 2 2 2 2 2 2 2 2 2 2 2
left_child=5 -2 3 -3 -5 13 7 9 -8 12 -11 -12 -7 17 15 -15 19 18 -1 -17 21 -18 -23 -24 25 26 28 -28 29 -19
right_child=1 2 -4 4 -6 6 8 -9 -10 10 11 -13 -14 14 -16 16 20 24 -20 -21 -22 22 23 -25 -26 -27 27 -29 -30 -31
leaf_value=-0.00074258427807646335 0.001276600148111325 0.00058707239271219198 0.0011695311191336564 -0.0010857057079429861 4.7312893861999328e-05 0.00025992784662362696 -0.001305508262400205 -0.00083302953505401747 -0.00021520585461985318 0.00097600460682191297 -0.00051766351120582281 0.00065819179095948739 -0.00071696668987740475 0.00081790371768875048 -0.00054394598683398779 0.00018740407666579509 0.0003640716061406573 0.00018590127089867435 0.00018638367716145393 0.00089966698350118753 0.00053190892565278499 -0.00051231209436082288 0.00049332224926911298 -1.8914657866393223e-05 -3.1174541722967542e-06 0.00064174146594296242 -1.7378933325349154e-05 -0.00066979494931055587 0.00056400563138911668 -7.0194604481322269e-05
leaf_weight=39 29 24 24 23 20 22 21 22 20 22 26 24 29 32 33 30 38 217 36 21 26 24 25 242 30110 33 46 27 23 131
leaf_count=39 29 24 24 23 20 22 21 22 20 22 26 24 29 32 33 30 38 217 36 21 26 24 25 242 30110 33 46 27 23 131
internal_value=-7.94697e-13 0.000459624 0.000199269 -0.000148287 -0.00055872 -1.76107e-06 -0.0002221 -6.61436e-05 -0.000773653 7.1023e-05 0.000330687 4.6747e-05 -0.000295561 -4.44684e-07 0.000118604 0.000168522 0.000117339 -2.27339e-06 -0.00029668 0.000480689 6.51396e-05 2.82521e-05 -1.56006e-05 2.90476e-05 -1.5515e-06 9.72972e-05 5.68318e-05 -0.000258683 0.000118914 8.94974e-05
internal_weight=31439 120 91 67 43 31319 186 145 41 123 72 50 51 31133 471 438 406 30662 75 51 355 329 291 267 30587 477 444 73 371 348
internal_count=31439 120 91 67 43 31319 186 145 41 123 72 50 51 31133 471 438 406 30662 75 51 355 329 291 267 30587 477 444 73 371 348
is_linear=0
shrinkage=0.05


Tree=3
num_leaves=31
num_cat=0
split_feature=48 105 53 103 103 52 82 62 14 103 61 9 51 84 80 49 12 79 103 18 4 48 35 27 84 73 51 0 58 51
split_gain=0.00918661 0.00961823 0.0110652 0.00599889 0.00495446 0.00327936 0.0060941 0.00698382 0.00801619 0.00498031 0.0049506 0.00402952 0.00341268 0.00257158 0.00395373 0.00355775 0.00284917 0.00261043 0.00211072 0.00291165 0.0048978 0.00474125 0.00263446 0.00209007 0.00213049 0.00353487 0.00595378 0.00198097 0.00196579 0.00195214
threshold=6893.6250000000009 -0.013858873175414498 1.7151857988379176 0.0076158201811272501 -0.020639410350397343 0.034549363904107004 0.0067211250847871015 137932.94000000021 5412.4352687974688 -0.011816029181266648 -0.0075642485135024992 -1.0994881328360278 301.53496428571435 605222.87499999965 7.18522372924535 -0.030196324616951098 999.00431481605085 -0.19618425061355352 0.013100018151451401 781.83117800000207 14.454218000000003 1855.3700000000001 -2.4203510955246794 0.034674853166799358 741021.81999999878 26.078735714285717 309.26785714285717 47317.775000000009 107.62404974325788 579.00000000000011
decision_type=2 2 2 2 2 2 2 2 2 2 2 2 2 2 2 2 2 2 2 2 2 2 2 2 2 2 2 2 2 2
left_child=5 -2 3 4 -3 13 7 11 12 -8 -11 -7 -9 14 15 -1 17 -17 19 29 21 -21 27 24 25 -15 -27 -20 -26 -19
right_child=1 2 -4 -5 -6 6 9 8 -10 10 -12 -13 -14 23 -16 16 -18 18 22 20 -22 -23 -24 -25 28 26 -28 -29 -30 -31
leaf_value=0.00048707181056008932 0.0012674239438234104 0.00038875061873979924 -0.0006147625311157378 -8.3738547761205836e-05 0.0014883529653889128 -0.00041973226230449814 -0.00046670170500874526 -0.00082908162985404496 -0.0015387134180143579 0.00096540336003685795 -2.9012151626926485e-06 0.00055067031877115374 9.4590358130517416e-05 0.00043302788601621341 0.00060985807628434669 -0.00043552592416138699 0.00058711108488395173 4.7972740285331388e-05 -0.00011763300763050211 8.4220612453381443e-05 -0.00015226636653918127 0.0010505968305127074 5.3012356303644046e-06 0.00025220603593315672 -3.706613847613219e-06 -0.0010405212832847611 -0.00013379571084432909 -0.00056970233575460343 -0.00045641351413602636 -0.00043687627046546415
leaf_weight=44 27 21 29 23 20 23 25 20 23 22 33 20 20 23 31 30 23 1820 64 22 31 30 292 79 28349 20 191 39 24 21
leaf_count=44 27 21 29 23 20 23 25 20 23 22 33 20 20 23 31 30 23 1820 64 22 31 30 292 79 28349 20 191 39 24 21
internal_value=-1.18032e-12 0.000436643 0.000195449 0.000562576 0.000925142 -1.67302e-06 -0.000210995 -0.000459629 -0.000794924 0.000118445 0.000384421 3.16178e-05 -0.000367246 -4.2245e-07 4.87789e-05 4.15797e-05 3.33159e-05 2.78935e-05 3.38885e-05 5.55023e-05 0.000345187 0.000641745 -7.13897e-05 -4.61947e-06 -5.32871e-06 -0.00015558 -0.000219741 -0.000288805 -4.08955e-06 4.24421e-05
internal_weight=31439 120 93 64 41 31319 186 106 63 80 55 43 40 31133 2447 2416 2372 2349 2319 1924 83 52 395 28686 28607 234 211 103 28373 1841
internal_count=31439 120 93 64 41 31319 186 106 63 80 55 43 40 31133 2447 2416 2372 2349 2319 1924 83 52 395 28686 28607 234 211 103 28373 1841
is_linear=0
shrinkage=0.05


Tree=4
num_leaves=31
num_cat=0
split_feature=48 58 39 83 62 52 61 54 19 106 101 14 17 5 52 15 99 81 56 47 46 58 16 57 74 17 13 10 93 49
split_gain=0.00829091 0.00927641 0.0221277 0.0141524 0.01602 0.00295963 0.00573842 0.0103174 0.00558304 0.00355882 0.0033129 0.00246997 0.00458313 0.0025243 0.00219163 0.00460884 0.0037549 0.0115305 0.00333607 0.00342136 0.00180941 0.00718131 0.00455084 0.00155593 0.00137983 0.00369031 0.00351913 0.00428836 0.00278152 0.00257371
threshold=6893.6250000000009 58.17747514909707 -0.0018704514028056998 0.0013441689615090503 105774.69300000017 0.034549363904107004 -0.014608156565832498 41.797932513630435 50735.655000000006 54997620.249999918 0.0049408948423611014 7855.1566651461226 -0.0069011013736242494 0.00022822472970925004 0.030276691294072951 -0.0067073723019674984 -0.053668895719670394 0.0048297515494626015 -10.531529832400748 291.10185000000007 209.74995000000004 27.672145120134193 -0.0014733714981458497 0.73086694306539479 0.038011514218190955 0.014387216339185452 105.40159330296426 39.432691717639678 -0.010539416604410897 0.0013845248257581503
decision_type=2 2 2 2 2 2 2 2 2 2 2 2 2 2 2 2 2 2 2 2 2 2 2 2 2 2 2 2 2 2
left_child=5 3 -3 4 -2 11 9 -8 10 -7 -9 14 -13 -14 16 -16 17 -1 -17 -20 21 23 -23 -18 -22 26 27 -26 -29 -28
right_child=1 2 -4 -5 -6 6 7 8 -10 -11 -12 12 13 -15 15 18 20 -19 19 -21 24 22 -24 -25 25 -27 29 28 -30 -31
leaf_value=-0.0011523734503218574 0.00045248065871419387 0.0020321231300234406 -2.0323766110432815e-05 0.0010289193253771847 -0.0014556352064987138 0.00065499391796318104 -0.001340392966116981 -0.00025597406713279418 -0.00068458708511671929 -0.00015737654134032451 0.00041775253816417216 0.00076475172846888508 -0.00031068050922195039 0.00029379202829799261 0.000776317172650514 0.0004596434132768731 2.4642253330289962e-05 0.00042286899600488443 0.00012966682614725351 -0.00072657405893551187 -4.7932411239894127e-06 0.0010829339847313586 0.00012583961323126342 0.00040129097708683863 0.00067692437834921293 -0.00043395730992779134 0.00014709212590442521 -0.00063546910858435911 4.0967427247034561e-05 0.00077619543043437188
leaf_weight=26 22 24 29 23 22 26 23 37 36 28 36 30 31 39 28 28 1322 21 28 20 29295 27 23 28 20 25 29 21 55 37
leaf_count=26 22 24 29 23 22 26 23 37 36 28 36 30 31 39 28 28 1322 21 28 20 29295 27 23 28 20 25 29 21 55 37
internal_value=2.61764e-13 0.000414811 0.000909086 2.38171e-05 -0.000501577 -1.58936e-06 -0.000200445 -0.000378077 -0.000175019 0.000233765 7.62747e-05 -4.01326e-07 0.000247693 2.6097e-05 -1.20078e-06 0.000227943 -1.97129e-06 -0.000448542 2.59106e-05 -0.0002271 -1.29164e-06 5.42477e-05 0.000642671 3.24542e-05 -3.92901e-06 0.000131459 0.000218714 2.5488e-05 -0.000145943 0.000499771
internal_weight=31439 120 53 67 44 31319 186 132 109 54 73 31133 100 70 31033 104 30929 47 76 48 30882 1400 50 1350 29482 187 162 96 76 66
internal_count=31439 120 53 67 44 31319 186 132 109 54 73 31133 100 70 31033 104 30929 47 76 48 30882 1400 50 1350 29482 187 162 96 76 66
is_linear=0
shrinkage=0.05


Tree=5
num_leaves=31
num_cat=0
split_feature=48 93 40 25 52 17 20 26 4 71 76 14 17 62 37 52 35 83 99 78 104 46 58 16 105 57 60 55 4 79
split_gain=0.00748255 0.00890389 0.0157477 0.00465237 0.00267106 0.00545009 0.0190545 0.00631467 0.00798602 0.00529937 0.00397453 0.00222915 0.00413628 0.00236521 0.00201517 0.00197795 0.00416875 0.00438885 0.0033888 0.0107269 0.00280446 0.00163299 0.00648113 0.00410713 0.00153046 0.00397712 0.0015787 0.00144382 0.00139178 0.00136516
threshold=6893.6250000000009 -0.014376438179445998 16345.847859999983 1815.1950000000004 0.034549363904107004 0.005498016830654151 13.500000000000002 597.50414000000012 13.095889000000001 0.0046186776339762507 41.124618392414568 7855.1566651461226 -0.0069011013736242494 136051.8050000002 0.0017829850835585001 0.030276691294072951 -3.5494491112037818 -0.0043215627352569995 -0.053668895719670394 -2.9713179313265647 0.0071482505817970013 209.74995000000004 27.672145120134193 -0.0014733714981458497 0.0028391690367492507 0.49884269691268268 -0.013133633941293799 2.2374410739425348 2.8502750000000003 -0.010361895169589599
decision_type=2 2 2 2 2 2 2 2 2 2 2 2 2 2 2 2 2 2 2 2 2 2 2 2 2 2 2 2 2 2
left_child=4 -2 3 -3 11 7 -7 8 -6 -10 -9 15 -13 14 -14 18 -17 -18 19 -1 -19 22 24 -24 27 26 -26 -20 -28 -30
right_child=1 2 -4 -5 5 6 -8 10 9 -11 -12 12 13 -15 -16 16 17 20 21 -21 -22 -23 23 -25 25 -27 28 -29 29 -31
leaf_value=0.00041438166994166325 0.0010267506347429989 -0.00084660218422429566 0.0010131242935312913 0.00010563715477474034 0.00032277610597601679 0.0001198774712188547 -0.0017127732619764688 1.6954873863141985e-05 -0.00017880090874516303 -0.0012116128163736153 0.0010137659125030042 0.00072651413696197176 0.00050157927024109224 -0.00043475091617438009 -0.00013531165427791523 0.00079450341266541129 -0.00044795978041104817 0.00071568795198497057 -8.4677833069690678e-07 -0.0011049769935198128 -2.714730346471899e-05 -3.7325661929926665e-06 0.0010287872810968784 0.00011954765194905518 0.00038504095460262358 0.0007002365263850572 0.00039685067889737324 -0.00041143408505542377 0.00015418353364214256 -3.7591641536480196e-05
leaf_weight=21 38 29 30 23 36 37 23 20 27 23 20 30 27 20 23 24 29 24 800 26 27 29482 27 23 36 26 26 22 133 307
leaf_count=21 38 29 30 23 36 37 23 20 27 23 20 30 27 20 23 24 29 24 800 26 27 29482 27 23 36 26 26 22 133 307
internal_value=-2.66381e-12 0.00039407 0.000100877 -0.000425419 -1.5099e-06 -0.000190423 -0.000582639 -3.65368e-06 -0.000245056 -0.000653894 0.00051536 -3.81263e-07 0.000235309 2.47922e-05 0.000208609 -1.14074e-06 0.000216546 4.31588e-05 -1.87272e-06 -0.000426115 0.000322422 -1.22706e-06 5.15353e-05 0.000610537 3.08315e-05 9.72567e-05 6.60266e-05 -1.18357e-05 4.13817e-05 2.03768e-05
internal_weight=31439 120 82 52 31319 186 60 126 86 50 40 31133 100 70 50 31033 104 80 30929 47 51 30882 1400 50 1350 528 502 822 466 440
internal_count=31439 120 82 52 31319 186 60 126 86 50 40 31133 100 70 50 31033 104 80 30929 47 51 30882 1400 50 1350 528 502 822 466 440
is_linear=0
shrinkage=0.05


Tree=6
num_leaves=31
num_cat=0
split_feature=48 83 83 27 4 52 16 11 104 51 26 71 8 40 60 78 30 99 53 93 57 8 35 20 80 53 31 93 52 59
split_gain=0.006753 0.00845141 0.00771362 0.00970899 0.00899926 0.00241063 0.00522576 0.00588168 0.00558113 0.00660025 0.00549789 0.00262476 0.0021005 0.0054363 0.00478144 0.0028266 0.00212064 0.00208124 0.00519642 0.00177723 0.00173655 0.00421012 0.00270705 0.00265957 0.00262708 0.00256498 0.00232146 0.0022987 0.00295432 0.00332022
threshold=6893.6250000000009 -0.021879460955105848 0.00099367395910540017 0.0014451153044655002 43.493290500000008 0.034549363904107004 -0.012604059356180549 421.83900238559369 0.0060904309409105005 267.50011071428577 814.77525500000013 0.0061716569667853013 0.016056883575903656 26097.259919999855 -0.022841270729036647 -1.4366199354921283 0.012465731584256002 -0.053668895719670394 -1.6815089383041102 0.0054045238355313009 -3.1461137719045054 0.011086726022098951 -19.34035636891506 10.500000000000002 6.6389546041088545 -1.4669973659120108 -2.1588984761198908 -0.026005405288779346 0.014766654270730052 -0.0079401146839058485
decision_type=2 2 2 2 2 2 2 2 2 2 2 2 2 2 2 2 2 2 2 2 2 2 2 2 2 2 2 2 2 2
left_child=5 -2 4 -4 -3 12 -7 8 9 -8 11 -10 17 14 -14 19 -17 18 -1 -16 21 22 23 26 -23 -24 -19 28 -22 -30
right_child=1 2 3 -5 -6 6 7 -9 10 -11 -12 -13 13 -15 15 16 -18 20 -20 -21 27 24 25 -25 -26 -27 -28 -29 29 -31
leaf_value=-0.00066490215301597249 0.0011923339322675022 -0.0010073384991340826 0.0012832781631732359 -0.00011020583566278218 0.00040716595791640106 -0.00079755245904630898 0.0010033114383426996 -0.00084580665127196837 -0.00018995467415572001 -1.9994759277324192e-05 0.00044287184602580964 -0.00091507127053773733 0.00073948944136645886 -0.00051443291656941064 0.00019300184597644451 0.00046876102870587128 2.2964609878899128e-05 -0.00011334948752914057 0.00016814409581355802 0.00083118761118385022 -4.4258167173697163e-05 4.4749849403160629e-05 0.00044030868678951186 0.00010520489754319649 0.00075600938033784518 -2.2209759808374922e-05 -0.00079692988270519153 -9.5859484535200154e-07 0.00011610098855453543 -0.00056049923567281276
leaf_weight=39 25 23 25 25 22 29 26 21 26 40 20 24 32 33 24 29 333 27 36 20 264 20 53 44 37 69 23 29959 25 66
leaf_count=39 25 23 25 25 22 29 26 21 26 40 20 24 32 33 24 29 333 27 36 20 264 20 53 44 37 69 23 29959 25 66
internal_value=1.04795e-12 0.000374367 0.000159112 0.000586536 -0.000315803 -1.4344e-06 -0.000180902 -6.69983e-05 5.32589e-05 0.000383126 -0.000257759 -0.000538011 -3.62196e-07 0.000104426 0.000151052 0.000104673 5.86776e-05 -1.97184e-06 -0.00026504 0.000483086 -1.3268e-06 0.000124214 2.33476e-05 -0.000178306 0.000506445 0.00017872 -0.000427796 -2.45738e-06 -0.000128942 -0.00037462
internal_weight=31439 120 95 50 45 31319 186 157 136 66 70 50 31133 471 438 406 362 30662 75 44 30587 273 216 94 57 122 50 30314 355 91
internal_count=31439 120 95 50 45 31319 186 157 136 66 70 50 31133 471 438 406 362 30662 75 44 30587 273 216 94 57 122 50 30314 355 91
is_linear=0
shrinkage=0.05


Tree=7
num_leaves=31
num_cat=0
split_feature=48 105 53 105 10 52 61 16 35 17 80 38 84 80 49 36 81 26 54 35 26 17 77 54 103 29 89 16 38 83
split_gain=0.00609458 0.00801689 0.00936183 0.00424097 0.00430636 0.0021756 0.00504113 0.00913796 0.00727597 0.00669444 0.0035976 0.00352493 0.00202045 0.00344619 0.00312024 0.00246738 0.00292702 0.00221407 0.0020737 0.00613766 0.00294283 0.00316677 0.00269062 0.00250214 0.00234855 0.00448632 0.0024865 0.00197439 0.00191329 0.00186429
threshold=6893.6250000000009 -0.013858873175414498 1.7382510414742698 -0.00063563363904324988 45.913931955886042 0.034549363904107004 -0.014608156565832498 -0.012604059356180549 1.8371283774437035 0.005498016830654151 2.7382406546415727 -0.0009728112449265998 605222.87499999965 7.18522372924535 -0.030196324616951098 188.30508210490942 -0.0082900396784564984 300.41765000000004 65.736883180091567 -3.8874574804965523 98.896350000000012 -0.0014733714981458497 0.14195000335729088 72.826830277282383 0.00057047091719325007 1704.9157142857146 1.2115350000000003 -0.0064992556841571491 -8.8288869067587581e-05 -0.0040142709253904989
decision_type=2 2 2 2 2 2 2 2 2 2 2 2 2 2 2 2 2 2 2 2 2 2 2 2 2 2 2 2 2 2
left_child=5 -2 3 -3 -5 12 11 -8 9 -9 -10 -7 13 14 -1 18 27 28 -16 -20 24 22 -22 -23 -21 -26 -27 -17 -18 -25
right_child=1 2 -4 4 -6 6 7 8 10 -11 -12 -13 -14 -15 15 16 17 -19 19 20 21 23 -24 29 25 26 -28 -29 -30 -31
leaf_value=0.00045374836732993244 0.0011141247690829915 -5.1588615707050152e-05 -0.00066985773670379654 0.00026465390193542202 0.001289816245844122 0.00072232355742016816 -0.0013228148873895406 -7.6543781123573676e-05 0.00074462161726495703 -0.0012054571278895311 -7.0835602481996552e-05 -9.9835710716433834e-05 -4.064282986487155e-06 0.00056709722933104083 2.5008043540527475e-05 -0.00075151516436259658 0.0001149386089630699 0.0001668746521997721 0.00096755941227787525 8.0266821560843926e-05 3.8617928480930832e-05 2.5041810166137885e-05 0.00075842791527975357 -7.5498054913781667e-05 -6.3089724360245537e-05 0.0012200606416445225 0.00043162861984455961 -0.0002048920841123206 -0.0003589809513773377 -0.00066962498704895316
leaf_weight=44 27 26 26 21 20 22 20 29 21 24 38 32 28686 31 1774 24 34 91 22 65 37 79 20 23 22 20 20 53 57 31
leaf_count=44 27 26 26 21 20 22 20 29 21 24 38 32 28686 31 1774 24 34 91 22 65 37 79 20 23 22 20 20 53 57 31
internal_value=-1.51623e-12 0.000355649 0.000135446 0.000447952 0.000764733 -1.36268e-06 -0.000171857 -0.000338346 -0.000162549 -0.00058775 0.000219412 0.000235118 -3.44088e-07 4.32675e-05 3.65462e-05 2.88072e-05 -0.00011685 -7.51873e-06 4.6661e-05 0.000159972 0.000103924 -2.06269e-05 0.000291183 -0.00015426 0.000290261 0.000510416 0.000825845 -0.000375268 -0.000181912 -0.000416571
internal_weight=31439 120 93 67 41 31319 186 132 112 53 59 54 31133 2447 2416 2372 259 182 2113 339 317 190 57 133 127 62 40 77 91 54
internal_count=31439 120 93 67 41 31319 186 132 112 53 59 54 31133 2447 2416 2372 259 182 2113 339 317 190 57 133 127 62 40 77 91 54
is_linear=0
shrinkage=0.05


Tree=8
num_leaves=31
num_cat=0
split_feature=48 58 39 60 25 48 39 96 16 61 14 38 102 83 92 14 59 14 99 52 20 17 35 5 38 79 93 14 37 48
split_gain=0.00550036 0.00773131 0.0191589 0.0128275 0.0102051 0.00196883 0.00592772 0.012581 0.00449892 0.00210376 0.00656155 0.00535977 0.00642939 0.00545633 0.00302208 0.00278738 0.00256422 0.00252782 0.00316158 0.00219633 0.00544877 0.00974637 0.00329822 0.00220789 0.00250134 0.00307696 0.00186489 0.00261495 0.00176725 0.00249293
threshold=6893.6250000000009 58.17747514909707 -0.0018704514028056998 0.015343697148708953 1732.4950000000001 4651.1200000000008 -0.00036955437101309998 0.025642544146118804 -0.0010129816250797497 -0.020883146194327195 6951.3340265393936 0.0078180581345634517 0.1993101596690772 0.00022931017888755002 1031700.7000000001 1968.5055295900677 -0.006131377591042049 4685.0754551539549 -0.018410406610184796 0.034549363904107004 13.500000000000002 0.0035284014893733006 1.8371283774437035 0.014387216339185452 -0.018194447795563548 -0.032620179362663343 0.0074456998924905008 2764.3033098297533 0.0074179577304316008 682.15500000000009
decision_type=2 2 2 2 2 2 2 2 2 2 2 2 2 2 2 2 2 2 2 2 2 2 2 2 2 2 2 2 2 2
left_child=5 3 -3 4 -2 9 7 -7 -8 10 11 13 15 14 16 -13 26 18 -18 23 22 -22 -21 -11 25 -25 27 -1 29 -20
right_child=1 2 -4 -5 -6 6 8 -9 -10 19 -12 12 -14 -15 -16 -17 17 -19 28 20 21 -23 -24 24 -26 -27 -28 -29 -30 -31
leaf_value=0.00017852438805059665 0.00027762526920663993 0.0018340892575603601 -7.571184602244918e-05 0.00093781726063753019 -0.0012468911358155311 -3.848361905114964e-05 0.000608138855438613 -0.0015809167874976993 -0.00024771914309787787 -3.4585069122185892e-06 0.00079054424095375002 -0.00052076500905968721 -0.00090962803957087023 0.00081841426074658703 0.00061428249275956249 9.1042780345067372e-05 0.0004420024147736676 -0.00053043277730466796 -4.0043450699447445e-05 -0.00032195102815829412 5.5712884362867989e-05 -0.0014341429541153568 0.00040389022307114349 4.522677521560003e-05 6.372689816250305e-05 0.00089137061842761581 -7.3228017837126657e-05 0.00089129094478928239 0.00019754809941837769 -0.00056162402823117319
leaf_weight=31 21 24 29 23 23 39 28 20 34 29882 32 24 27 28 26 83 39 22 126 29 23 21 34 22 602 21 22 22 54 28
leaf_count=31 21 24 29 23 23 39 28 20 34 29882 32 24 27 28 26 83 39 22 126 29 23 21 34 22 602 21 22 22 54 28
internal_value=-9.47378e-13 0.000337866 0.000789104 -1.90831e-05 -0.000519281 -1.29455e-06 -0.000202593 -0.000561342 0.000138797 -5.13821e-07 9.51763e-05 5.33497e-05 -0.000220162 0.000145437 9.45087e-05 -4.61851e-05 5.52234e-05 -1.68579e-05 2.88856e-05 -2.27556e-06 -0.00022841 -0.000655355 6.97728e-05 -1.48294e-06 9.00424e-05 0.00045846 0.000313755 0.00047439 -4.85738e-05 -0.000134876
internal_weight=31439 120 53 67 44 31319 121 59 62 31198 564 532 134 398 370 107 344 269 247 30634 107 44 63 30527 645 43 75 53 208 154
internal_count=31439 120 53 67 44 31319 121 59 62 31198 564 532 134 398 370 107 344 269 247 30634 107 44 63 30527 645 43 75 53 208 154
is_linear=0
shrinkage=0.05


Tree=9
num_leaves=31
num_cat=0
split_feature=48 93 40 71 46 58 16 48 96 82 27 105 53 98 48 101 60 57 27 10 92 76 103 81 13 81 27 78 35 20
split_gain=0.00496408 0.00722822 0.013748 0.00404846 0.00189513 0.00574987 0.00426518 0.00391959 0.00519549 0.00382073 0.00218407 0.00227403 0.0117787 0.00255782 0.0022529 0.00191349 0.00219468 0.00166486 0.00481318 0.00289901 0.00271861 0.00606638 0.0021543 0.00536036 0.00205679 0.00176066 0.00170937 0.0016452 0.00164099 0.00277578
threshold=6893.6250000000009 -0.014376438179445998 16345.847859999983 0.010543335941780101 209.74995000000004 27.672145120134193 -0.0014733714981458497 4651.1200000000008 0.028338402971146953 0.0041807394900479009 0.034674853166799358 0.028116929367948153 -1.5331185419648896 43.362543261532373 1637.6350000000002 -0.00046158386408179998 0.019077894873313853 -2.5189146602796306 -0.016825604209860848 25.004708536518137 1300869.8500000003 35.650643500836765 0.025277074851496203 0.035401260689108156 152.00140320327981 -0.012199751092477298 -0.0082102994286516982 0.32352156821692463 -19.34035636891506 3.5000000000000004
decision_type=2 2 2 2 2 2 2 2 2 2 2 2 2 2 2 2 2 2 2 2 2 2 2 2 2 2 2 2 2 2
left_child=4 -2 3 -3 5 27 -7 10 9 -9 11 17 -13 -14 -12 -15 -17 18 19 -6 -19 -22 23 28 26 -21 -23 -1 29 -20
right_child=1 2 -4 -5 7 6 -8 8 -10 -11 14 12 13 15 -16 16 -18 20 22 25 21 24 -24 -25 -26 -27 -28 -29 -30 -31
leaf_value=2.5396593493544774e-05 0.00089101902849506595 -5.7140039377069732e-05 0.00090916568549194692 -0.00095012546622787013 0.00089216764440957033 0.00089881761566229068 0.00011251490858350216 0.00029671172042071707 -0.00089994324620680088 -0.00051091823796148804 9.1091384992824268e-05 -0.001175448879308533 0.0004258553404584886 -0.00047713442432597794 0.00067447986657498404 -7.842452178470774e-06 -0.00050780444847381054 -2.7480792066339171e-06 -0.00059709504127132952 0.00056646582204848532 -0.0009710364899744848 -0.00059142949758097532 0.00050971427369652462 -0.00077666715688316063 0.00034489898636188036 -7.4984944481200171e-05 -5.1642121490493248e-05 0.00046125176719545965 0.00011596980524344893 2.1264150381442554e-06
leaf_weight=1364 38 30 30 22 26 34 35 32 28 27 59 25 26 29 23 257 24 28691 23 20 23 20 22 21 23 23 55 22 266 121
leaf_count=1364 38 30 30 22 26 34 35 32 28 27 59 25 26 29 23 257 24 28691 23 20 23 20 22 21 23 23 55 22 266 121
internal_value=-1.8688e-12 0.000320973 5.6805e-05 -0.000434942 -1.22982e-06 5.44923e-05 0.000499968 -3.94465e-06 -0.000339062 -7.28817e-05 -2.96553e-06 -3.67712e-06 -0.000128404 -5.04984e-05 0.000254725 -9.04507e-05 -5.05438e-05 -2.14217e-06 8.6354e-05 0.000475377 -3.7455e-06 -0.000240249 2.70989e-05 2.4642e-06 -6.8737e-05 0.000223364 -0.000195585 3.23149e-05 4.23709e-05 -9.35826e-05
internal_weight=31439 120 82 52 31319 1455 69 29864 87 59 29777 29695 361 336 82 310 281 29334 522 69 28812 121 453 431 98 43 75 1386 410 144
internal_count=31439 120 82 52 31319 1455 69 29864 87 59 29777 29695 361 336 82 310 281 29334 522 69 28812 121 453 431 98 43 75 1386 410 144
is_linear=0
shrinkage=0.05


Tree=10
num_leaves=31
num_cat=0
split_feature=48 58 39 83 62 46 58 16 48 96 82 27 53 105 53 98 57 13 32 52 55 82 8 82 96 59 75 84 105 47
split_gain=0.00448008 0.00692712 0.0171488 0.0121879 0.0132298 0.00171035 0.00518925 0.00384933 0.00353743 0.00468893 0.00344821 0.00197113 0.00209188 0.00205231 0.0106303 0.00230843 0.0017974 0.00157321 0.00371731 0.00214449 0.00176426 0.0051358 0.00247523 0.0018337 0.00176822 0.0019495 0.00272238 0.00187098 0.00679249 0.00179927
threshold=6893.6250000000009 58.17747514909707 -0.0018704514028056998 0.0013441689615090503 105774.69300000017 209.74995000000004 27.672145120134193 -0.0014733714981458497 4651.1200000000008 0.028338402971146953 0.0041807394900479009 0.034674853166799358 -0.54586382360554309 0.028116929367948153 -1.5331185419648896 43.362543261532373 -0.65392038144401476 358.36364092360748 62.644459876663369 0.040959846254747606 -16.618128623811398 -0.015605479490537448 0.022810840346870153 0.0070121459337424011 0.038934470178399259 0.030374334961076953 1.3348909799967352 403484.45000000001 0.0041302411383436514 372.06995000000001
decision_type=2 2 2 2 2 2 2 2 2 2 2 2 2 2 2 2 2 2 2 2 2 2 2 2 2 2 2 2 2 2
left_child=5 3 -3 4 -2 6 -1 -8 11 10 -10 13 -13 17 -15 -16 -17 19 -19 20 21 -7 24 -23 25 27 29 28 -22 -27
right_child=1 2 -4 -5 -6 8 7 -9 9 -11 -12 12 -14 14 15 16 -18 18 -20 -21 22 23 -24 -25 -26 26 -28 -29 -30 -31
leaf_value=3.0699182019597195e-05 0.00034648274783897001 0.0017206984122822178 -8.6142746370349981e-05 0.00089978681138271229 -0.0013875201228074731 0.00074468696787638087 0.0008538767275989385 0.00010688916547223926 0.00028187613429508929 -0.00085494610040249034 -0.00048537233260167008 0.00068663263620692304 9.855491448580588e-05 -0.0011166764311929002 0.00040456257702317091 -0.00054438213905086744 -5.4310637105400331e-05 0.00061800545450806218 -0.00012694114908192526 -0.00043995528120441513 -0.00015403658671857558 -0.00042686941477851098 -0.0005454203802357716 0.00023463473160518337 0.00043584169926243313 -0.00057208203219084278 0.00017988445538459489 -2.4486439228290636e-06 0.0010205804056022316 -0.00011119828515802511
leaf_weight=1386 22 24 29 23 22 30 34 35 32 28 27 20 62 25 26 20 290 33 34 28 32 22 21 20 23 45 33 28953 20 40
leaf_count=1386 22 24 29 23 22 30 34 35 32 28 27 20 62 25 26 20 290 33 34 28 32 22 21 20 23 45 33 28953 20 40
internal_value=-4.51963e-13 0.000304924 0.000732049 -3.29511e-05 -0.000520519 -1.16833e-06 5.17677e-05 0.00047497 -3.74742e-06 -0.000322109 -6.92376e-05 -2.81725e-06 0.000241989 -3.49326e-06 -0.000121983 -4.79735e-05 -8.59282e-05 -2.03506e-06 0.000239973 -2.58908e-06 -2.17025e-06 0.00024503 -2.78047e-06 -0.000111867 -2.3895e-06 -2.73559e-06 -0.000205555 -1.91047e-06 0.000297739 -0.000355196
internal_weight=31439 120 53 67 44 31319 1455 69 29864 87 59 29777 82 29695 361 336 310 29334 67 29267 29239 72 29167 42 29146 29123 118 29005 52 85
internal_count=31439 120 53 67 44 31319 1455 69 29864 87 59 29777 82 29695 361 336 310 29334 67 29267 29239 72 29167 42 29146 29123 118 29005 52 85
is_linear=0
shrinkage=0.05


end of trees

feature_importances:
BNBUSDT_volume=17
BNBUSDT_volatility_30=13
BTCUSDT_return_lag2=10
BTCUSDT_return_lag3=10
SOLUSDT_return_lag3=10
BTCUSDT_bb_width=9
ETHUSDT_return=9
BNBUSDT_bb_width=9
ETHUSDT_macd_diff=8
ETHUSDT_return_lag2=8
BNBUSDT_zscore_30=8
SOLUSDT_return_lag1=8
BTCUSDT_volatility_30=7
SOLUSDT_obv=7
ADAUSDT_return=7
ADAUSDT_return_lag1=7
ADAUSDT_return_lag3=7
BTCUSDT_volume=6
BTCUSDT_hour=6
ETHUSDT_obv=6
BNBUSDT_return_lag1=6
BNBUSDT_return_lag2=6
BNBUSDT_return_lag3=6
SOLUSDT_macd_signal=6
ADAUSDT_macd=6
ETHUSDT_return_lag3=5
BNBUSDT_ma_14=5
BNBUSDT_rsi_14=5
BNBUSDT_macd_diff=5
SOLUSDT_bb_width=5
SOLUSDT_return_lag2=5
ETHUSDT_volume=4
BNBUSDT_low=4
BNBUSDT_return=4
BNBUSDT_macd=4
BNBUSDT_obv=4
SOLUSDT_macd_diff=4
ADAUSDT_volatility_30=4
BTCUSDT_ma_14=3
BTCUSDT_zscore_30=3
BTCUSDT_rsi_14=3
BTCUSDT_macd_diff=3
BTCUSDT_obv=3
ETHUSDT_return_lag1=3
SOLUSDT_return=3
SOLUSDT_volatility_30=3
ADAUSDT_macd_diff=3
BTCUSDT_open=2
BTCUSDT_return=2
BTCUSDT_macd_signal=2
ETHUSDT_close=2
BNBUSDT_high=2
BNBUSDT_close=2
SOLUSDT_ma_14=2
SOLUSDT_rsi_14=2
ADAUSDT_high=2
ADAUSDT_volume=2
ADAUSDT_ma_14=2
ADAUSDT_rsi_14=2
ADAUSDT_bb_width=2
ADAUSDT_return_lag2=2
ADAUSDT_obv=2
BTCUSDT_macd=1
BTCUSDT_return_lag1=1
BTCUSDT_vwap=1
BTCUSDT_day_of_week=1
ETHUSDT_ma_14=1
ETHUSDT_volatility_30=1
ETHUSDT_zscore_30=1
ETHUSDT_rsi_14=1
ETHUSDT_bb_width=1
BNBUSDT_macd_signal=1
SOLUSDT_zscore_30=1
SOLUSDT_macd=1
ADAUSDT_open=1

parameters:
[boosting: gbdt]
[objective: regression]
[metric: l2]
[tree_learner: serial]
[device_type: cpu]
[data_sample_strategy: bagging]
[data: ]
[valid: ]
[num_iterations: 1000]
[learning_rate: 0.05]
[num_leaves: 31]
[num_threads: 8]
[seed: 0]
[deterministic: 0]
[force_col_wise: 0]
[force_row_wise: 0]
[histogram_pool_size: -1]
[max_depth: -1]
[min_data_in_leaf: 20]
[min_sum_hessian_in_leaf: 0.001]
[bagging_fraction: 1]
[pos_bagging_fraction: 1]
[neg_bagging_fraction: 1]
[bagging_freq: 0]
[bagging_seed: 3]
[bagging_by_query: 0]
[feature_fraction: 1]
[feature_fraction_bynode: 1]
[feature_fraction_seed: 2]
[extra_trees: 0]
[extra_seed: 6]
[early_stopping_round: 0]
[early_stopping_min_delta: 0]
[first_metric_only: 0]
[max_delta_step: 0]
[lambda_l1: 0]
[lambda_l2: 0]
[linear_lambda: 0]
[min_gain_to_split: 0]
[drop_rate: 0.1]
[max_drop: 50]
[skip_drop: 0.5]
[xgboost_dart_mode: 0]
[uniform_drop: 0]
[drop_seed: 4]
[top_rate: 0.2]
[other_rate: 0.1]
[min_data_per_group: 100]
[max_cat_threshold: 32]
[cat_l2: 10]
[cat_smooth: 10]
[max_cat_to_onehot: 4]
[top_k: 20]
[monotone_constraints: ]
[monotone_constraints_method: basic]
[monotone_penalty: 0]
[feature_contri: ]
[forcedsplits_filename: ]
[refit_decay_rate: 0.9]
[cegb_tradeoff: 1]
[cegb_penalty_split: 0]
[cegb_penalty_feature_lazy: ]
[cegb_penalty_feature_coupled: ]
[path_smooth: 0]
[interaction_constraints: ]
[verbosity: -1]
[saved_feature_importance_type: 0]
[use_quantized_grad: 0]
[num_grad_quant_bins: 4]
[quant_train_renew_leaf: 0]
[stochastic_rounding: 1]
[linear_tree: 0]
[max_bin: 255]
[max_bin_by_feature: ]
[min_data_in_bin: 3]
[bin_construct_sample_cnt: 200000]
[data_random_seed: 1]
[is_enable_sparse: 1]
[enable_bundle: 1]
[use_missing: 1]
[zero_as_missing: 0]
[feature_pre_filter: 1]
[pre_partition: 0]
[two_round: 0]
[header: 0]
[label_column: ]
[weight_column: ]
[group_column: ]
[ignore_column: ]
[categorical_feature: ]
[forcedbins_filename: ]
[precise_float_parser: 0]
[parser_config_file: ]
[objective_seed: 5]
[num_class: 1]
[is_unbalance: 0]
[scale_pos_weight: 1]
[sigmoid: 1]
[boost_from_average: 1]
[reg_sqrt: 0]
[alpha: 0.9]
[fair_c: 1]
[poisson_max_delta_step: 0.7]
[tweedie_variance_power: 1.5]
[lambdarank_truncation_level: 30]
[lambdarank_norm: 1]
[label_gain: ]
[lambdarank_position_bias_regularization: 0]
[eval_at: ]
[multi_error_top_k: 1]
[auc_mu_weights: ]
[num_machines: 1]
[local_listen_port: 12400]
[time_out: 120]
[machine_list_filename: ]
[machines: ]
[gpu_platform_id: -1]
[gpu_device_id: -1]
[gpu_use_dp: 0]
[num_gpu: 1]

end of parameters

pandas_categorical:[]
