tree
version=v4
num_class=1
num_tree_per_iteration=1
label_index=0
max_feature_idx=109
objective=regression
feature_names=BTCUSDT_open BTCUSDT_high BTCUSDT_low BTCUSDT_close BTCUSDT_volume BTCUSDT_return BTCUSDT_ma_7 BTCUSDT_ma_14 BTCUSDT_volatility_30 BTCUSDT_zscore_30 BTCUSDT_rsi_14 BTCUSDT_macd BTCUSDT_macd_signal BTCUSDT_macd_diff BTCUSDT_bb_width BTCUSDT_return_lag1 BTCUSDT_return_lag2 BTCUSDT_return_lag3 BTCUSDT_obv BTCUSDT_vwap BTCUSDT_hour BTCUSDT_day_of_week ETHUSDT_open ETHUSDT_high ETHUSDT_low ETHUSDT_close ETHUSDT_volume ETHUSDT_return ETHUSDT_ma_7 ETHUSDT_ma_14 ETHUSDT_volatility_30 ETHUSDT_zscore_30 ETHUSDT_rsi_14 ETHUSDT_macd ETHUSDT_macd_signal ETHUSDT_macd_diff ETHUSDT_bb_width ETHUSDT_return_lag1 ETHUSDT_return_lag2 ETHUSDT_return_lag3 ETHUSDT_obv ETHUSDT_vwap ETHUSDT_hour ETHUSDT_day_of_week BNBUSDT_open BNBUSDT_high BNBUSDT_low BNBUSDT_close BNBUSDT_volume BNBUSDT_return BNBUSDT_ma_7 BNBUSDT_ma_14 BNBUSDT_volatility_30 BNBUSDT_zscore_30 BNBUSDT_rsi_14 BNBUSDT_macd BNBUSDT_macd_signal BNBUSDT_macd_diff BNBUSDT_bb_width BNBUSDT_return_lag1 BNBUSDT_return_lag2 BNBUSDT_return_lag3 BNBUSDT_obv BNBUSDT_vwap BNBUSDT_hour BNBUSDT_day_of_week SOLUSDT_open SOLUSDT_high SOLUSDT_low SOLUSDT_close SOLUSDT_volume SOLUSDT_return SOLUSDT_ma_7 SOLUSDT_ma_14 SOLUSDT_volatility_30 SOLUSDT_zscore_30 SOLUSDT_rsi_14 SOLUSDT_macd SOLUSDT_macd_signal SOLUSDT_macd_diff SOLUSDT_bb_width SOLUSDT_return_lag1 SOLUSDT_return_lag2 SOLUSDT_return_lag3 SOLUSDT_obv SOLUSDT_vwap SOLUSDT_hour SOLUSDT_day_of_week ADAUSDT_open ADAUSDT_high ADAUSDT_low ADAUSDT_close ADAUSDT_volume ADAUSDT_return ADAUSDT_ma_7 ADAUSDT_ma_14 ADAUSDT_volatility_30 ADAUSDT_zscore_30 ADAUSDT_rsi_14 ADAUSDT_macd ADAUSDT_macd_signal ADAUSDT_macd_diff ADAUSDT_bb_width ADAUSDT_return_lag1 ADAUSDT_return_lag2 ADAUSDT_return_lag3 ADAUSDT_obv ADAUSDT_vwap ADAUSDT_hour ADAUSDT_day_of_week
feature_infos=[15653.629999999999:73485.350000000006] [15769.129999999999:138070] [15486.74:73190.059999999998] [15650.780000000001:73487.75] [0.0062899999999999996:2004.507026] [-0.088984363954880102:0.12647227743408199] [15746.204285714284:73248.855714285717] [15776.579285714286:73137.041428571421] [0.00045176674564959999:0.031704297236320199] [-4.9574363728022153:5.1229199971338515] [6.9396334198231466:92.257629126889839] [-2362.0006814277003:1885.7769492287844] [-2076.9435269365058:1744.1282079115281] [-769.48175018780307:620.07253336935992] [27.515931025605823:12363.101406971064] [-0.088984363954880102:0.12647227743408199] [-0.088984363954880102:0.12647227743408199] [-0.088984363954880102:0.12647227743408199] [-11506.304408999988:7017.7553420000113] [15661.963333333331:73387.963333333333] [0:23] [0:6] [756.89999999999998:4847.8999999999996] [770.86000000000001:4866.21] [753.33000000000004:4833.4200000000001] [758.05999999999995:4847.1899999999996] [0.001:7326.6536299999998] [-0.12719551217290029:0.094002020933823899] [755.33285714285716:4809.9157142857148] [743.64357142857148:4800.5828571428574] [0.00059711734622270001:0.046989806092610498] [-5.0545098927804659:4.9953448709540851] [6.688876919484998:92.93296433649914] [-208.18001478115957:160.47413576206918] [-180.02831148424522:138.3849536064611] [-63.794083102911515:62.417840226593725] [3.9261890784041498:1219.8968042831066] [-0.12719551217290029:0.094002020933823899] [-0.12719551217290029:0.094002020933823899] [-0.12719551217290029:0.094002020933823899] [-39135.212030000068:43392.60878999994] [764.32999999999993:4848.1833333333334] [0:23] [0:6] [35.830599999999997:715.29999999999995] [36.936199999999999:718] [35.128599999999999:712] [35.876100000000001:716.5] [0:28223.029999999999] [-0.15497182872278109:0.148803116353352] [36.799485714285709:708.8142857142858] [37.305485714285709:706.9357142857142] [0.0010044699451932:0.055095139246621398] [-4.8195702148064239:5.0789682954218947] [5.784911496967732:90.548777354540434] [-38.292331959744843:31.428153633248257] [-32.805920657275514:29.491735402306148] [-10.452869510242271:10.102249182375424] [0.81853524038814385:216.35352670686152] [-0.15497182872278109:0.148803116353352] [-0.15497182872278109:0.148803116353352] [-0.15497182872278109:0.148803116353352] [-20548.710000000006:212017.65999999992] [35.9803:714.16666666666663] [0:23] [0:6] [1.7703:258.4957] [1.8008999999999999:259.78059999999999] [1.7563:256.25920000000002] [1.7672000000000001:258.41719999999998] [0:200450.59] [-0.19658150290712351:0.16907199870998929] [1.7801714285714283:254.92082857142856] [1.7864214285714286:254.53961428571429] [0.0017835317236526:0.070387092270766699] [-4.8076739166688904:4.9348531529941475] [11.010264929428974:92.717632190267722] [-9.6087009564494128:11.117015206250926] [-8.6940596202619549:9.6998289035006646] [-3.8051688064294424:4.1091792130482574] [0.095086308163031305:78.21132414719176] [-0.19658150290712351:0.16907199870998929] [-0.19658150290712351:0.16907199870998929] [-0.19658150290712351:0.16907199870998929] [-56466.499999999971:3455991.4299999992] [1.7826333333333333:257.91026666666664] [0:23] [0:6] [0.17421:3.0922000000000001] [0.17551:3.0994100000000002] [0.10367999999999999:3.0480499999999999] [0.17427999999999999:3.0913200000000001] [0:6658786.7000000002] [-0.21355949265149979:0.1585230221694966] [0.17522571428571429:3.0485171428571434] [0.1754478571428571:3.0289757142857141] [0.0015405479878558999:0.069407988131880094] [-4.8698994737722217:4.890549018424438] [9.0393185572181594:95.365928680777316] [-0.14326550474172081:0.10023121021293591] [-0.1136119205604473:0.091107680546505906] [-0.043526228000122999:0.047391835716030499] [0.0013059865158724:0.82178267496706159] [-0.21355949265149979:0.1585230221694966] [-0.21355949265149979:0.1585230221694966] [-0.21355949265149979:0.1585230221694966] [-608476.50000000012:70946059.699999899] [0.1746566666666666:3.0727566666666668] [0:23] [0:6]
tree_sizes=3031 3012 3029 3037

Tree=0
num_leaves=31
num_cat=0
split_feature=22 84 71 81 30 59 100 103 30 17 8 72 74 81 39 15 93 46 15 68 49 81 59 79 59 100 58 48 0 49
split_gain=0.00804795 0.00489377 0.0034276 0.0052491 0.0041007 0.00267196 0.00600769 0.0028346 0.00487603 0.00222714 0.00628117 0.00535962 0.00207357 0.00871506 0.00475274 0.00169815 0.00163192 0.00304075 0.00386521 0.00188156 0.00185846 0.00382765 0.00269102 0.00252083 0.00191997 0.00256562 0.00190394 0.00188598 0.00156569 0.0015614
threshold=1038.5600000000002 2953591.0250000004 0.024512802713744754 -0.0026946352552192497 0.015561280295288303 -0.039715464700439594 -0.029245387474971945 -0.042651287591984798 0.015277475693965701 0.022349893104522556 0.012917824413340502 40.819057142857154 0.053933641797790158 -0.0030274361599270496 -0.0068436241542277993 -0.0026484796751673994 -0.042651287591984798 217.75605000000002 -0.0071286406085637492 35.589000000000006 -0.014611408562166098 0.035401260689108156 -0.030196324616951098 -0.12907783710438472 -0.025747070233889297 -0.018677909010656146 3.8675650268403392 771.8850000000001 41244.81500000001 0.0038421373161158004
decision_type=2 2 2 2 2 2 2 2 2 2 2 2 2 2 2 2 2 2 2 2 2 2 2 2 2 2 2 2 2 2
left_child=1 2 3 -1 -5 6 -2 8 29 12 -11 15 16 -14 -15 -12 17 -9 -19 -20 21 24 23 -22 -18 27 -27 -26 -29 -7
right_child=5 -3 -4 4 -6 7 -8 9 -10 10 11 -13 13 14 -16 -17 20 18 19 -21 22 -23 -24 -25 25 26 -28 28 -30 -31
leaf_value=0.00025724435095797644 0.0010132025077151884 -0.0001208537534907884 0.00012187040640551639 0.00062039714341143742 0.001568156950512262 -0.00027229215080314725 0.00013143665836954719 0.00082387488904531474 -0.00090944179579493254 0.00011731205703604595 0.00019561192677245828 -0.0010772812950945215 -0.00029124998881157867 0.0012919781537033613 0.00034548279055665338 -0.00036416470679936398 -0.00035758680434538719 0.00062389952458322161 0.00020908756177412697 -0.00038282383549306228 0.00072812262531259456 -0.00048769136995974953 7.2016532072230862e-05 0.00012802366987487885 0.00054902338009741041 0.0004505787417880601 -8.7514735356840107e-07 -0.0002515176932338497 0.00035337386407396806 0.00031690239015060251
leaf_weight=27 24 27 24 21 25 22 99 20 20 143 20 23 37 21 36 42 32 27 25 29 30 38 29587 42 40 24 868 20 23 23
leaf_count=27 24 27 24 21 25 22 99 20 20 143 20 23 37 21 36 42 32 27 25 29 30 38 29587 42 40 24 868 20 23 23
internal_value=7.24974e-05 0.000474514 0.000640235 0.000810656 0.00113548 7.09055e-05 0.000303489 6.99884e-05 -0.000259854 7.06771e-05 -8.50198e-05 -0.000425414 7.1826e-05 0.000306305 0.000694192 -0.000183592 7.11105e-05 0.000271763 0.000135439 -0.000108791 7.04505e-05 4.91616e-06 7.27595e-05 0.000378065 2.35051e-05 3.60128e-05 1.12716e-05 0.000301906 7.2029e-05 2.88517e-05
internal_weight=31439 124 97 73 46 31315 123 31192 65 31127 228 85 30899 94 57 62 30805 101 81 54 30704 1045 29659 72 1007 975 892 83 43 45
internal_count=31439 124 97 73 46 31315 123 31192 65 31127 228 85 30899 94 57 62 30805 101 81 54 30704 1045 29659 72 1007 975 892 83 43 45
is_linear=0
shrinkage=1


Tree=1
num_leaves=31
num_cat=0
split_feature=22 84 58 13 70 48 54 26 17 74 72 26 74 81 105 38 52 11 8 11 59 55 34 26 49 40 39 76 30 81
split_gain=0.00726328 0.00441663 0.00333561 0.00451813 0.00305633 0.00256391 0.00841067 0.00273173 0.00241508 0.00595128 0.0069443 0.00229809 0.00145935 0.00550739 0.0037778 0.00255398 0.00161627 0.00188161 0.00155716 0.00615428 0.00428843 0.00323378 0.00367073 0.00292177 0.00380007 0.00277448 0.00317742 0.00220098 0.0021927 0.0053489
threshold=1038.5600000000002 2953591.0250000004 2.3334061286445409 -144.01756948033392 1847.7 6893.6250000000009 34.16317759039331 646.41805000000011 0.022349893104522556 0.024910337507712255 40.819057142857154 566.5193750000002 0.053933641797790158 -0.0030274361599270496 0.00033653045762025005 0.0019964980206083507 0.034549363904107004 -610.71747121858778 0.015206776107247801 -786.12558565394272 0.0020791797163980008 -9.6361166597350785 -27.905118767773793 878.80930500000011 -0.00061039776845614989 19355.410589999912 -0.0063522388105733494 64.723170982780132 0.018578538298755203 0.039299897499210104
decision_type=2 2 2 2 2 2 2 2 2 2 2 2 2 2 2 2 2 2 2 2 2 2 2 2 2 2 2 2 2 2
left_child=1 2 -1 -4 -5 8 -7 -8 12 -10 11 -11 16 15 -15 -14 18 -18 28 20 -20 -21 -23 25 -25 27 -27 -24 -2 -30
right_child=5 -3 3 4 -6 6 7 -9 9 10 -12 -13 13 14 -16 -17 17 -19 19 21 -22 22 23 24 -26 26 -28 -29 29 -31
leaf_value=0.00013102639402749253 -9.2516159587098415e-07 -0.00018368358853169617 0.00016943169493143534 0.0014804689842830634 0.00062741719455169963 0.0010060641968502079 0.00015058786396456155 -0.00049856097875384706 3.8758961811751385e-06 -0.00055716665434980925 -0.0012839581100375986 0.00013476470412570053 0.00018347040255321191 0.0009316325665557608 9.4642062993863468e-05 -0.00058909353152241392 -0.00060832579495451817 -9.4315917534618359e-05 0.001133794847158821 -0.0005262986168963835 0.00021472462608168523 0.0004785551625663293 0.00011058027431117099 0.00088345720956567681 -1.8928575458890659e-05 -0.00083887457360767512 -0.00010008923370975914 -0.00032367350342812846 -7.6292323836152021e-05 -0.00088196112933060667
leaf_weight=33 29958 27 22 21 21 27 71 21 161 24 22 24 20 28 26 23 21 117 22 25 30 46 154 20 28 22 43 36 324 22
leaf_count=33 29958 27 22 21 21 27 71 21 161 24 22 24 20 28 26 23 21 117 22 25 30 46 154 20 28 22 43 36 324 22
internal_value=-1.35234e-13 0.000381915 0.00053935 0.000749892 0.00105394 -1.5123e-06 0.000230132 2.41258e-06 -2.39592e-06 -0.000163466 -0.000548353 -0.000211201 -1.19433e-06 0.00019244 0.000528637 -0.000229761 -1.80281e-06 -0.000172535 -1.0361e-06 9.38931e-05 0.000603562 2.30301e-05 6.23803e-05 -8.01378e-07 0.000357066 -6.81646e-05 -0.00035014 2.83006e-05 -2.37057e-06 -0.00012752
internal_weight=31439 124 97 64 42 31315 119 92 31196 231 70 48 30965 97 54 43 30868 138 30730 426 52 374 349 303 48 255 65 190 30304 346
internal_count=31439 124 97 64 42 31315 119 92 31196 231 70 48 30965 97 54 43 30868 138 30730 426 52 374 349 303 48 255 65 190 30304 346
is_linear=0
shrinkage=0.05


Tree=2
num_leaves=31
num_cat=0
split_feature=22 84 58 13 48 59 100 103 98 17 8 78 103 34 82 75 31 99 62 75 96 103 17 27 14 71 59 102 71 84
split_gain=0.00655511 0.00398601 0.00301039 0.00407761 0.00293711 0.00233677 0.00520506 0.00257485 0.00467648 0.00181258 0.00540043 0.00339381 0.002027 0.00174936 0.00686604 0.00415998 0.00290027 0.00187595 0.00301768 0.00174401 0.00132674 0.00144646 0.00107562 0.00372363 0.00335674 0.00207357 0.00204042 0.00187467 0.00168208 0.00162997
threshold=1038.5600000000002 2953591.0250000004 2.3334061286445409 -144.01756948033392 424.32500000000005 -0.039715464700439594 -0.029245387474971945 -0.042651287591984798 34.176006514372482 0.022349893104522556 0.012633395093753953 -0.7718066761603869 -0.0062100808873468997 -91.379344033631511 -0.015605479490537448 -1.3506245217007162 -0.9367053370202173 -0.053668895719670394 131275.91900000017 -0.79074009303169512 0.018926069560548705 -0.034226057705020144 -0.015862622112013645 -0.015904168502989948 4130.6247144256204 -0.018455510784109997 0.017547299434562406 0.10297714665021826 0.014369766882183553 1044060.9449999981
decision_type=2 2 2 2 2 2 2 2 2 2 2 2 2 2 2 2 2 2 2 2 2 2 2 2 2 2 2 2 2 2
left_child=1 2 -1 -4 -5 6 -2 8 -7 13 -11 -12 -13 14 -9 -16 -17 18 -15 -10 21 -8 23 24 -19 -25 28 -28 -27 -30
right_child=5 -3 3 4 -6 7 20 9 19 10 11 12 -14 17 15 16 -18 22 -20 -21 -22 -23 -24 25 -26 26 27 -29 29 -31
leaf_value=0.00012447507623150931 0.00087667451589368284 -0.0001744994208113187 0.0001609601278852841 0.00056271371304319475 0.0013999116024933757 -0.00087097879301533494 -0.00035143831051316046 0.00079930889010993821 0.00034197224849776833 5.6226415360808702e-05 -0.00089869518186398126 0.00017874760585982587 -0.00043053416412413057 0.00015546183494734579 -0.00064502563585516661 0.00064440047572134063 -0.00015000333653713622 0.00013020397033903497 -0.00064868117001424261 -0.00031042418711530492 0.00025643172143544589 0.00016754294937709348 -2.0699207219253487e-06 -0.00035451618358351745 0.0009848393485299312 -2.3337133609785586e-05 0.0007384715591615532 6.9618305067044932e-05 0.00047369320590577617 2.1035959578639029e-05
leaf_weight=33 24 27 22 20 22 24 29 33 20 137 28 20 43 20 22 20 27 27 28 21 45 25 30191 33 20 356 20 22 37 43
leaf_count=33 24 27 22 20 22 24 29 33 20 137 28 20 43 20 22 20 27 27 28 21 45 25 30191 33 20 356 20 22 37 43
internal_value=-2.7833e-12 0.00036282 0.000512383 0.000712398 0.00100125 -1.43668e-06 0.000216069 -2.29438e-06 -0.000316661 -1.63791e-06 -0.000142099 -0.000440676 -0.000237111 -6.01469e-07 0.000206123 -7.75746e-05 0.000188041 -1.28614e-06 -0.000313622 7.81798e-06 5.59221e-05 -0.000111169 -7.98579e-07 6.79883e-05 0.000493879 2.88164e-05 5.52808e-05 0.00038812 2.32183e-05 0.00023039
internal_weight=31439 124 97 64 42 31315 123 31192 65 31127 228 91 63 30899 102 69 47 30797 48 41 99 54 30749 558 47 511 478 42 436 80
internal_count=31439 124 97 64 42 31315 123 31192 65 31127 228 91 63 30899 102 69 47 30797 48 41 99 54 30749 558 47 511 478 42 436 80
is_linear=0
shrinkage=0.05


Tree=3
num_leaves=31
num_cat=0
split_feature=22 84 81 39 48 54 26 17 75 8 16 48 12 33 82 31 60 103 71 11 100 55 10 49 53 98 38 56 48 18
split_gain=0.00591598 0.00359737 0.00283427 0.00341513 0.00221598 0.00737163 0.00246789 0.00198719 0.0050936 0.00218334 0.00240746 0.00130786 0.00303248 0.0019934 0.00350117 0.00466295 0.00155173 0.00144469 0.00127376 0.00126297 0.00123465 0.00113716 0.00332369 0.00445887 0.00191997 0.00267016 0.00177674 0.00171151 0.0022752 0.0052308
threshold=1038.5600000000002 2953591.0250000004 -0.0026946352552192497 0.0036098348115154006 6893.6250000000009 34.16317759039331 646.41805000000011 0.022349893104522556 -1.2383828713957252 0.016056883575903656 0.0027485029008959502 4651.1200000000008 -606.617455312272 -99.01278289920991 -0.021890157993322997 -1.3821557459560265 -0.0039956270192337993 -0.016149832416746845 -0.0090081441759948984 28.76361841494327 0.019002216597066454 -8.4355500378376558 20.96810871712136 -0.030196324616951098 -1.9404490866224655 28.0563047901211 -0.027915165921646695 -5.2357080802578064 574.06000000000006 -3707.9870124999948
decision_type=2 2 2 2 2 2 2 2 2 2 2 2 2 2 2 2 2 2 2 2 2 2 2 2 2 2 2 2 2 2
left_child=1 2 -1 -4 7 -6 20 11 -9 18 -11 13 -13 14 -2 16 -16 -14 -10 -19 -7 22 -15 -24 25 -25 -26 28 -23 -30
right_child=4 -3 3 -5 5 6 -8 8 9 10 -12 12 17 21 15 -17 -18 19 -20 -21 -22 27 23 24 26 -27 -28 -29 29 -31
leaf_value=0.00013494559857968449 0.00068532767974578874 -0.00016577443500325362 0.0010168431191206245 0.00026032780078122207 0.00094041368111329919 0.00028596712308323429 -0.00047536636425537013 -0.00085435691656565054 0.00029526574212606206 -0.00069170469385146415 1.8972592079080643e-05 -0.00071261816195883083 0.00029635393663699253 0.00040281721942874631 5.3960746819419519e-07 0.0005209635018249613 -0.00060729124155235086 -0.00044566065300023186 -5.3404072219907862e-05 -4.1451249652037285e-06 -0.00015957282113326389 2.2849424516988454e-05 -0.00079515295751068904 9.1304334346204997e-05 0.00037905097318192326 -0.00064515772755839866 -6.7143566498619842e-05 -1.8969390546818876e-06 0.00098833153359009882 0.00013425949914641665
leaf_weight=36 29 27 35 26 27 48 21 23 33 26 22 21 23 33 21 29 21 25 127 46 23 542 23 20 24 32 317 29566 20 173
leaf_count=36 29 27 35 26 27 48 21 23 33 26 22 21 23 33 21 29 21 25 127 46 23 542 23 20 24 32 317 29566 20 173
internal_value=1.47009e-12 0.000344679 0.000486764 0.000694394 -1.36484e-06 0.000213989 7.99493e-07 -2.18633e-06 -0.000148293 -7.02186e-05 -0.000365978 -1.09637e-06 -0.0001694 -4.68983e-07 0.000222407 3.33262e-05 -0.000303376 -4.80431e-05 1.85091e-05 -0.000159608 0.000141637 -1.19378e-06 -8.01822e-05 -0.000118497 -7.88963e-05 -0.000361903 -3.57398e-05 -2.33322e-08 7.53441e-05 0.000222764
internal_weight=31439 124 97 61 31315 119 92 31196 231 208 48 30965 115 30850 100 71 42 94 160 71 71 30750 449 416 393 52 341 30301 735 193
internal_count=31439 124 97 61 31315 119 92 31196 231 208 48 30965 115 30850 100 71 42 94 160 71 71 30750 449 416 393 52 341 30301 735 193
is_linear=0
shrinkage=0.05


end of trees

feature_importances:
BNBUSDT_volume=6
BNBUSDT_return_lag1=6
SOLUSDT_return_lag1=6
BTCUSDT_return_lag3=5
SOLUSDT_obv=5
ADAUSDT_return_lag1=5
BTCUSDT_volatility_30=4
ETHUSDT_open=4
ETHUSDT_volume=4
BNBUSDT_return=4
SOLUSDT_return=4
ADAUSDT_macd_signal=4
BTCUSDT_macd=3
ETHUSDT_volatility_30=3
ETHUSDT_return_lag3=3
BNBUSDT_bb_width=3
SOLUSDT_volatility_30=3
SOLUSDT_zscore_30=3
BTCUSDT_macd_diff=2
BTCUSDT_return_lag1=2
ETHUSDT_zscore_30=2
ETHUSDT_macd_signal=2
ETHUSDT_return_lag2=2
BNBUSDT_rsi_14=2
BNBUSDT_macd=2
SOLUSDT_ma_7=2
SOLUSDT_return_lag2=2
ADAUSDT_rsi_14=2
BTCUSDT_open=1
BTCUSDT_rsi_14=1
BTCUSDT_macd_signal=1
BTCUSDT_bb_width=1
BTCUSDT_return_lag2=1
BTCUSDT_obv=1
ETHUSDT_return=1
ETHUSDT_macd=1
ETHUSDT_obv=1
BNBUSDT_low=1
BNBUSDT_volatility_30=1
BNBUSDT_zscore_30=1
BNBUSDT_macd_signal=1
BNBUSDT_return_lag2=1
BNBUSDT_obv=1
SOLUSDT_low=1
SOLUSDT_volume=1
SOLUSDT_rsi_14=1
SOLUSDT_macd_signal=1
SOLUSDT_macd_diff=1
ADAUSDT_return=1
ADAUSDT_volatility_30=1
ADAUSDT_macd=1
ADAUSDT_bb_width=1
ADAUSDT_return_lag3=1

parameters:
[boosting: gbdt]
[objective: regression]
[metric: l2]
[tree_learner: serial]
[device_type: cpu]
[data_sample_strategy: bagging]
[data: ]
[valid: ]
[num_iterations: 1000]
[learning_rate: 0.05]
[num_leaves: 31]
[num_threads: 8]
[seed: 0]
[deterministic: 0]
[force_col_wise: 0]
[force_row_wise: 0]
[histogram_pool_size: -1]
[max_depth: -1]
[min_data_in_leaf: 20]
[min_sum_hessian_in_leaf: 0.001]
[bagging_fraction: 1]
[pos_bagging_fraction: 1]
[neg_bagging_fraction: 1]
[bagging_freq: 0]
[bagging_seed: 3]
[bagging_by_query: 0]
[feature_fraction: 1]
[feature_fraction_bynode: 1]
[feature_fraction_seed: 2]
[extra_trees: 0]
[extra_seed: 6]
[early_stopping_round: 0]
[early_stopping_min_delta: 0]
[first_metric_only: 0]
[max_delta_step: 0]
[lambda_l1: 0]
[lambda_l2: 0]
[linear_lambda: 0]
[min_gain_to_split: 0]
[drop_rate: 0.1]
[max_drop: 50]
[skip_drop: 0.5]
[xgboost_dart_mode: 0]
[uniform_drop: 0]
[drop_seed: 4]
[top_rate: 0.2]
[other_rate: 0.1]
[min_data_per_group: 100]
[max_cat_threshold: 32]
[cat_l2: 10]
[cat_smooth: 10]
[max_cat_to_onehot: 4]
[top_k: 20]
[monotone_constraints: ]
[monotone_constraints_method: basic]
[monotone_penalty: 0]
[feature_contri: ]
[forcedsplits_filename: ]
[refit_decay_rate: 0.9]
[cegb_tradeoff: 1]
[cegb_penalty_split: 0]
[cegb_penalty_feature_lazy: ]
[cegb_penalty_feature_coupled: ]
[path_smooth: 0]
[interaction_constraints: ]
[verbosity: -1]
[saved_feature_importance_type: 0]
[use_quantized_grad: 0]
[num_grad_quant_bins: 4]
[quant_train_renew_leaf: 0]
[stochastic_rounding: 1]
[linear_tree: 0]
[max_bin: 255]
[max_bin_by_feature: ]
[min_data_in_bin: 3]
[bin_construct_sample_cnt: 200000]
[data_random_seed: 1]
[is_enable_sparse: 1]
[enable_bundle: 1]
[use_missing: 1]
[zero_as_missing: 0]
[feature_pre_filter: 1]
[pre_partition: 0]
[two_round: 0]
[header: 0]
[label_column: ]
[weight_column: ]
[group_column: ]
[ignore_column: ]
[categorical_feature: ]
[forcedbins_filename: ]
[precise_float_parser: 0]
[parser_config_file: ]
[objective_seed: 5]
[num_class: 1]
[is_unbalance: 0]
[scale_pos_weight: 1]
[sigmoid: 1]
[boost_from_average: 1]
[reg_sqrt: 0]
[alpha: 0.9]
[fair_c: 1]
[poisson_max_delta_step: 0.7]
[tweedie_variance_power: 1.5]
[lambdarank_truncation_level: 30]
[lambdarank_norm: 1]
[label_gain: ]
[lambdarank_position_bias_regularization: 0]
[eval_at: ]
[multi_error_top_k: 1]
[auc_mu_weights: ]
[num_machines: 1]
[local_listen_port: 12400]
[time_out: 120]
[machine_list_filename: ]
[machines: ]
[gpu_platform_id: -1]
[gpu_device_id: -1]
[gpu_use_dp: 0]
[num_gpu: 1]

end of parameters

pandas_categorical:[]
