tree
version=v4
num_class=1
num_tree_per_iteration=1
label_index=0
max_feature_idx=109
objective=regression
feature_names=BTCUSDT_open BTCUSDT_high BTCUSDT_low BTCUSDT_close BTCUSDT_volume BTCUSDT_return BTCUSDT_ma_7 BTCUSDT_ma_14 BTCUSDT_volatility_30 BTCUSDT_zscore_30 BTCUSDT_rsi_14 BTCUSDT_macd BTCUSDT_macd_signal BTCUSDT_macd_diff BTCUSDT_bb_width BTCUSDT_return_lag1 BTCUSDT_return_lag2 BTCUSDT_return_lag3 BTCUSDT_obv BTCUSDT_vwap BTCUSDT_hour BTCUSDT_day_of_week ETHUSDT_open ETHUSDT_high ETHUSDT_low ETHUSDT_close ETHUSDT_volume ETHUSDT_return ETHUSDT_ma_7 ETHUSDT_ma_14 ETHUSDT_volatility_30 ETHUSDT_zscore_30 ETHUSDT_rsi_14 ETHUSDT_macd ETHUSDT_macd_signal ETHUSDT_macd_diff ETHUSDT_bb_width ETHUSDT_return_lag1 ETHUSDT_return_lag2 ETHUSDT_return_lag3 ETHUSDT_obv ETHUSDT_vwap ETHUSDT_hour ETHUSDT_day_of_week BNBUSDT_open BNBUSDT_high BNBUSDT_low BNBUSDT_close BNBUSDT_volume BNBUSDT_return BNBUSDT_ma_7 BNBUSDT_ma_14 BNBUSDT_volatility_30 BNBUSDT_zscore_30 BNBUSDT_rsi_14 BNBUSDT_macd BNBUSDT_macd_signal BNBUSDT_macd_diff BNBUSDT_bb_width BNBUSDT_return_lag1 BNBUSDT_return_lag2 BNBUSDT_return_lag3 BNBUSDT_obv BNBUSDT_vwap BNBUSDT_hour BNBUSDT_day_of_week SOLUSDT_open SOLUSDT_high SOLUSDT_low SOLUSDT_close SOLUSDT_volume SOLUSDT_return SOLUSDT_ma_7 SOLUSDT_ma_14 SOLUSDT_volatility_30 SOLUSDT_zscore_30 SOLUSDT_rsi_14 SOLUSDT_macd SOLUSDT_macd_signal SOLUSDT_macd_diff SOLUSDT_bb_width SOLUSDT_return_lag1 SOLUSDT_return_lag2 SOLUSDT_return_lag3 SOLUSDT_obv SOLUSDT_vwap SOLUSDT_hour SOLUSDT_day_of_week ADAUSDT_open ADAUSDT_high ADAUSDT_low ADAUSDT_close ADAUSDT_volume ADAUSDT_return ADAUSDT_ma_7 ADAUSDT_ma_14 ADAUSDT_volatility_30 ADAUSDT_zscore_30 ADAUSDT_rsi_14 ADAUSDT_macd ADAUSDT_macd_signal ADAUSDT_macd_diff ADAUSDT_bb_width ADAUSDT_return_lag1 ADAUSDT_return_lag2 ADAUSDT_return_lag3 ADAUSDT_obv ADAUSDT_vwap ADAUSDT_hour ADAUSDT_day_of_week
feature_infos=[15653.629999999999:73485.350000000006] [15769.129999999999:138070] [15486.74:73190.059999999998] [15650.780000000001:73487.75] [0.0062899999999999996:2004.507026] [-0.088984363954880102:0.12647227743408199] [15746.204285714284:73248.855714285717] [15776.579285714286:73137.041428571421] [0.00045176674564959999:0.031704297236320199] [-4.9574363728022153:5.1229199971338515] [6.9396334198231466:92.257629126889839] [-2362.0006814277003:1885.7769492287844] [-2076.9435269365058:1744.1282079115281] [-769.48175018780307:620.07253336935992] [27.515931025605823:12363.101406971064] [-0.088984363954880102:0.12647227743408199] [-0.088984363954880102:0.12647227743408199] [-0.088984363954880102:0.12647227743408199] [-11506.304408999988:7017.7553420000113] [15661.963333333331:73387.963333333333] [0:23] [0:6] [756.89999999999998:4847.8999999999996] [770.86000000000001:4866.21] [753.33000000000004:4833.4200000000001] [758.05999999999995:4847.1899999999996] [0.001:7326.6536299999998] [-0.12719551217290029:0.094002020933823899] [755.33285714285716:4809.9157142857148] [743.64357142857148:4800.5828571428574] [0.00059711734622270001:0.046989806092610498] [-5.0545098927804659:4.9953448709540851] [6.688876919484998:92.93296433649914] [-208.18001478115957:160.47413576206918] [-180.02831148424522:138.3849536064611] [-63.794083102911515:62.417840226593725] [3.9261890784041498:1219.8968042831066] [-0.12719551217290029:0.094002020933823899] [-0.12719551217290029:0.094002020933823899] [-0.12719551217290029:0.094002020933823899] [-39135.212030000068:43392.60878999994] [764.32999999999993:4848.1833333333334] [0:23] [0:6] [35.830599999999997:715.29999999999995] [36.936199999999999:718] [35.128599999999999:712] [35.876100000000001:716.5] [0:28223.029999999999] [-0.15497182872278109:0.148803116353352] [36.799485714285709:708.8142857142858] [37.305485714285709:706.9357142857142] [0.0010044699451932:0.055095139246621398] [-4.8195702148064239:5.0789682954218947] [5.784911496967732:90.548777354540434] [-38.292331959744843:31.428153633248257] [-32.805920657275514:29.491735402306148] [-10.452869510242271:10.102249182375424] [0.81853524038814385:216.35352670686152] [-0.15497182872278109:0.148803116353352] [-0.15497182872278109:0.148803116353352] [-0.15497182872278109:0.148803116353352] [-20548.710000000006:212017.65999999992] [35.9803:714.16666666666663] [0:23] [0:6] [1.7703:258.4957] [1.8008999999999999:259.78059999999999] [1.7563:256.25920000000002] [1.7672000000000001:258.41719999999998] [0:200450.59] [-0.19658150290712351:0.16907199870998929] [1.7801714285714283:254.92082857142856] [1.7864214285714286:254.53961428571429] [0.0017835317236526:0.070387092270766699] [-4.8076739166688904:4.9348531529941475] [11.010264929428974:92.717632190267722] [-9.6087009564494128:11.117015206250926] [-8.6940596202619549:9.6998289035006646] [-3.8051688064294424:4.1091792130482574] [0.095086308163031305:78.21132414719176] [-0.19658150290712351:0.16907199870998929] [-0.19658150290712351:0.16907199870998929] [-0.19658150290712351:0.16907199870998929] [-56466.499999999971:3455991.4299999992] [1.7826333333333333:257.91026666666664] [0:23] [0:6] [0.17421:3.0922000000000001] [0.17551:3.0994100000000002] [0.10367999999999999:3.0480499999999999] [0.17427999999999999:3.0913200000000001] [0:6658786.7000000002] [-0.21355949265149979:0.1585230221694966] [0.17522571428571429:3.0485171428571434] [0.1754478571428571:3.0289757142857141] [0.0015405479878558999:0.069407988131880094] [-4.8698994737722217:4.890549018424438] [9.0393185572181594:95.365928680777316] [-0.14326550474172081:0.10023121021293591] [-0.1136119205604473:0.091107680546505906] [-0.043526228000122999:0.047391835716030499] [0.0013059865158724:0.82178267496706159] [-0.21355949265149979:0.1585230221694966] [-0.21355949265149979:0.1585230221694966] [-0.21355949265149979:0.1585230221694966] [-608476.50000000012:70946059.699999899] [0.1746566666666666:3.0727566666666668] [0:23] [0:6]
tree_sizes=2998 3027 3001 3012 3041 3043 3010 3030 3048 3032 3025 3036 3077 3030 3046 3046 3033 3054

Tree=0
num_leaves=31
num_cat=0
split_feature=48 54 93 84 15 35 57 105 102 22 103 26 84 99 75 106 52 80 96 70 92 100 93 70 99 97 54 96 61 106
split_gain=0.0159664 0.0164023 0.00620147 0.0116628 0.0104139 0.00768886 0.00643179 0.00608682 0.0064066 0.00476142 0.00455139 0.00441859 0.00435715 0.00436635 0.00439761 0.00471701 0.00487668 0.00589008 0.00435287 0.00421647 0.00379073 0.00374889 0.00353474 0.00349291 0.00336872 0.00301309 0.00339119 0.00300668 0.00309852 0.0029896
threshold=6893.6250000000009 34.16317759039331 -0.018577926057532546 771875.71999999858 -0.0088703112540068473 -8.4735732708306237 -0.33824860557327163 0.010544287745331702 0.17524618997820926 1038.5600000000002 -0.034226057705020144 628.89411000000007 803747.82999999833 -0.013383148984608949 -2.5126738786959018 26358221.650000125 0.014317451534100452 12.568249208885963 0.014485482662044502 4965.2700000000013 1522803.2500000002 -0.022299868199476696 -0.0015400947790825497 1361.9250000000004 -0.010651049285343148 0.50396433724110712 44.098157780443834 0.013678175302695951 0.0015855067509019003 36081036.150000162
decision_type=2 2 2 2 2 2 2 2 2 2 2 2 2 2 2 2 2 2 2 2 2 2 2 2 2 2 2 2 2 2
left_child=2 -2 3 4 5 -1 7 8 18 27 20 19 -5 14 -14 -16 29 -18 -6 23 21 -11 -23 -3 -24 26 -8 -4 -29 -17
right_child=1 11 9 12 6 -7 25 -9 -10 10 -12 -13 13 -15 15 16 17 -19 -20 -21 -22 22 24 -25 -26 -27 -28 28 -30 -31
leaf_value=0.0018125968323699554 0.001736738938112556 0.0006427869589089233 6.0086483877406168e-05 -0.00058979994404875628 0.00035295167847089199 0.00056350121667344253 0.00065173843694519911 -0.00078041545009927926 0.0008947442880567764 0.00050539024138725099 7.0100320537029844e-05 -0.00026438986595382825 0.00093106456161718906 4.3528490147407315e-05 0.00091550599979615412 -2.378483444467727e-05 0.000289342500422524 -0.0008432990874069809 -0.0005800940996034099 0.0010392326810833362 -0.00072576335764889947 0.00029432140837325443 -0.00076907465163173112 -0.00025189600600260579 -0.00014334317929626123 0.00080273228639911689 8.2787770200810158e-05 0.00032682812547366589 0.00099966195094808351 0.00061727749088093665
leaf_weight=22 27 24 43 23 25 28 50 20 23 23 29945 23 26 576 21 31 22 24 25 26 27 30 30 20 76 58 55 44 28 44
leaf_count=22 27 24 43 23 25 28 50 20 23 23 29945 23 26 576 21 31 22 24 25 26 27 30 30 20 76 58 55 44 28 44
internal_value=7.61906e-05 0.000651833 7.3985e-05 0.000192112 0.000453092 0.0011131 0.000324183 -7.61022e-06 0.000204117 6.97944e-05 6.85688e-05 0.000336861 8.79916e-05 0.000108945 0.000333229 0.000223767 0.000103713 -0.000301601 -0.000113571 0.000534415 -0.000178002 -8.49856e-05 -0.000184829 0.000236113 -0.000320437 0.000513489 0.000353717 0.00039091 0.000588486 0.000352305
internal_weight=31439 120 31319 1073 306 50 256 93 73 30246 30131 93 767 744 168 142 121 46 50 70 186 159 136 44 106 163 105 115 72 75
internal_count=31439 120 31319 1073 306 50 256 93 73 30246 30131 93 767 744 168 142 121 46 50 70 186 159 136 44 106 163 105 115 72 75
is_linear=0
shrinkage=1


Tree=1
num_leaves=31
num_cat=0
split_feature=48 83 93 84 15 35 57 105 102 92 12 105 15 22 33 50 99 48 96 75 38 33 104 4 16 96 37 7 93 90
split_gain=0.0144097 0.0149474 0.00559683 0.0105256 0.00939856 0.0069392 0.00580469 0.00549335 0.00578196 0.00436765 0.00791332 0.00651045 0.00515114 0.0049795 0.00492001 0.00920069 0.00473363 0.00399077 0.00392847 0.00383636 0.00371191 0.00501702 0.00432403 0.0038357 0.00363962 0.0034562 0.00331216 0.00291017 0.00334125 0.00289915
threshold=6893.6250000000009 -0.025457741170991248 -0.018577926057532546 771875.71999999858 -0.0088703112540068473 -8.4735732708306237 -0.33824860557327163 0.010544287745331702 0.17524618997820926 1522803.2500000002 -354.67175984796091 -0.011174686754546598 -0.0020685582208988997 1038.5600000000002 -99.01278289920991 359.07586428571432 -0.053668895719670394 3667.2600000000007 0.014485482662044502 -1.2224226322971865 0.021888014019355102 -54.348374604338908 -0.00097358436234519985 31.887905000000003 -0.00086872339547374984 0.013981766804678952 -0.010858682585203097 66951.000000000015 -0.042651287591984798 0.80622500000000008
decision_type=2 2 2 2 2 2 2 2 2 2 2 2 2 2 2 2 2 2 2 2 2 2 2 2 2 2 2 2 2 2
left_child=2 -2 3 4 5 -1 7 8 18 13 11 -11 26 25 15 -15 -16 20 -6 -17 21 22 23 -5 -14 -4 -12 28 -23 -3
right_child=1 29 9 17 6 -7 -8 -9 -10 10 12 -13 24 14 16 19 -18 -19 -20 -21 -22 27 -24 -25 -26 -27 -28 -29 -30 -31
leaf_value=0.0016495858943513173 0.0017246409211193994 0.00073501670715184165 2.9544656564551615e-05 0.00029037039474133058 0.00026292304818343839 0.00046294509541309841 0.00041543356602885778 -0.00081377575057558723 0.00077762601380843835 -0.00015876326928264463 -1.2208310169323038e-05 -0.0013690734151750802 4.6714112831978129e-05 0.0012872546395686045 -0.00060553971133865138 -0.00032054221267268686 -6.3700671446744335e-06 -0.00065248215317048814 -0.00062347045028582218 0.00054873699052470997 -0.00052374956992872314 0.00046235239098591381 2.3299215279300424e-05 0.0012578894007241443 -0.0008957504505468976 0.00059156814896919917 0.00081847362103872013 -0.00046459110641491517 1.9438495021692599e-07 0.00011903802155251874
leaf_weight=22 22 26 51 20 25 28 163 20 23 20 30 25 20 21 33 30 29894 22 25 22 29 42 34 21 21 59 20 31 568 72
leaf_count=22 22 26 51 20 25 28 163 20 23 20 30 25 20 21 33 30 29894 22 25 22 29 42 34 21 21 59 20 31 568 72
internal_value=-2.06314e-12 0.000546861 -2.09532e-06 0.000110125 0.000358056 0.000985067 0.000235593 -7.96108e-05 0.00012153 -6.07642e-06 -0.000288789 -0.000831158 -2.05852e-05 -4.79947e-06 -6.03071e-06 0.000403949 -7.03076e-06 1.1211e-05 -0.000180274 4.72298e-05 3.08099e-05 5.32712e-05 0.000440203 0.000785929 -0.000436012 0.000330994 0.000320064 7.99826e-06 3.20151e-05 0.000282461
internal_weight=31439 120 31319 1073 306 50 256 93 73 30246 136 45 91 30110 30000 73 29927 767 50 52 745 716 75 41 41 110 50 641 610 98
internal_count=31439 120 31319 1073 306 50 256 93 73 30246 136 45 91 30110 30000 73 29927 767 50 52 745 716 75 41 41 110 50 641 610 98
is_linear=0
shrinkage=0.05


Tree=2
num_leaves=31
num_cat=0
split_feature=48 54 93 84 15 35 57 105 102 26 92 12 105 15 22 33 66 99 84 102 70 106 49 52 96 98 106 38 58 70
split_gain=0.0130048 0.0142792 0.00505114 0.0094994 0.0084822 0.00628775 0.00523873 0.00495775 0.00521822 0.00402217 0.0039418 0.00714177 0.00587568 0.0046489 0.004494 0.00444031 0.00845598 0.0042721 0.0038988 0.00421848 0.00384393 0.00371047 0.00606813 0.00405033 0.00354544 0.0033735 0.0032862 0.00321441 0.00405601 0.00307271
threshold=6893.6250000000009 34.16317759039331 -0.018577926057532546 771875.71999999858 -0.0088703112540068473 -8.260609049247714 -0.33824860557327163 0.010544287745331702 0.17524618997820926 628.89411000000007 1522803.2500000002 -354.67175984796091 -0.011174686754546598 -0.0020685582208988997 1038.5600000000002 -99.01278289920991 100.17865000000002 -0.053668895719670394 803747.82999999833 0.25260686731174747 4965.2700000000013 27047999.850000124 -0.022862841172854847 0.023819633739306251 0.014485482662044502 74.235649451602271 48738710.100000009 -0.014175336981692448 15.177684385822888 1361.9250000000004
decision_type=2 2 2 2 2 2 2 2 2 2 2 2 2 2 2 2 2 2 2 2 2 2 2 2 2 2 2 2 2 2
left_child=2 -2 3 4 5 -1 7 8 24 20 14 12 -12 -13 27 16 -16 -17 -5 21 29 22 -20 -23 -6 -15 -21 -4 -29 -3
right_child=1 9 10 18 6 -7 -8 -9 -10 -11 11 13 -14 25 15 17 -18 -19 19 26 -22 23 -24 -25 -26 -27 -28 28 -30 -31
leaf_value=0.0015433195097695875 0.0015317749083300846 0.00051073003026734412 0.00084012236000727053 -0.0006305006097334073 0.00024977689178194853 0.00041830876833517792 0.00039466188372787021 -0.00077308695646934218 0.00073874472114055054 -0.00034800916865883075 -0.00015082512967637743 0.00030406123527791353 -0.001300619777321117 5.0532511377241466e-05 0.00094447473097326515 -0.0005752627254079209 -0.00013270358306870453 -6.0515635134422485e-06 0.0010789348549587886 0.00097473517482285401 0.00089612126746662669 -1.6131623903718804e-05 5.6805235180945603e-05 -0.00072251279405983429 -0.00059229693864472214 -0.00085682395202595562 0.00012912700013085096 0.0004044876509942697 -0.00033345329294981506 -0.00032841380918398501
leaf_weight=23 27 24 23 23 25 27 163 20 23 23 20 50 25 20 35 33 38 29894 20 20 26 603 53 21 25 21 27 60 27 20
leaf_count=23 27 24 23 23 25 27 163 20 23 23 20 50 25 20 35 33 38 29894 20 20 26 603 53 21 25 21 27 60 27 20
internal_value=-1.86658e-12 0.000519518 -1.99055e-06 0.000104619 0.000340153 0.000935814 0.000223814 -7.56302e-05 0.000115454 0.000225636 -5.7726e-06 -0.00027435 -0.0007896 -1.95559e-05 -4.5595e-06 -5.72917e-06 0.000383752 -6.67922e-06 1.06504e-05 3.04709e-05 0.00041412 -4.45858e-07 0.000336841 -3.99041e-05 -0.00017126 -0.000414211 0.00048896 0.000314444 0.000175471 0.000129301
internal_weight=31439 120 31319 1073 306 50 256 93 73 93 30246 136 45 91 30110 30000 73 29927 767 744 70 697 73 624 50 41 47 110 87 44
internal_count=31439 120 31319 1073 306 50 256 93 73 93 30246 136 45 91 30110 30000 73 29927 767 744 70 697 73 624 50 41 47 110 87 44
is_linear=0
shrinkage=0.05


Tree=3
num_leaves=31
num_cat=0
split_feature=48 54 93 84 10 76 98 75 84 102 92 33 96 26 27 47 22 103 35 103 44 47 9 79 32 9 14 96 84 24
split_gain=0.0117368 0.012887 0.0047076 0.005804 0.00600597 0.00726311 0.00619189 0.00547924 0.00437307 0.00542313 0.00405378 0.00500795 0.00366907 0.00363001 0.0035998 0.00357106 0.00352488 0.00326333 0.00350134 0.00298504 0.00285543 0.00440623 0.00317722 0.00277687 0.0026982 0.00261413 0.00252722 0.00297574 0.00252302 0.00385936
threshold=6893.6250000000009 34.16317759039331 -0.011183863498184798 788347.40499999805 27.350659336662464 27.851880679346866 61.165583497933106 0.14780864381253678 803747.82999999833 0.27009013810112681 1031700.7000000001 -42.349108148085399 0.018926069560548705 628.89411000000007 -0.0045028427874785988 577.45000000000016 1038.5600000000002 -0.034226057705020144 1.2527567177850765 0.012663754861974552 493.29600000000005 380.74690000000004 -1.4412734234323985 -0.069895590826558426 56.110189122028864 -1.5570640048429374 2512.663020528817 0.026908611954297102 -19881.649999999976 1179.7650000000003
decision_type=2 2 2 2 2 2 2 2 2 2 2 2 2 2 2 2 2 2 2 2 2 2 2 2 2 2 2 2 2 2
left_child=2 -2 3 4 -1 -6 10 -8 -5 -10 11 -7 15 14 -3 19 -4 18 20 23 21 22 -18 -13 26 -11 -14 -28 29 -19
right_child=1 13 16 8 5 6 7 -9 9 25 -12 12 24 -15 -16 -17 17 28 -20 -21 -22 -23 -24 -25 -26 -27 27 -29 -30 -31
leaf_value=0.00081329912262279665 0.0014551861420773937 0.00096034459711518143 0.00028260713442110639 -0.00064944869664032014 -0.00075662587603021953 -0.00063873652771176046 0.0011494185053743421 0.00016761412310491627 1.3926190158365901e-05 0.00093309117190074173 0.00050262398829755306 -0.00042517871439360592 0.00015267240226967261 -0.00033060870816331339 0.00016664170489457319 0.00054747733905363325 -0.00025402676966909335 0.00060621816946212039 -0.00070758911357599226 -0.00044145999724735577 0.00035251670320016838 -0.00074830729997605282 0.00040440943816469777 0.00010684304783262062 -7.4770782167823719e-05 0.0002686952645538105 0.00088427456856671996 0.00021882805407845549 -8.4510434013423236e-06 -0.00013308245838890154
leaf_weight=37 27 20 104 24 21 23 30 27 2072 20 65 29 50 23 50 27 57 41 31 42 26 30 27 159 35 57 42 28 28184 31
leaf_count=37 27 20 104 24 21 23 30 27 2072 20 65 29 50 23 50 27 57 41 31 42 26 30 27 159 35 57 42 28 28184 31
internal_value=9.15278e-13 0.000493542 -1.89102e-06 6.01213e-05 0.000195728 0.000156194 0.00019061 0.000684353 2.17422e-05 2.9238e-05 0.000134323 7.92893e-05 0.000119373 0.000214355 0.000393414 3.49584e-06 -7.95076e-06 -9.01377e-06 -0.000226781 -6.03629e-05 -0.000120316 -0.000228155 -4.23866e-05 2.47759e-05 0.000311506 0.000441266 0.000424169 0.000618096 -7.69588e-06 0.000287908
internal_weight=31439 120 31319 2788 615 578 557 57 2173 2149 500 435 412 93 70 257 28531 28427 171 230 140 114 84 188 155 77 120 70 28256 72
internal_count=31439 120 31319 2788 615 578 557 57 2173 2149 500 435 412 93 70 257 28531 28427 171 230 140 114 84 188 155 77 120 70 28256 72
is_linear=0
shrinkage=0.05


Tree=4
num_leaves=31
num_cat=0
split_feature=48 83 93 84 10 99 79 75 94 36 11 26 83 17 14 9 12 22 105 52 92 56 106 15 20 102 106 98 40 76
split_gain=0.0105925 0.0123472 0.00424861 0.00523811 0.00542039 0.0066416 0.00662786 0.00625232 0.00413592 0.00402253 0.00441125 0.00439306 0.00436325 0.00351011 0.00348225 0.00376038 0.00363287 0.00318121 0.00305667 0.0097659 0.00592704 0.0123328 0.0057196 0.00414907 0.00384898 0.00305002 0.00302227 0.00505399 0.00368971 0.00338565
threshold=6893.6250000000009 -0.025457741170991248 -0.011183863498184798 788347.40499999805 27.350659336662464 0.0057911522737731508 -0.20288915478943598 0.14780864381253678 1.090546428571429 615.12019303070213 -786.12558565394272 552.35717000000011 0.0024596564468261505 0.022349893104522556 4526.5228926451609 -0.94612218574434082 -421.75372375196628 1038.5600000000002 -0.034118883012219346 0.021208029764173453 1522803.2500000002 -4.4624438375412554 40145152.000000007 0.00088350632813600008 17.500000000000004 0.31682875472874494 49703020.54999999 73.281865803788136 28016.352384999936 31.42702505589406
decision_type=2 2 2 2 2 2 2 2 2 2 2 2 2 2 2 2 2 2 2 2 2 2 2 2 2 2 2 2 2 2
left_child=2 -2 3 4 -1 6 -6 8 -7 10 11 12 -5 25 16 -16 -8 -4 19 22 26 -22 -19 -24 -23 -12 -20 29 -29 -28
right_child=1 -3 17 9 5 7 14 -9 -10 -11 13 -13 -14 -15 15 -17 -18 18 20 -21 21 24 23 -25 -26 -27 27 28 -30 -31
leaf_value=0.00077263416126181652 0.0015393123762227003 0.00022855999900921423 0.00026847678390577831 -0.00023733113513087794 -0.00059330779406128651 0.0012214621588310156 0.0006185123570551361 0.00013110407347898041 0.00047363618691633749 -0.00066799919725218351 1.2138606602098386e-05 0.00096021986707152483 0.00068337457487359647 -0.0006295645576929452 -0.00070621620537937048 0.00015262753074057401 9.3369869135477137e-05 -0.00023456679247009472 -3.4219863155749999e-06 0.00090857357472965599 -0.0013281297620359022 -0.00032972730046754742 0.00076586005814147724 -0.00012059843006268653 0.00038441722762995754 0.00048291996480267178 0.00043118939756823241 -0.00093156025665978501 -0.00016150214804968398 -5.7427047216085761e-05
leaf_weight=37 22 98 104 31 39 26 38 113 64 21 2019 24 22 21 26 25 247 91 25704 38 26 54 33 22 29 35 36 28 35 2331
leaf_count=37 22 98 104 31 39 26 38 113 64 21 2019 24 22 21 26 25 247 91 25704 38 26 54 33 22 29 35 36 28 35 2331
internal_value=-3.13121e-12 0.000468865 -1.79648e-06 5.71152e-05 0.000185941 0.000148385 2.36824e-05 0.000378746 0.000689675 2.06551e-05 2.73752e-05 0.00039899 0.000144849 1.35852e-05 9.52973e-05 -0.000285214 0.000163389 -7.55323e-06 -8.56308e-06 0.000194568 -9.88646e-06 -0.000377877 8.7304e-06 0.000411277 -8.02069e-05 2.01607e-05 -8.46075e-06 -6.17596e-05 -0.00050375 -4.99956e-05
internal_weight=31439 120 31319 2788 615 578 375 203 90 2173 2152 77 53 2075 336 51 285 28531 28427 184 28243 109 146 55 83 2054 28134 2430 63 2367
internal_count=31439 120 31319 2788 615 578 375 203 90 2173 2152 77 53 2075 336 51 285 28531 28427 184 28243 109 146 55 83 2054 28134 2430 63 2367
is_linear=0
shrinkage=0.05


Tree=5
num_leaves=31
num_cat=0
split_feature=48 83 93 15 13 74 83 20 76 102 10 96 104 81 71 52 77 16 103 20 57 27 99 84 81 6 14 92 105 39
split_gain=0.0095597 0.0112389 0.00383437 0.00498089 0.00448533 0.00481961 0.00997448 0.00638515 0.00566616 0.00549475 0.00481141 0.00446403 0.00413218 0.00405023 0.00361319 0.00513004 0.00804967 0.00333913 0.00329527 0.00309075 0.003053 0.00295693 0.00294542 0.00293501 0.00369092 0.00346924 0.00360842 0.00346878 0.00507459 0.0046131
threshold=6893.6250000000009 -0.020815189726985397 -0.011183863498184798 -0.028433581079890295 186.65873349387374 0.034971787972514302 -0.027002520596258798 4.5000000000000009 51.510334475465974 0.17524618997820926 26.607255096081285 0.024229613494305805 0.018223316971638651 0.011379312029044252 -0.031702672328999294 0.014076038738752652 -0.41107394770020628 -0.00062813610922419995 0.031300062727576856 2.5000000000000004 -0.054929928600091292 0.0010833462608193501 -0.013383148984608949 -19881.649999999976 -0.022831644517380099 36798.194285714293 3741.5514784503544 1522803.2500000002 0.012663754861974552 0.0013095804063060002
decision_type=2 2 2 2 2 2 2 2 2 2 2 2 2 2 2 2 2 2 2 2 2 2 2 2 2 2 2 2 2 2
left_child=2 -2 3 -1 5 9 -7 -8 -9 11 -11 14 13 -13 15 20 -17 -3 -6 -12 22 -19 -5 24 -4 26 -26 -25 29 -29
right_child=1 17 23 4 18 6 7 8 -10 10 19 12 -14 -15 -16 16 -18 21 -20 -21 -22 -23 -24 27 25 -27 -28 28 -30 -31
leaf_value=0.00080362165380475656 0.0013654849046500974 -9.4646364276722666e-05 -0.00034430127532687044 0.00063371720199938868 0.00022842788076499876 -0.00098507469287142154 -0.00070617114324704748 0.00064671938650859284 -0.00029554373037104533 0.00084850452816857391 -0.00026281321744053539 0.00057944397301001188 0.0010288242880778853 -0.00036698259937111293 3.419238190219528e-05 -0.001396214149426669 -0.00013205573816187953 0.00088103309644793626 0.0009276425193456817 0.0002583935710469976 -0.00038670489737676098 6.8611216626041348e-05 -2.2069049177729497e-05 -7.0234096394292554e-06 0.00093534661839450052 -0.00013678717382607005 0.00013934300762533287 -0.00033581018295331761 -0.0008548591735547987 0.00046569340215333238
leaf_weight=22 26 49 20 20 107 35 23 39 27 31 33 26 20 20 1937 20 34 24 20 206 49 21 119 28318 35 21 24 58 29 26
leaf_count=22 26 49 20 20 107 35 23 39 27 31 33 26 20 20 1937 20 34 24 20 206 49 21 119 28318 35 21 24 58 29 26
internal_value=8.09478e-13 0.000445421 -1.70665e-06 5.42595e-05 4.82993e-05 3.43316e-05 -0.000269977 1.12409e-05 0.000261248 4.93353e-05 0.000262444 2.37053e-05 0.000428824 0.000167954 1.14346e-05 -0.000170721 -0.000600263 0.000190936 0.00033854 0.000186428 -4.73426e-05 0.000501903 7.22887e-05 -7.17556e-06 0.000263228 0.00041511 0.000611549 -8.12665e-06 -0.000284601 -8.77257e-05
internal_weight=31439 120 31319 2788 2766 2639 124 89 66 2515 270 2245 66 46 2179 242 54 94 127 239 188 45 139 28531 100 80 59 28431 113 84
internal_count=31439 120 31319 2788 2766 2639 124 89 66 2515 270 2245 66 46 2179 242 54 94 127 239 188 45 139 28531 100 80 59 28431 113 84
is_linear=0
shrinkage=0.05


Tree=6
num_leaves=31
num_cat=0
split_feature=48 54 82 79 80 93 84 33 97 33 11 70 36 2 15 103 84 44 80 101 38 26 60 92 79 52 39 20 82 35
split_gain=0.00862763 0.0109315 0.00367024 0.00555086 0.0035968 0.00357442 0.00750935 0.00769405 0.00442087 0.00392101 0.00458376 0.00316609 0.00352577 0.00344112 0.0051968 0.00311832 0.00345144 0.00384281 0.00339967 0.00300204 0.00456651 0.00290909 0.00284928 0.00310313 0.00269482 0.00270983 0.00287604 0.00274986 0.00256336 0.00244861
threshold=6893.6250000000009 32.125649820297959 0.0010867532250411003 0.022103352368981002 1.7245589817319671 -0.018577926057532546 771875.71999999858 -63.247695475493622 0.50396433724110712 -99.01278289920991 -786.12558565394272 4330.2400000000007 82.364362714130053 52641.730000000003 0.0031495489677185007 -0.034226057705020144 -19881.649999999976 41.736450000000012 0.50914554694262748 0.0029711354009501504 0.016062455446316504 610.73620500000004 0.0061367219911867008 767251.70000000007 -1.0143586907534754 0.011291712220548302 0.0074196673056995009 5.5000000000000009 -0.00068965390267634993 5.0185674491891099
decision_type=2 2 2 2 2 2 2 2 2 2 2 2 2 2 2 2 2 2 2 2 2 2 2 2 2 2 2 2 2 2
left_child=5 -2 4 -4 -3 6 7 -1 11 -8 28 12 -9 14 -13 29 17 18 21 20 24 -17 23 -10 -12 -26 27 -27 -11 -7
right_child=1 2 3 -5 -6 15 9 8 22 10 19 13 -14 -15 -16 16 -18 -19 -20 -21 -22 -23 -24 -25 25 26 -28 -29 -30 -31
leaf_value=0.0010874809525359655 0.0014303620640103792 0.00023956763482577094 0.0011545065384416377 -2.3506961879320444e-05 -0.00057971054659338697 -0.00014496775826865438 -0.00066928794064248607 -0.00013618429147754796 0.00040573737551939903 0.00094058792557916615 0.00043013264454430102 -0.00080475633712335224 0.00043874267779756335 0.00032668496496626178 0.00022902129552676345 0.00032371743218391203 -4.545246191243104e-06 -0.00020444105573308964 4.1079837440823519e-05 0.00027562958817418487 -0.00069315658898771158 0.0010943922173464672 0.00014410600621974276 0.0011834313645047825 2.3042085004299793e-05 -0.00075133195437956609 0.00021754934277851135 -0.00019537076113867316 0.00015846900231818756 -0.00072966798201377968
leaf_weight=28 22 37 20 20 21 171 21 40 29 20 32 31 80 24 20 24 29946 30 30 83 26 25 31 23 418 30 29 86 22 20
leaf_count=28 22 37 20 20 21 171 21 40 29 20 32 31 80 24 20 24 29946 30 30 83 26 25 31 23 418 30 29 86 22 20
internal_value=2.96139e-12 0.00042315 0.000197042 0.0005655 -5.70676e-05 -1.62131e-06 8.80603e-05 0.000297476 0.000217907 4.51256e-06 2.34801e-05 8.78229e-05 0.0002471 -0.000167021 -0.000399353 -4.80284e-06 -3.523e-06 0.000277323 0.000460271 -6.79246e-06 -4.45397e-05 0.000716919 0.000523525 0.000749717 -1.61968e-05 -4.15654e-05 -0.000227813 -0.000339154 0.000530907 -0.000206193
internal_weight=31439 120 98 40 58 31319 1073 306 278 767 746 195 120 75 51 30246 30055 109 79 704 621 49 83 52 595 563 145 116 42 191
internal_count=31439 120 98 40 58 31319 1073 306 278 767 746 195 120 75 51 30246 30055 109 79 704 621 49 83 52 595 563 145 116 42 191
is_linear=0
shrinkage=0.05


Tree=7
num_leaves=31
num_cat=0
split_feature=48 12 39 98 8 103 92 84 24 80 70 48 58 4 52 93 13 74 37 104 53 102 26 9 96 106 71 27 13 57
split_gain=0.00778643 0.0101767 0.00353823 0.00334964 0.0114052 0.00375436 0.0115264 0.00368172 0.00463017 0.00462089 0.00378272 0.00342917 0.00322307 0.00302069 0.0026993 0.00244361 0.00404187 0.00430604 0.00826127 0.00756234 0.00475196 0.00384904 0.00479914 0.00323064 0.00333623 0.00309014 0.00277906 0.00375058 0.0026707 0.00259902
threshold=6893.6250000000009 -683.37018403265392 -0.0047255698116740992 25.137090602759962 0.010960125784377852 -0.042651287591984798 1522803.2500000002 -19881.649999999976 1179.7650000000003 0.52518567783739922 2961.9450000000002 1123.7750000000003 3.0496557087342357 25.408675500000005 0.014076038738752652 -0.010846643745837149 186.65873349387374 0.034971787972514302 0.0029987835075672006 -0.0012067445663998999 -0.7179385263878435 0.17524618997820926 960.19213500000012 1.7557931400495306 0.024229613494305805 58542331.749999948 -0.031702672328999294 -0.0097376657985113486 50.141498524907497 -0.26496725072723804
decision_type=2 2 2 2 2 2 2 2 2 2 2 2 2 2 2 2 2 2 2 2 2 2 2 2 2 2 2 2 2 2
left_child=3 -2 -3 4 14 6 11 8 9 10 -7 -5 -10 -4 -1 16 17 21 19 -19 -20 23 -23 24 26 -18 27 -9 29 -26
right_child=1 2 13 5 -6 7 -8 15 12 -11 -12 -13 -14 -15 -16 -17 25 18 20 -21 -22 22 -24 -25 28 -27 -28 -29 -30 -31
leaf_value=0.00010512673280412562 0.0012366311943489043 -0.00032081972770226587 0.00063720624170137427 -0.00033271599278253107 0.0010356496283996173 0.00043005682276310152 -0.0013205519469920548 -9.8345405016579907e-05 -0.00046880164269984156 -3.8737729358938945e-05 0.0012702427305547256 0.00039577875538573915 0.00034455519136307499 -6.2208579486021056e-05 -0.00039989142932082079 -7.8999771357904041e-06 0.00020139410459635724 0.0007221466132991568 -0.0013726749923080206 -0.00037839246907497983 -0.00033865779638290409 0.00016323130395856471 0.00097059170147986153 0.00044498068968798845 0.00021527232718653979 0.00084183663167768054 1.9727803888178934e-05 -0.00077818766330101823 -4.0469081839546568e-05 0.0010213467020366805
leaf_weight=302 28 28 38 35 33 37 22 172 29 29 21 30 21 26 29 28051 104 27 20 37 25 231 20 44 20 23 1889 23 25 20
leaf_count=302 28 28 38 35 33 37 22 172 29 29 21 30 21 26 29 28051 104 27 20 37 25 231 20 44 20 23 1889 23 25 20
internal_value=-4.9651e-15 0.000401993 0.000147972 -1.54025e-06 0.000149252 -3.31342e-06 -0.000331309 -2.38898e-06 0.000256235 0.000476595 0.000734262 3.51235e-06 -0.000127192 0.000353069 6.08804e-05 -3.54194e-06 4.20727e-05 2.83775e-05 -0.000279106 8.58975e-05 -0.000798221 4.20909e-05 0.000227563 2.08627e-05 1.2179e-05 0.00031738 1.17663e-06 -0.000178532 0.000364933 0.00061831
internal_weight=31439 120 92 31319 364 30955 87 30868 137 87 58 65 50 64 331 30731 2680 2553 109 64 45 2444 251 2193 2149 127 2084 195 65 40
internal_count=31439 120 92 31319 364 30955 87 30868 137 87 58 65 50 64 331 30731 2680 2553 109 64 45 2444 251 2193 2149 127 2084 195 65 40
is_linear=0
shrinkage=0.05


Tree=8
num_leaves=31
num_cat=0
split_feature=48 54 82 27 98 8 103 92 84 24 80 70 48 58 52 93 13 74 37 104 101 35 93 71 104 96 60 5 4 106
split_gain=0.00702726 0.00969118 0.00338764 0.0065736 0.00302305 0.0102932 0.00338831 0.0104026 0.00332275 0.00417872 0.00417035 0.0034139 0.00309482 0.00290882 0.00243612 0.00220536 0.00364779 0.0038862 0.0074558 0.00682502 0.00438387 0.00364043 0.00365714 0.00394667 0.00390149 0.00363161 0.00355576 0.00326807 0.00320713 0.00340507
threshold=6893.6250000000009 32.125649820297959 -0.015105500739208797 -0.0050479912677579494 25.137090602759962 0.010960125784377852 -0.042651287591984798 1522803.2500000002 -19881.649999999976 1179.7650000000003 0.52518567783739922 2961.9450000000002 1123.7750000000003 3.0496557087342357 0.014076038738752652 -0.010846643745837149 186.65873349387374 0.034971787972514302 0.0029987835075672006 -0.0012067445663998999 -2.1149007169033359e-05 -22.331822232813433 -0.042651287591984798 -0.031702672328999294 0.0047720808161297512 0.012063202137103352 0.013756652942315503 -0.022481858279526347 131.16150700000003 43888449.300000064
decision_type=2 2 2 2 2 2 2 2 2 2 2 2 2 2 2 2 2 2 2 2 2 2 2 2 2 2 2 2 2 2
left_child=4 -2 -3 -4 5 14 7 12 9 10 11 -8 -6 -11 -1 16 17 21 19 -19 -20 -10 24 26 -23 27 -24 -25 29 -27
right_child=1 2 3 -5 6 -7 8 -9 15 13 -12 -13 -14 -15 -16 -17 -18 18 20 -21 -22 22 23 25 -26 28 -28 -29 -30 -31
leaf_value=9.987039648931026e-05 0.0013302448412022469 -0.00041154965307214301 0.00098618826654274017 2.6052617132971241e-06 -0.00031608019346354667 0.00098386712647466497 0.00040855397898200395 -0.0012545243519443002 0.00053906927900647546 -0.00044536156071036862 -3.6800843435199131e-05 0.0012067305999586271 0.00037598980813830472 0.0003273274220104906 -0.00037989686273343478 -7.5049782573177207e-06 0.00030151077427415044 0.00068603927146695151 -0.0013100663275690751 -0.00035947283928131535 -0.00031690485705621545 7.7178192603039663e-05 -0.00011230984567430968 -0.00049325563706909589 0.00099855476844822977 2.4722732479783186e-05 -0.00078376383832867507 3.6118559793080288e-06 0.00071875567148460757 0.00022843295087944212
leaf_weight=302 22 20 25 53 35 33 37 22 36 29 29 21 30 21 29 28051 127 27 20 37 25 27 190 34 20 506 22 1242 22 345
leaf_count=302 22 20 25 53 35 33 37 22 36 29 29 21 30 21 29 28051 127 27 20 37 25 27 190 34 20 506 22 1242 22 345
internal_value=-7.88419e-14 0.000381893 0.000168998 0.000317856 -1.46324e-06 0.00014179 -3.14775e-06 -0.000314743 -2.26953e-06 0.000243423 0.000452766 0.000697549 3.33673e-06 -0.000120832 5.78364e-05 -3.36484e-06 3.99691e-05 2.69586e-05 -0.00026515 8.16026e-05 -0.00075831 3.99864e-05 3.2525e-05 2.38311e-05 0.000469253 4.41354e-05 -0.000181989 -9.62756e-06 0.000122717 0.000107308
internal_weight=31439 120 98 78 31319 364 30955 87 30868 137 87 58 65 50 331 30731 2680 2553 109 64 45 2444 2408 2361 47 2149 212 1276 873 851
internal_count=31439 120 98 78 31319 364 30955 87 30868 137 87 58 65 50 331 30731 2680 2553 109 64 45 2444 2408 2361 47 2149 212 1276 873 851
is_linear=0
shrinkage=0.05


Tree=9
num_leaves=31
num_cat=0
split_feature=48 83 16 61 93 84 15 35 57 105 102 33 12 8 106 79 102 92 92 12 105 15 33 50 99 75 16 22 38 58
split_gain=0.0063421 0.0094429 0.00285795 0.00280537 0.00276564 0.00632883 0.00681627 0.00503376 0.00419539 0.00462337 0.00364726 0.00348812 0.00407105 0.00492439 0.00451328 0.00328985 0.00381046 0.00309132 0.00264885 0.00539758 0.00500446 0.0041887 0.00374816 0.00750692 0.00370154 0.00337366 0.00298786 0.00295063 0.00285046 0.00327852
threshold=6893.6250000000009 -0.020815189726985397 -0.00062813610922419995 0.0080459699988129508 -0.018577926057532546 771875.71999999858 -0.0088703112540068473 -8.4735732708306237 -0.33824860557327163 0.010544287745331702 0.17524618997820926 -99.01278289920991 -564.88811684106417 0.019757252121489401 31410345.150000114 -1.0143586907534754 0.25260686731174747 538531.85000000009 1522803.2500000002 -354.67175984796091 -0.011174686754546598 -0.0020685582208988997 -99.01278289920991 359.07586428571432 -0.053668895719670394 -1.2224226322971865 -0.00086872339547374984 1038.5600000000002 -0.014175336981692448 15.177684385822888
decision_type=2 2 2 2 2 2 2 2 2 2 2 2 2 2 2 2 2 2 2 2 2 2 2 2 2 2 2 2 2 2
left_child=4 -2 -3 -4 5 6 7 -1 9 10 17 -7 14 15 -13 -14 -17 -8 22 20 -20 -21 23 -6 -24 -25 -23 28 -26 -30
right_child=1 2 3 -5 18 11 8 -9 -10 -11 -12 12 13 -15 -16 16 -18 -19 19 21 -22 26 24 25 27 -27 -28 -29 29 -31
leaf_value=0.0013696949074404653 0.0012061514781985003 -0.0001346745341333171 0.00077032544976100327 -2.4160152606782502e-05 0.001152516123727851 -0.00063472201027685695 0.00017686523204811866 0.00035902165046926325 0.00031834717365144253 -0.00077604177407920361 0.00060310170558058537 0.0010217122980975546 0.00051814219371105238 -0.00077116349735834294 0.00011899550731565493 -4.2773393789795875e-05 0.00058714045980013915 -0.00061969451212678993 -8.277059483589256e-05 0.00030433337564318209 -0.0011439039843389764 5.9912343422183769e-05 -0.00053331958523344708 -0.00031245023443868074 0.00075002632397429454 0.00050272361229210889 -0.00079400751052335612 -4.4328749745279281e-06 0.00033003315038513395 -0.00033342134562122671
leaf_weight=22 26 49 25 20 21 21 29 28 163 20 23 20 30 21 45 605 25 21 20 50 25 20 33 30 23 22 21 29894 60 27
leaf_count=22 26 49 25 20 21 21 29 28 163 20 23 20 30 21 45 605 25 21 20 50 25 20 33 30 23 22 21 29894 60 27
internal_value=-1.88772e-12 0.000362798 0.000129531 0.000417221 -1.39008e-06 7.74956e-05 0.000269747 0.000803718 0.000165455 -0.000102516 8.20116e-05 7.95726e-07 1.86856e-05 -1.74002e-05 0.000396755 6.58314e-06 -1.77768e-05 -0.00015769 -4.18861e-06 -0.000224355 -0.000672289 -2.84881e-06 -3.19417e-06 0.000354647 -4.06384e-06 3.2431e-05 -0.000377461 -3.48174e-06 0.000255002 0.000124133
internal_weight=31439 120 94 45 31319 1073 306 50 256 93 73 767 746 681 65 660 630 50 30246 136 45 91 30110 73 30037 52 41 30004 110 87
internal_count=31439 120 94 45 31319 1073 306 50 256 93 73 767 746 681 65 660 630 50 30246 136 45 91 30110 73 30037 52 41 30004 110 87
is_linear=0
shrinkage=0.05


Tree=10
num_leaves=31
num_cat=0
split_feature=48 14 47 58 98 8 48 56 93 34 96 11 39 76 99 57 52 104 22 38 58 39 74 103 104 0 93 13 10 58
split_gain=0.00572374 0.00901145 0.00321991 0.00534419 0.00269535 0.00921025 0.0031615 0.0106242 0.00267565 0.00819608 0.00479617 0.00300241 0.00744325 0.00460675 0.0022412 0.00802738 0.00215813 0.00207597 0.00202972 0.00229965 0.00240956 0.0019567 0.00207744 0.00190993 0.00339483 0.00338735 0.00392672 0.00163225 0.00193071 0.00174958
threshold=6893.6250000000009 6048.8729638615487 243.01285000000004 63.30268848892144 25.137090602759962 0.010960125784377852 4651.1200000000008 -4.4624438375412554 -0.042651287591984798 -32.07487141716242 0.021577429488892904 -1217.5406968524146 0.0078193571213449019 46.800406748495199 -0.053668895719670394 -2.2284496434002317 0.014076038738752652 0.0088621050698095023 1038.5600000000002 -0.014175336981692448 15.177684385822888 0.0060345025616035013 0.021679007859639304 -0.034226057705020144 -0.011461958048447348 30872.275000000005 -0.00063563363904324988 -33.21658493805618 31.561191131119916 15.489654606314476
decision_type=2 2 2 2 2 2 2 2 2 2 2 2 2 2 2 2 2 2 2 2 2 2 2 2 2 2 2 2 2 2
left_child=4 2 17 -4 5 16 8 -8 9 -6 -11 12 13 -10 15 -13 27 -2 19 -16 -21 22 -9 24 -20 -26 -27 28 -1 -29
right_child=1 -3 3 -5 6 -7 7 21 11 10 -12 14 -14 -15 18 -17 -18 -19 23 20 -22 -23 -24 -25 25 26 -28 29 -30 -31
leaf_value=0.00010770067194293057 0.00067469680467058485 0.001189292699098587 -0.00079252180643379693 0.00029462497970178872 -0.00053904822520053127 0.00093049377001906675 -0.0012004539540309148 2.744729723704758e-05 0.0010193585885645007 0.00024327916032364428 0.0012570600287290291 -0.0010664303341317545 -0.00037345402423462869 0.00011350113176740707 0.00068216810191404961 0.00014586489649243755 -0.00035747100000976237 1.2534485285868869e-05 -0.00062064388437326726 0.00028134734072106463 -0.00027373739094714285 0.00029739452238572997 -0.00060211961405002516 -2.7537312741590179e-06 0.00053940839687129484 0.00036621713079512121 -0.0003598328151246565 5.3741236866523153e-05 0.00054011660802643746 -0.00044174416898749771
leaf_weight=185 29 25 20 26 20 33 24 38 32 28 20 22 28 25 21 36 29 20 34 60 29 32 20 30368 20 25 73 62 30 25
leaf_count=185 29 25 20 26 20 33 24 38 32 28 20 22 28 25 21 36 29 20 34 60 29 32 20 30368 20 25 73 62 30 25
internal_value=2.18189e-12 0.000344659 0.000122386 -0.000178048 -1.32057e-06 0.000133945 -2.91116e-06 -0.000265734 -1.93967e-06 0.000311354 0.000665688 -2.63196e-06 0.000294121 0.000622053 -3.45392e-06 -0.000313971 5.45312e-05 0.000404426 -2.86593e-06 0.000211527 0.000100477 -1.64752e-05 -0.000189645 -3.63864e-06 -0.000180435 -5.35949e-05 -0.000174616 9.40943e-05 0.000168038 -8.86396e-05
internal_weight=31439 120 95 46 31319 364 30955 114 30841 68 48 30773 85 57 30688 58 331 49 30630 110 89 90 58 30520 152 118 98 302 215 87
internal_count=31439 120 95 46 31319 364 30955 114 30841 68 48 30773 85 57 30688 58 331 49 30630 110 89 90 58 30520 152 118 98 302 215 87
is_linear=0
shrinkage=0.05


Tree=11
num_leaves=31
num_cat=0
split_feature=48 83 90 13 98 8 48 56 93 34 96 11 39 77 103 20 48 81 9 17 99 57 53 52 102 102 33 103 38 35
split_gain=0.00516568 0.00852291 0.00260182 0.00274098 0.00243255 0.00831226 0.00285325 0.00958835 0.00241478 0.00739696 0.00432855 0.00270968 0.00671753 0.00424935 0.00217305 0.00657988 0.00649381 0.00448879 0.00456932 0.00374784 0.00347515 0.0072038 0.00314592 0.00194771 0.00182305 0.00283936 0.00173914 0.00188589 0.00380669 0.00359907
threshold=6893.6250000000009 -0.025457741170991248 0.80622500000000008 -90.189286262854026 25.137090602759962 0.010960125784377852 4651.1200000000008 -4.4624438375412554 -0.042651287591984798 -32.07487141716242 0.021577429488892904 -1217.5406968524146 0.0078193571213449019 -0.27550937362943623 0.036225949341977356 14.500000000000002 1123.7750000000003 0.039299897499210104 -0.85980388575360267 0.00092160310161000004 -0.053668895719670394 -2.2284496434002317 1.2172830236501027 0.014076038738752652 0.12331042942675681 0.05152378000729186 -99.01278289920991 -0.034226057705020144 -0.013473742731632999 1.3885094739025121
decision_type=2 2 2 2 2 2 2 2 2 2 2 2 2 2 2 2 2 2 2 2 2 2 2 2 2 2 2 2 2 2
left_child=4 -2 -3 -4 5 23 8 -8 9 -6 -11 12 13 -10 20 17 19 18 -16 -17 21 -13 -20 -1 25 -9 -22 28 -28 -30
right_child=1 2 3 -5 6 -7 7 24 11 10 -12 14 -14 -15 15 16 -18 -19 22 -21 26 -23 -24 -25 -26 -27 27 -29 29 -31
leaf_value=8.9389572011420415e-05 0.0012167802986699497 0.0005564962596578811 -0.00032708903655057422 0.00029015148615664136 -0.00051209579381975348 0.00088396905991954336 -0.0011404312587880365 0.00025274311210523594 0.0010005078535808328 0.00023111519440135455 0.0011942070114309899 -0.0011559164864593187 -0.00035478132771718914 0.00013588582363876481 -0.00090150586736854161 -0.00023266414317059454 0.0013056166429305451 0.00043238735691245115 0.00020910067917651287 0.00060972483451252871 0.00039018457194158276 6.9151896265490605e-05 -0.00044257198195179717 -0.00033959744855408268 0.00031072158840131657 -0.00044555112568510553 -0.00082204011821886526 -3.1649155596861714e-06 5.3638221890564425e-05 -0.00057561319744904875
leaf_weight=302 22 26 37 35 20 33 24 24 30 28 20 20 28 27 20 23 20 35 46 31 28 30 31 29 29 37 20 30250 105 29
leaf_count=302 22 26 37 35 20 33 24 24 30 28 20 20 28 27 20 23 20 35 46 31 28 30 31 29 29 37 20 30250 105 29
internal_value=3.82144e-12 0.000327426 0.000127775 -2.70416e-05 -1.25454e-06 0.000127248 -2.7656e-06 -0.000252447 -1.84269e-06 0.000295786 0.000632403 -2.50036e-06 0.000279415 0.00059095 -3.28122e-06 0.000158567 0.00053598 -5.30126e-05 -0.000228157 0.00025093 -4.375e-06 -0.000420875 -5.3261e-05 5.18046e-05 -1.56515e-05 -0.000170812 -3.69069e-06 -4.05342e-06 -0.000178582 -8.25431e-05
internal_weight=31439 120 98 72 31319 364 30955 114 30841 68 48 30773 85 57 30688 206 74 132 97 54 30482 50 77 331 90 61 30432 30404 154 134
internal_count=31439 120 98 72 31319 364 30955 114 30841 68 48 30773 85 57 30688 206 74 132 97 54 30482 50 77 331 90 61 30432 30404 154 134
is_linear=0
shrinkage=0.05


Tree=12
num_leaves=31
num_cat=0
split_feature=48 54 82 27 93 15 99 12 17 39 52 4 61 102 52 36 83 100 106 99 105 98 57 105 82 84 35 80 79 30
split_gain=0.00466203 0.00828679 0.00287525 0.00584318 0.00231079 0.00380085 0.00321532 0.00574304 0.00337821 0.0041221 0.00614733 0.0107802 0.00633998 0.00459561 0.00446729 0.0031656 0.00262476 0.00411578 0.00302654 0.00839346 0.00467056 0.00410944 0.0034899 0.00320043 0.00353887 0.00291518 0.00272982 0.00258078 0.00254534 0.00246868
threshold=6893.6250000000009 32.125649820297959 -0.015105500739208797 -0.0050479912677579494 -0.010846643745837149 -0.028433581079890295 0.0061686600503014005 -281.34838752880881 0.022349893104522556 0.021888014019355102 0.023819633739306251 98.382763000000011 -0.030157976862866247 0.31682875472874494 0.030276691294072951 59.427033512345822 -0.034987609653195396 -0.0259265424069389 49703020.54999999 -0.053668895719670394 -0.034118883012219346 73.281865803788136 -3.1461137719045054 -0.0086267557956084973 -0.024056721093509845 860231.2949999983 0.93839319989755465 0.52518567783739922 -0.099711012189311138 0.013587721847585102
decision_type=2 2 2 2 2 2 2 2 2 2 2 2 2 2 2 2 2 2 2 2 2 2 2 2 2 2 2 2 2 2
left_child=4 -2 -3 -4 5 -1 8 -8 9 10 12 14 -7 -14 -12 -9 17 -6 -18 -20 -21 22 28 24 -24 -19 -23 -17 -22 -26
right_child=1 2 3 -5 16 6 7 15 -10 -11 11 -13 13 -15 -16 27 18 25 19 20 21 26 23 -25 29 -27 -28 -29 -30 -31
leaf_value=0.00068146201842666978 0.0011880031342364171 -0.00042065528556122449 0.00088143629580736166 -4.5893347672766671e-05 0.00062514474710228694 0.00079913070382574996 0.00081174728426655445 -0.00022658395182448797 -0.00047892501926980911 0.0005324423955531337 -0.00058502362686946687 -0.0013977485148990085 5.6788389454730076e-06 0.00071637316864918985 0.00031738949619466441 0.00066119646716802189 -1.9468268081300318e-06 0.00029690856273222824 -0.00097151921316981308 0.00058007645430765921 0.00057026321424368345 -0.00085895106700869899 -0.00070692569395760076 -2.8943114193582383e-05 -0.00019490256871673484 -7.1136259300553148e-05 -0.00021806342604880534 0.00011960477146990416 -7.6032094191759826e-05 0.00017360036608978299
leaf_weight=23 22 20 25 53 39 26 30 65 35 38 24 21 2065 23 32 23 25686 87 25 29 39 24 30 1859 319 141 54 504 25 53
leaf_count=23 22 20 25 53 39 26 30 65 35 38 24 21 2065 23 32 23 25686 87 25 29 39 24 30 1859 319 141 54 504 25 53
internal_value=-1.74668e-12 0.000311054 0.000114188 0.000251328 -1.19182e-06 4.12516e-05 3.61494e-05 0.000136837 8.48692e-06 1.61403e-05 7.18574e-06 -0.000431647 2.31697e-05 1.35074e-05 -6.9359e-05 0.000102636 -5.53775e-06 0.000150492 -7.01805e-06 -6.00336e-05 -5.06639e-05 -5.82759e-05 -4.62996e-05 -5.6606e-05 -0.00018453 6.93019e-05 -0.00041526 0.000143242 0.000317804 -0.000142401
internal_weight=31439 120 98 78 31319 2909 2886 622 2264 2229 2191 77 2114 2088 56 592 28410 267 28143 2457 2432 2403 2325 2261 402 228 78 527 64 372
internal_count=31439 120 98 78 31319 2909 2886 622 2264 2229 2191 77 2114 2088 56 592 28410 267 28143 2457 2432 2403 2325 2261 402 228 78 527 64 372
is_linear=0
shrinkage=0.05


Tree=13
num_leaves=31
num_cat=0
split_feature=48 14 47 58 22 83 34 14 61 99 81 103 92 33 99 27 103 57 70 15 74 53 40 71 55 104 84 60 55 93
split_gain=0.00420748 0.00780772 0.00286462 0.00479309 0.00216837 0.00273972 0.0072358 0.00273658 0.00586404 0.00331677 0.00284064 0.00267092 0.0104002 0.00608888 0.00367848 0.00319274 0.0070024 0.0031076 0.00266126 0.00297279 0.00235127 0.00573894 0.00306688 0.00273111 0.00527251 0.00194161 0.00186496 0.00193906 0.001893 0.00180377
threshold=6893.6250000000009 6048.8729638615487 243.01285000000004 63.30268848892144 1038.5600000000002 0.060568910315338106 -51.407604686717313 7855.1566651461226 -0.015471275447690497 -0.015368451652792948 0.0070121459337424011 -0.042651287591984798 1522803.2500000002 -54.348374604338908 -0.0067354930661591992 -0.035183075234880491 -0.019509932768018247 -1.7831060057407837 2268.8500000000004 0.0028145590817191006 0.053933641797790158 0.20680744826375722 23391.61765999988 -0.052302192247855941 -1.800444133899475 0.0088621050698095023 2953591.0250000004 0.0015855067509019003 0.012602677670940901 -0.0010302641589342498
decision_type=2 2 2 2 2 2 2 2 2 2 2 2 2 2 2 2 2 2 2 2 2 2 2 2 2 2 2 2 2 2
left_child=4 2 25 -4 26 7 -7 11 -9 10 -10 12 13 -6 -15 16 -13 -18 -8 -20 23 22 -22 24 -17 -2 27 28 -1 -25
right_child=1 -3 3 -5 5 6 18 8 9 -11 -12 15 -14 14 -16 20 17 -19 19 -21 21 -23 -24 29 -26 -27 -28 -29 -30 -31
leaf_value=0.00081855975373540651 0.00061600971515370735 0.0010817022249102592 -0.00077669771737419067 0.00025287046916603755 0.00070957224789625886 -0.001086366299118492 -0.00055842885165475315 0.00098271710872226809 0.00068131202072739452 -0.00040140268762255669 -0.00010526348064145582 0.0010911558560716609 -0.0012488874901291206 -0.00079560653151323406 3.7078161060182741e-05 -0.00097458418153802909 -0.00044031319319566884 0.00025286526746879002 -0.00013406678072088753 0.00057513793124764397 0.0002751240652287379 -0.00025986250782866153 0.0010857959446730094 1.1838800540251345e-05 7.3480723533845909e-05 -2.4365904828300703e-05 -0.00015872850371697158 6.216300493559724e-05 0.00022081669325146964 -1.2652456541396911e-05
leaf_weight=26 29 25 20 26 22 21 20 22 24 26 22 21 21 21 36 21 22 61 45 22 28 31 20 13204 28 20 27 43 27 17458
leaf_count=26 29 25 20 26 22 21 20 22 24 26 22 21 21 21 36 21 22 61 45 22 28 31 20 13204 28 20 27 43 27 17458
internal_value=-3.94992e-12 0.000295502 8.86068e-05 -0.000194768 -1.13223e-06 -1.95834e-06 -0.000253354 -1.08499e-06 0.000268287 4.99892e-05 0.000305124 -1.90195e-06 -0.00025989 3.00843e-06 -0.0002697 -1.06688e-06 0.000275502 6.91312e-05 -5.22822e-05 9.88064e-05 -2.00105e-06 0.000270426 0.000612904 -2.70183e-06 -0.00037569 0.000354632 0.00020839 0.000311642 0.000514049 -2.10577e-06
internal_weight=31439 120 95 46 31319 31196 108 31088 94 72 46 30994 100 79 57 30894 104 83 87 67 30790 79 48 30711 49 49 123 96 53 30662
internal_count=31439 120 95 46 31319 31196 108 31088 94 72 46 30994 100 79 57 30894 104 83 87 67 30790 79 48 30711 49 49 123 96 53 30662
is_linear=0
shrinkage=0.05


Tree=14
num_leaves=31
num_cat=0
split_feature=92 96 97 31 15 93 92 101 49 11 49 81 48 73 60 57 56 49 104 100 82 98 75 81 75 38 17 77 48 82
split_gain=0.00391518 0.0182202 0.00675149 0.00898951 0.00365232 0.00194483 0.00428607 0.00664164 0.00372255 0.00316443 0.00488969 0.00333729 0.00571286 0.00369729 0.00413641 0.00298295 0.00337225 0.00480176 0.00327162 0.00295617 0.00278909 0.00275739 0.00484643 0.0026539 0.00265112 0.00254166 0.00247709 0.0038857 0.00276612 0.00236342
threshold=1927275.9500000002 0.032341898304107559 -2.3522997842717968 -1.6658745220023352 -0.00062813610922419995 -0.010846643745837149 1522803.2500000002 0.0062825155782337506 -0.030196324616951098 -913.81845894728031 -0.030196324616951098 0.022410304391966954 2425.7000000000003 14.683928571428574 -0.012058377485672898 2.5157267576846931 -7.2957549900679117 -0.030196324616951098 -0.034118883012219346 -0.0259265424069389 0.0051661083723107508 57.420616782582847 0.14780864381253678 0.013541286588826753 -2.0766098731532669 0.0093344519741905517 -0.0021187070104531493 -0.62189887291403234 800.11000000000013 -0.011093083941847699
decision_type=2 2 2 2 2 2 2 2 2 2 2 2 2 2 2 2 2 2 2 2 2 2 2 2 2 2 2 2 2 2
left_child=5 2 -2 -4 -5 9 8 -8 -7 10 -1 13 26 14 -11 16 17 -15 -18 -20 -12 23 -23 24 -16 -26 27 -13 -28 -19
right_child=1 -3 3 4 -6 6 7 -9 -10 11 20 12 -14 15 21 -17 18 29 19 -21 -22 22 -24 -25 25 -27 28 -29 -30 -31
leaf_value=0.00090937750673429738 0.0007118372297554743 0.001517505242372863 -0.0011012994763653049 0.00047861073296095633 -0.00035523928096760452 0.00060572016530204562 -3.6622850596111018e-05 -0.0010706457794488718 -4.6758470633466206e-06 0.00070215705814512654 -0.00019964871662003656 -0.00090819370423560024 -0.00094201959339746592 -0.00093224631008607419 -0.00025879782393204576 0.00034938605673884396 0.00061649462934482201 -0.00053305370282032529 0.00055723762544221248 1.0199888533356394e-05 0.00049182078021112825 0.00101230334257707 9.717839389057376e-05 -0.00042418387765064841 9.7145555789918746e-05 0.00053223345200612406 -0.00010207108525525867 -7.3393257258905348e-05 0.00039010087346069651 0.00011800274198480031
leaf_weight=26 24 24 22 29 24 25 44 24 28320 36 35 20 21 22 39 67 23 20 25 2034 25 23 39 25 153 43 94 46 41 46
leaf_count=26 24 24 22 29 24 25 44 24 28320 36 35 20 21 22 39 67 23 20 25 2034 25 23 39 25 153 43 94 46 41 46
internal_value=-2.31562e-13 0.000281541 -1.80861e-05 -0.000251662 0.000101018 -1.10581e-06 -5.08865e-06 -0.000401572 -4.13748e-06 3.78761e-05 0.000336647 2.87549e-05 -0.00015731 4.46727e-05 0.000193861 2.07972e-05 1.06519e-05 -0.000292527 2.34663e-05 1.68419e-05 8.84636e-05 0.000137033 0.00043666 6.55831e-05 0.000117686 0.000192599 -7.53259e-05 -0.000326363 4.74034e-05 -7.92871e-05
internal_weight=31439 123 99 75 53 31316 28413 68 28345 2903 86 2817 222 2595 358 2237 2170 88 2082 2059 60 322 62 260 235 196 201 66 135 66
internal_count=31439 123 99 75 53 31316 28413 68 28345 2903 86 2817 222 2595 358 2237 2170 88 2082 2059 60 322 62 260 235 196 201 66 135 66
is_linear=0
shrinkage=0.05


Tree=15
num_leaves=31
num_cat=0
split_feature=92 96 91 80 91 93 13 99 13 99 48 54 92 67 34 98 31 74 103 39 56 71 55 74 93 61 74 56 83 52
split_gain=0.00353345 0.0164437 0.0066507 0.0078891 0.00531426 0.00178928 0.00374323 0.00559246 0.00334334 0.00416076 0.00390291 0.00857487 0.00329883 0.00463532 0.00652868 0.00453901 0.00281823 0.0028025 0.00259643 0.0029094 0.00259118 0.00433851 0.00318619 0.00830957 0.00356617 0.0045981 0.0036128 0.0032215 0.00537789 0.00278624
threshold=1927275.9500000002 0.032341898304107559 1.0380350000000003 0.7680611964695726 1.6187250000000002 -0.0010896365479626999 -356.19186562430093 -0.014689485463268499 186.65873349387374 -0.053668895719670394 1729.5950000000003 60.485993339605052 1300869.8500000003 43.022500000000008 -29.974809282695102 69.867510549980182 3.4302330185809766 0.012173836227674852 -0.034226057705020144 0.0030020530205304504 -11.8936417391033 -0.025464315284078946 -8.4355500378376558 0.029025875331177804 -0.042651287591984798 -0.0050227456526822497 0.017556751235946404 -5.2357080802578064 0.023368831771133754 0.011640225114413752
decision_type=2 2 2 2 2 2 2 2 2 2 2 2 2 2 2 2 2 2 2 2 2 2 2 2 2 2 2 2 2 2
left_child=5 2 3 -2 -4 6 7 -1 9 -8 -10 -12 16 14 -14 -16 18 -18 19 -7 21 -11 23 29 25 -24 -27 28 -26 -22
right_child=1 -3 4 -5 -6 12 8 -9 10 20 11 -13 13 -15 15 -17 17 -19 -20 -21 22 -23 24 -25 27 26 -28 -29 -30 -31
leaf_value=0.00091743220369348171 -0.00018752559008134996 0.0014416299718201723 -0.00078697154610629443 0.0011394857518878 0.00023049880581397917 -9.1846599881441966e-05 -0.00054573611052867769 -0.00011143700382672251 9.4910044383049764e-05 0.0009363532229326667 0.0013344639435499198 -2.1103411979441133e-06 -0.0012792030739365145 0.00012877245951924433 0.00015729240134753513 -0.00071686019418174755 0.00010610686730678724 0.00070753660984337332 -9.573744054593069e-06 -0.00064235805711536104 -0.00026466360279647191 -4.3176043366726776e-05 -0.00024672149993421044 -0.00089548754740722625 0.0001122375975302294 0.00025402423028329698 0.0011639321083202958 4.0004909776274056e-06 0.00092818939381025052 0.00020020714611305405
leaf_weight=28 24 24 33 21 21 88 34 25 358 20 21 28 20 47 33 27 86 25 17533 33 63 26 20 35 246 24 20 12388 22 66
leaf_count=28 24 24 33 21 21 88 34 25 358 20 21 28 20 47 33 27 86 25 17533 33 63 26 20 35 246 24 20 12388 22 66
internal_value=1.39329e-15 0.000267464 -1.71818e-05 0.000431746 -0.000391289 -1.05052e-06 1.27474e-05 0.000432117 1.10851e-05 6.6551e-06 0.000152193 0.000570707 -1.14028e-05 -0.000265325 -0.000496858 -0.000236076 -9.58757e-06 0.000241564 -1.11667e-05 -0.000241986 8.10764e-06 0.000382706 6.7702e-06 -0.000212209 9.59351e-06 0.000381887 0.000667619 7.71086e-06 0.000179219 -2.68228e-05
internal_weight=31439 123 99 45 54 31316 13424 53 13371 12964 407 49 17892 127 80 60 17765 111 17654 121 12930 46 12884 164 12720 64 44 12656 268 129
internal_count=31439 123 99 45 54 31316 13424 53 13371 12964 407 49 17892 127 80 60 17765 111 17654 121 12930 46 12884 164 12720 64 44 12656 268 129
is_linear=0
shrinkage=0.05


Tree=16
num_leaves=31
num_cat=0
split_feature=59 8 103 5 93 44 60 11 39 35 62 17 14 47 56 96 31 96 36 75 36 82 33 61 47 81 80 22 96 74
split_gain=0.00348425 0.0100371 0.00297235 0.00780294 0.00362804 0.00558004 0.00492455 0.00623243 0.00233015 0.0023236 0.00253861 0.0020389 0.00490083 0.00469884 0.0029771 0.00349915 0.00640486 0.0031908 0.0028884 0.00417078 0.00340834 0.00423838 0.00265682 0.00246169 0.00233449 0.00221772 0.00221686 0.0021019 0.00288654 0.00280128
threshold=-0.039715464700439594 0.018062272316943104 -0.042651287591984798 -0.0013082532676710497 -0.042651287591984798 241.00100000000003 -0.0039139283394561989 -521.66225354598271 -0.0022961432056686996 -6.0361037621423366 110998.21500000016 -0.015862622112013645 6951.3340265393936 208.35000000000005 4.9382375280228521 0.022432871455741955 -1.441928344621751 0.028338402971146953 615.12019303070213 -1.2224226322971865 533.93104038669082 -0.013578030141346649 -58.595743564573233 -0.039715464700439594 349.26505000000003 0.0068492671545048013 13.679732429341472 1038.5600000000002 0.013678175302695951 0.024910337507712255
decision_type=2 2 2 2 2 2 2 2 2 2 2 2 2 2 2 2 2 2 2 2 2 2 2 2 2 2 2 2 2 2
left_child=1 9 3 -2 5 -4 -7 -8 -5 10 -1 12 13 25 15 22 -17 -18 20 -20 23 -22 24 -13 -15 -6 -23 28 -25 -29
right_child=2 -3 4 8 11 6 7 -9 -10 -11 -12 18 -14 14 -16 16 17 -19 19 -21 21 26 -24 27 -26 -27 -28 29 -30 -31
leaf_value=-0.0005780784978664347 -0.0011611063436066614 0.0012610267379343334 0.00092642205306149746 0.00032208648233251927 0.00059048165107756015 0.00067632520641200248 -0.00087861722335219388 0.00020700138806998251 -0.0003711261387004263 0.00035776345648628197 9.7946330300523776e-05 -0.0004804876966065624 0.00064760236277219818 0.0007893494298332371 0.00056166518334066495 -0.0011180053162388505 -0.00045440528749326326 0.0003878633129219948 -0.00093134821159765132 -8.8182376983406206e-05 0.00077757536848601435 -0.00034173839429224085 -2.2602409481758764e-05 -0.00010285953740538212 4.296237893868238e-05 3.5489498986862604e-05 0.00028597397715015969 -5.5256486494430963e-07 0.0004378815929803457 -7.9139208239551297e-05
leaf_weight=21 20 21 26 27 54 25 20 39 22 40 41 27 37 20 22 20 23 22 20 55 31 22 348 41 22 27 39 29065 62 1180
leaf_count=21 20 21 26 27 54 25 20 39 22 40 41 27 37 20 22 20 23 22 20 55 31 22 348 41 22 27 39 29065 62 1180
internal_value=-2.86577e-15 0.000265596 -1.04318e-06 -0.000328849 -3.19317e-07 0.000286326 8.82005e-05 -0.000161005 1.08482e-05 6.06538e-05 -0.00013103 -1.33197e-06 9.03365e-05 5.33852e-05 -6.4052e-06 -3.38723e-05 -0.000373514 -4.26295e-05 -3.1178e-06 -0.000313027 -2.3549e-06 0.000301517 2.27347e-05 -3.27527e-06 0.000398385 0.000405484 5.95859e-05 -2.8507e-06 0.000222635 -3.6186e-06
internal_weight=31439 123 31316 69 31247 110 84 59 49 102 62 31137 595 558 477 455 65 45 30542 75 30467 92 390 30375 42 81 61 30348 103 30245
internal_count=31439 123 31316 69 31247 110 84 59 49 102 62 31137 595 558 477 455 65 45 30542 75 30467 92 390 30375 42 81 61 30348 103 30245
is_linear=0
shrinkage=0.05


Tree=17
num_leaves=31
num_cat=0
split_feature=59 8 103 5 93 44 60 11 100 17 14 47 82 36 75 36 82 56 59 101 33 81 55 77 83 93 82 16 36 103
split_gain=0.00314453 0.00905845 0.00268255 0.00713411 0.00327431 0.00503599 0.0044444 0.00562476 0.00223751 0.00184011 0.004423 0.0042407 0.00279973 0.00260678 0.00376413 0.00307603 0.00382514 0.00235168 0.00258974 0.00438855 0.00252114 0.00242705 0.0022947 0.00876625 0.00460234 0.00295399 0.00256704 0.0027752 0.00221598 0.00208158
threshold=-0.039715464700439594 0.018062272316943104 -0.042651287591984798 0.0023020059492138505 -0.042651287591984798 241.00100000000003 -0.0039139283394561989 -521.66225354598271 0.0064381476889630506 -0.015862622112013645 6951.3340265393936 208.35000000000005 -0.035087381890367496 615.12019303070213 -1.2224226322971865 533.93104038669082 -0.013578030141346649 4.9382375280228521 0.00067776356099165012 -0.0091182715582384978 -58.595743564573233 0.030062377332304054 -10.939028095221826 -0.52496122247639032 -0.019182097018206647 -0.0069217623383763995 -0.019184634665183099 0.00036771795214660005 155.6297545382279 0.0043056043079618507
decision_type=2 2 2 2 2 2 2 2 2 2 2 2 2 2 2 2 2 2 2 2 2 2 2 2 2 2 2 2 2 2
left_child=1 8 3 -2 5 -4 -7 -8 -1 10 11 28 -13 15 -15 22 -17 18 20 -20 -14 -21 23 24 -11 -26 -27 -28 -6 -18
right_child=2 -3 4 -5 9 6 7 -9 -10 13 -12 12 17 14 -16 16 29 -19 19 21 -22 -23 -24 -25 25 26 27 -29 -30 -31
leaf_value=-5.8032798125811795e-05 -0.00085909632034599783 0.0011979753806372175 0.00088010094477795073 0.00016040657041279752 0.00021551128256281743 0.00064250893215648836 -0.0008346863626502454 0.00019665131530461786 0.0005318021908237825 -0.00067284557907524613 0.00061522224726079898 -0.0005569724876708774 0.00054481575445000392 -0.00088478079938795421 -8.3773256866896364e-05 0.00073869659851968006 0.00028384065806580779 0.00053731082180526017 -0.00079447656310301031 -0.00011025431269733797 5.0309372091472199e-05 0.00045809603855429616 -2.1240962609406641e-06 -0.00097874779115923521 0.00047464754036474532 0.00039721507986541834 -0.00072552872850792491 5.1558094209111808e-05 0.00078824463441075441 -0.00031882355390774577
leaf_weight=82 32 21 26 37 57 25 20 39 20 22 37 22 30 20 55 31 38 21 22 178 183 21 30219 29 38 20 20 27 24 23
leaf_count=82 32 21 26 37 57 25 20 39 20 22 37 22 30 20 55 31 38 21 22 178 183 21 30219 29 38 20 20 27 24 23
internal_value=1.39458e-12 0.000252316 -9.9102e-07 -0.000312406 -3.03349e-07 0.000272009 8.37904e-05 -0.000152955 5.76211e-05 -1.26537e-06 8.58197e-05 5.07159e-05 -6.08494e-06 -2.9619e-06 -0.000297375 -2.23715e-06 0.000286441 2.05514e-05 -4.4531e-06 -0.000124361 0.000119958 -5.02776e-05 -3.1115e-06 -0.000194384 -1.52772e-05 0.000122499 -7.72269e-05 -0.000279117 0.00038521 5.66066e-05
internal_weight=31439 123 31316 69 31247 110 84 59 102 31137 595 558 477 30542 75 30467 92 455 434 221 213 199 30375 156 127 105 67 47 81 61
internal_count=31439 123 31316 69 31247 110 84 59 102 31137 595 558 477 30542 75 30467 92 455 434 221 213 199 30375 156 127 105 67 47 81 61
is_linear=0
shrinkage=0.05


end of trees

feature_importances:
ADAUSDT_return=24
BNBUSDT_volume=23
SOLUSDT_obv=17
ADAUSDT_volatility_30=17
ADAUSDT_volume=16
ADAUSDT_return_lag1=16
ADAUSDT_macd=15
BTCUSDT_return_lag1=13
ADAUSDT_bb_width=13
ETHUSDT_macd=12
BNBUSDT_volatility_30=12
BNBUSDT_macd_diff=11
SOLUSDT_return_lag2=11
SOLUSDT_return_lag3=11
ADAUSDT_return_lag3=11
ETHUSDT_macd_diff=10
ADAUSDT_rsi_14=10
ADAUSDT_obv=10
ETHUSDT_open=9
ETHUSDT_return_lag3=9
SOLUSDT_volatility_30=9
SOLUSDT_zscore_30=9
ADAUSDT_return_lag2=9
BTCUSDT_macd_diff=8
BTCUSDT_bb_width=8
ETHUSDT_bb_width=8
BNBUSDT_rsi_14=8
BNBUSDT_macd_signal=8
BNBUSDT_bb_width=8
SOLUSDT_volume=8
SOLUSDT_bb_width=8
SOLUSDT_return_lag1=8
BTCUSDT_volatility_30=7
BTCUSDT_macd=7
BTCUSDT_macd_signal=7
ETHUSDT_return_lag2=7
BNBUSDT_close=7
BTCUSDT_return_lag3=6
ETHUSDT_volume=6
ETHUSDT_return=6
BNBUSDT_return_lag2=6
BNBUSDT_return_lag3=6
SOLUSDT_macd_diff=6
BTCUSDT_zscore_30=5
BTCUSDT_return_lag2=5
BTCUSDT_hour=5
SOLUSDT_return=5
BTCUSDT_volume=4
BTCUSDT_rsi_14=4
ETHUSDT_macd_signal=4
BNBUSDT_open=4
BNBUSDT_return=4
BNBUSDT_macd=4
SOLUSDT_rsi_14=4
SOLUSDT_macd=4
ADAUSDT_macd_signal=4
ADAUSDT_macd_diff=4
BTCUSDT_return=3
ETHUSDT_low=3
ETHUSDT_zscore_30=3
ETHUSDT_return_lag1=3
BNBUSDT_zscore_30=3
BNBUSDT_return_lag1=3
ADAUSDT_zscore_30=3
ETHUSDT_obv=2
BNBUSDT_ma_7=2
ADAUSDT_low=2
ADAUSDT_close=2
BTCUSDT_open=1
BTCUSDT_low=1
BTCUSDT_ma_7=1
BTCUSDT_ma_14=1
ETHUSDT_volatility_30=1
ETHUSDT_rsi_14=1
BNBUSDT_obv=1
SOLUSDT_open=1
SOLUSDT_high=1
SOLUSDT_ma_14=1
ADAUSDT_ma_7=1

parameters:
[boosting: gbdt]
[objective: regression]
[metric: l2]
[tree_learner: serial]
[device_type: cpu]
[data_sample_strategy: bagging]
[data: ]
[valid: ]
[num_iterations: 1000]
[learning_rate: 0.05]
[num_leaves: 31]
[num_threads: 8]
[seed: 0]
[deterministic: 0]
[force_col_wise: 0]
[force_row_wise: 0]
[histogram_pool_size: -1]
[max_depth: -1]
[min_data_in_leaf: 20]
[min_sum_hessian_in_leaf: 0.001]
[bagging_fraction: 1]
[pos_bagging_fraction: 1]
[neg_bagging_fraction: 1]
[bagging_freq: 0]
[bagging_seed: 3]
[bagging_by_query: 0]
[feature_fraction: 1]
[feature_fraction_bynode: 1]
[feature_fraction_seed: 2]
[extra_trees: 0]
[extra_seed: 6]
[early_stopping_round: 0]
[early_stopping_min_delta: 0]
[first_metric_only: 0]
[max_delta_step: 0]
[lambda_l1: 0]
[lambda_l2: 0]
[linear_lambda: 0]
[min_gain_to_split: 0]
[drop_rate: 0.1]
[max_drop: 50]
[skip_drop: 0.5]
[xgboost_dart_mode: 0]
[uniform_drop: 0]
[drop_seed: 4]
[top_rate: 0.2]
[other_rate: 0.1]
[min_data_per_group: 100]
[max_cat_threshold: 32]
[cat_l2: 10]
[cat_smooth: 10]
[max_cat_to_onehot: 4]
[top_k: 20]
[monotone_constraints: ]
[monotone_constraints_method: basic]
[monotone_penalty: 0]
[feature_contri: ]
[forcedsplits_filename: ]
[refit_decay_rate: 0.9]
[cegb_tradeoff: 1]
[cegb_penalty_split: 0]
[cegb_penalty_feature_lazy: ]
[cegb_penalty_feature_coupled: ]
[path_smooth: 0]
[interaction_constraints: ]
[verbosity: -1]
[saved_feature_importance_type: 0]
[use_quantized_grad: 0]
[num_grad_quant_bins: 4]
[quant_train_renew_leaf: 0]
[stochastic_rounding: 1]
[linear_tree: 0]
[max_bin: 255]
[max_bin_by_feature: ]
[min_data_in_bin: 3]
[bin_construct_sample_cnt: 200000]
[data_random_seed: 1]
[is_enable_sparse: 1]
[enable_bundle: 1]
[use_missing: 1]
[zero_as_missing: 0]
[feature_pre_filter: 1]
[pre_partition: 0]
[two_round: 0]
[header: 0]
[label_column: ]
[weight_column: ]
[group_column: ]
[ignore_column: ]
[categorical_feature: ]
[forcedbins_filename: ]
[precise_float_parser: 0]
[parser_config_file: ]
[objective_seed: 5]
[num_class: 1]
[is_unbalance: 0]
[scale_pos_weight: 1]
[sigmoid: 1]
[boost_from_average: 1]
[reg_sqrt: 0]
[alpha: 0.9]
[fair_c: 1]
[poisson_max_delta_step: 0.7]
[tweedie_variance_power: 1.5]
[lambdarank_truncation_level: 30]
[lambdarank_norm: 1]
[label_gain: ]
[lambdarank_position_bias_regularization: 0]
[eval_at: ]
[multi_error_top_k: 1]
[auc_mu_weights: ]
[num_machines: 1]
[local_listen_port: 12400]
[time_out: 120]
[machine_list_filename: ]
[machines: ]
[gpu_platform_id: -1]
[gpu_device_id: -1]
[gpu_use_dp: 0]
[num_gpu: 1]

end of parameters

pandas_categorical:[]
